~o
<STREAMINFO> 1 24
<VECSIZE> 24<NULLD><FBANK_Z><DIAGC>
~h "aa"
<BEGINHMM>
<NUMSTATES> 5
<STATE> 2
<MEAN> 24
 7.933490e-01 7.526090e-01 6.948045e-01 6.971930e-01 8.071756e-01 1.118329e+00 1.305351e+00 1.360065e+00 1.429625e+00 1.410318e+00 1.098034e+00 7.616119e-01 6.238322e-01 5.759050e-01 4.887941e-01 4.791433e-01 4.890414e-01 3.778027e-01 1.617340e-01 6.765138e-02 8.874704e-02 5.820526e-02 -9.394221e-03 -5.556634e-02
<VARIANCE> 24
 1.051271e-01 4.139149e-02 5.285534e-02 4.761942e-02 6.624610e-02 8.297989e-02 7.601184e-02 8.999566e-02 1.167716e-01 1.431692e-01 2.191214e-01 2.154335e-01 1.950129e-01 1.970367e-01 2.402332e-01 2.342762e-01 2.178172e-01 2.262337e-01 2.569575e-01 2.538331e-01 2.958764e-01 3.069422e-01 2.670062e-01 2.592958e-01
<GCONST> -1.591659e+00
<STATE> 3
<MEAN> 24
 1.047520e+00 9.272105e-01 9.200230e-01 8.823850e-01 1.022789e+00 1.354733e+00 1.595854e+00 1.647852e+00 1.699065e+00 1.755882e+00 1.548174e+00 1.207084e+00 1.029538e+00 9.883263e-01 9.476054e-01 9.214010e-01 9.096760e-01 8.204312e-01 6.021991e-01 4.621329e-01 4.370746e-01 3.765131e-01 2.865693e-01 2.129642e-01
<VARIANCE> 24
 1.366340e-01 5.916119e-02 6.587574e-02 6.218182e-02 7.496091e-02 1.023719e-01 1.127618e-01 1.347855e-01 1.612680e-01 1.677705e-01 2.088358e-01 2.217344e-01 2.048388e-01 2.191614e-01 2.673322e-01 2.694922e-01 2.570606e-01 2.747445e-01 3.168165e-01 3.335633e-01 3.812464e-01 3.938251e-01 3.278778e-01 3.158794e-01
<GCONST> 3.259295e+00
<STATE> 4
<MEAN> 24
 3.114479e-01 3.479500e-01 2.855905e-01 2.434824e-01 2.632822e-01 3.744924e-01 4.025680e-01 3.819457e-01 4.031362e-01 4.204898e-01 3.210793e-01 1.391738e-01 -3.648160e-03 -1.072549e-01 -1.982682e-01 -2.264758e-01 -2.351227e-01 -2.606052e-01 -3.092024e-01 -3.227175e-01 -3.027925e-01 -2.877257e-01 -3.098285e-01 -3.308252e-01
<VARIANCE> 24
 3.810002e-01 3.217084e-01 3.260880e-01 3.718446e-01 4.476402e-01 5.541172e-01 6.285695e-01 6.872009e-01 7.125294e-01 7.086115e-01 6.588433e-01 6.399244e-01 5.867116e-01 4.996317e-01 4.794856e-01 4.976641e-01 5.013331e-01 4.962820e-01 4.970219e-01 5.063915e-01 5.115119e-01 5.082259e-01 5.090637e-01 4.971862e-01
<GCONST> 2.796765e+01
<TRANSP> 5
 0.000000e+00 1.000000e+00 0.000000e+00 0.000000e+00 0.000000e+00
 0.000000e+00 8.114988e-01 1.885012e-01 0.000000e+00 0.000000e+00
 0.000000e+00 0.000000e+00 8.202017e-01 1.797983e-01 0.000000e+00
 0.000000e+00 0.000000e+00 0.000000e+00 5.876073e-01 4.123926e-01
 0.000000e+00 0.000000e+00 0.000000e+00 0.000000e+00 0.000000e+00
<ENDHMM>
