~o
<STREAMINFO> 1 24
<VECSIZE> 24<NULLD><FBANK_Z><DIAGC>
~h "ae"
<BEGINHMM>
<NUMSTATES> 5
<STATE> 2
<MEAN> 24
 1.038361e+00 9.581186e-01 9.583823e-01 9.136589e-01 1.052133e+00 1.327101e+00 1.446897e+00 1.357308e+00 1.252085e+00 1.221485e+00 1.353762e+00 1.505225e+00 1.498900e+00 1.454733e+00 1.409902e+00 1.284137e+00 1.149019e+00 1.054785e+00 9.148952e-01 7.574725e-01 6.439312e-01 5.901305e-01 5.156422e-01 4.709502e-01
<VARIANCE> 24
 1.256507e-01 5.732547e-02 6.541723e-02 6.942131e-02 7.421899e-02 9.990984e-02 1.226640e-01 1.496047e-01 1.530992e-01 1.780306e-01 2.218866e-01 2.018131e-01 1.851699e-01 1.705775e-01 1.681461e-01 1.912431e-01 2.070087e-01 2.152954e-01 2.490401e-01 2.747612e-01 3.090509e-01 3.364201e-01 3.241715e-01 3.204978e-01
<GCONST> 9.575835e-01
<STATE> 3
<MEAN> 24
 7.031009e-01 7.449023e-01 6.674690e-01 6.530261e-01 7.147800e-01 9.266475e-01 9.803869e-01 8.853917e-01 7.734579e-01 7.182598e-01 8.245420e-01 9.677705e-01 9.703393e-01 9.189436e-01 8.558095e-01 7.549344e-01 6.305850e-01 5.455168e-01 4.211652e-01 2.966253e-01 1.963974e-01 1.297397e-01 1.023880e-01 8.329587e-02
<VARIANCE> 24
 1.057670e-01 4.468478e-02 5.475568e-02 4.894565e-02 6.010059e-02 7.520360e-02 9.251343e-02 1.065867e-01 1.172579e-01 1.466706e-01 1.919706e-01 1.848161e-01 1.818701e-01 1.696833e-01 1.659997e-01 1.857559e-01 2.016685e-01 1.863749e-01 2.066417e-01 2.166412e-01 2.434696e-01 2.631888e-01 2.598893e-01 2.567373e-01
<GCONST> -3.387380e+00
<STATE> 4
<MEAN> 24
 1.726631e-01 2.135165e-01 1.373639e-01 6.446510e-02 8.646597e-03 4.849316e-03 -1.070051e-02 -6.498113e-02 -1.133307e-01 -1.305661e-01 -7.511070e-02 -5.586734e-02 -7.787143e-02 -6.816567e-02 -1.253628e-01 -2.471406e-01 -3.209429e-01 -2.917360e-01 -2.270433e-01 -2.049019e-01 -2.059461e-01 -1.931693e-01 -2.050662e-01 -2.166396e-01
<VARIANCE> 24
 3.688529e-01 3.414861e-01 3.413214e-01 3.486471e-01 3.638858e-01 4.123949e-01 4.566136e-01 4.831720e-01 4.861137e-01 4.819065e-01 4.654522e-01 4.367521e-01 4.388247e-01 4.488606e-01 4.712110e-01 5.054064e-01 5.180821e-01 5.444500e-01 5.938581e-01 6.391897e-01 7.059153e-01 7.272150e-01 7.189725e-01 6.991703e-01
<GCONST> 2.680779e+01
<TRANSP> 5
 0.000000e+00 1.000000e+00 0.000000e+00 0.000000e+00 0.000000e+00
 0.000000e+00 8.645518e-01 1.354482e-01 0.000000e+00 0.000000e+00
 0.000000e+00 0.000000e+00 8.034655e-01 1.965345e-01 0.000000e+00
 0.000000e+00 0.000000e+00 0.000000e+00 5.297818e-01 4.702182e-01
 0.000000e+00 0.000000e+00 0.000000e+00 0.000000e+00 0.000000e+00
<ENDHMM>
