~o
<STREAMINFO> 1 24
<VECSIZE> 24<NULLD><FBANK_Z><DIAGC>
~h "ah"
<BEGINHMM>
<NUMSTATES> 5
<STATE> 2
<MEAN> 24
 9.960415e-01 9.412723e-01 9.603791e-01 9.538168e-01 1.119085e+00 1.320018e+00 1.337007e+00 1.292328e+00 1.320041e+00 1.419917e+00 1.375731e+00 1.127813e+00 9.312898e-01 9.065861e-01 9.399186e-01 9.723040e-01 9.663227e-01 8.872297e-01 6.886640e-01 4.787005e-01 3.751840e-01 3.014086e-01 2.906470e-01 2.876387e-01
<VARIANCE> 24
 1.272512e-01 6.388749e-02 7.578864e-02 7.516798e-02 8.992970e-02 1.000993e-01 1.087624e-01 1.197578e-01 1.465338e-01 1.828419e-01 2.128828e-01 2.516364e-01 2.218451e-01 2.099692e-01 2.278593e-01 2.248532e-01 2.147447e-01 2.299744e-01 2.817272e-01 3.048433e-01 3.142181e-01 3.335684e-01 3.239183e-01 3.001883e-01
<GCONST> 2.444422e+00
<STATE> 3
<MEAN> 24
 6.891567e-01 7.290183e-01 6.841090e-01 7.062238e-01 7.691474e-01 9.005784e-01 8.949079e-01 8.587757e-01 8.724033e-01 9.324681e-01 8.691141e-01 6.146871e-01 4.062615e-01 3.542109e-01 3.472633e-01 3.725222e-01 3.717919e-01 3.159596e-01 1.818983e-01 5.720718e-02 -1.998603e-02 -9.422073e-02 -9.889677e-02 -8.483327e-02
<VARIANCE> 24
 1.033823e-01 5.321130e-02 6.119068e-02 6.170011e-02 7.659081e-02 8.459432e-02 9.761586e-02 1.146228e-01 1.421981e-01 1.556393e-01 1.729088e-01 1.983363e-01 1.701745e-01 1.579991e-01 1.864061e-01 1.867947e-01 1.797764e-01 1.908862e-01 2.234945e-01 2.444408e-01 2.616664e-01 2.639430e-01 2.570015e-01 2.403870e-01
<GCONST> -2.098327e+00
<STATE> 4
<MEAN> 24
 1.733436e-01 2.540681e-01 2.004440e-01 1.123964e-01 2.559409e-02 -3.512593e-02 -6.909106e-02 -7.277565e-02 -5.971012e-02 -4.355348e-02 -8.956052e-02 -2.075353e-01 -3.023274e-01 -2.933237e-01 -2.520312e-01 -2.836482e-01 -3.248190e-01 -3.197948e-01 -2.605953e-01 -2.125138e-01 -1.927705e-01 -1.796867e-01 -1.887000e-01 -2.075901e-01
<VARIANCE> 24
 3.140773e-01 2.916366e-01 3.129541e-01 3.360398e-01 3.475791e-01 3.600781e-01 3.933109e-01 4.394474e-01 4.444847e-01 4.117820e-01 4.000740e-01 4.006178e-01 4.068973e-01 4.359224e-01 4.659432e-01 5.148232e-01 5.407863e-01 5.998957e-01 7.068027e-01 8.129557e-01 8.745407e-01 9.152731e-01 8.990543e-01 8.672941e-01
<GCONST> 2.679562e+01
<TRANSP> 5
 0.000000e+00 1.000000e+00 0.000000e+00 0.000000e+00 0.000000e+00
 0.000000e+00 7.933916e-01 2.066084e-01 0.000000e+00 0.000000e+00
 0.000000e+00 0.000000e+00 6.897196e-01 3.102804e-01 0.000000e+00
 0.000000e+00 0.000000e+00 0.000000e+00 4.508413e-01 5.491588e-01
 0.000000e+00 0.000000e+00 0.000000e+00 0.000000e+00 0.000000e+00
<ENDHMM>
