~o
<STREAMINFO> 1 24
<VECSIZE> 24<NULLD><FBANK_Z><DIAGC>
~h "ao"
<BEGINHMM>
<NUMSTATES> 5
<STATE> 2
<MEAN> 24
 7.406669e-01 7.294095e-01 7.204474e-01 8.127595e-01 9.517539e-01 1.079292e+00 1.144800e+00 1.231478e+00 1.126119e+00 7.572439e-01 3.559798e-01 1.260100e-01 1.049480e-01 1.306943e-01 6.477308e-02 9.121607e-02 1.707526e-01 7.433555e-02 -1.331868e-01 -2.509876e-01 -3.054257e-01 -2.983825e-01 -2.632594e-01 -2.516176e-01
<VARIANCE> 24
 9.016532e-02 4.488442e-02 6.652535e-02 7.368615e-02 8.238495e-02 6.797637e-02 8.305517e-02 1.234079e-01 2.290811e-01 3.293428e-01 2.901302e-01 2.402468e-01 2.276848e-01 2.505313e-01 2.909282e-01 2.960210e-01 2.812009e-01 2.775451e-01 2.737506e-01 2.763689e-01 2.864545e-01 2.822136e-01 2.626644e-01 2.476447e-01
<GCONST> 2.571971e+00
<STATE> 3
<MEAN> 24
 9.620731e-01 8.558069e-01 8.597919e-01 8.648652e-01 1.035703e+00 1.313505e+00 1.457297e+00 1.557447e+00 1.627613e+00 1.436384e+00 1.016615e+00 6.991122e-01 5.895850e-01 5.981794e-01 6.362576e-01 6.902122e-01 7.293405e-01 6.569242e-01 4.301507e-01 2.818452e-01 2.366929e-01 1.987527e-01 1.428287e-01 8.751763e-02
<VARIANCE> 24
 1.266947e-01 6.068550e-02 6.861208e-02 7.406642e-02 8.784433e-02 9.893058e-02 1.112016e-01 1.301598e-01 1.554441e-01 2.310351e-01 2.705114e-01 2.185627e-01 1.982038e-01 2.395318e-01 2.987466e-01 2.891714e-01 2.753634e-01 2.785836e-01 3.095565e-01 3.313647e-01 3.600097e-01 3.578265e-01 3.082547e-01 2.999924e-01
<GCONST> 4.051800e+00
<STATE> 4
<MEAN> 24
 4.271467e-01 4.268858e-01 3.858284e-01 4.148150e-01 4.662728e-01 5.403488e-01 5.707290e-01 6.149950e-01 5.975004e-01 4.706646e-01 2.409801e-01 5.309815e-02 -4.649840e-02 -1.411780e-01 -2.073716e-01 -1.943594e-01 -1.641966e-01 -1.678585e-01 -2.180032e-01 -2.378470e-01 -2.596535e-01 -2.467384e-01 -2.466772e-01 -2.316819e-01
<VARIANCE> 24
 2.371460e-01 2.054692e-01 2.400461e-01 2.749986e-01 3.298333e-01 3.588777e-01 3.651763e-01 4.276931e-01 4.932939e-01 5.232005e-01 4.843450e-01 4.569841e-01 4.054449e-01 3.458622e-01 3.602208e-01 4.009350e-01 4.201578e-01 4.548667e-01 4.953747e-01 5.377740e-01 5.663068e-01 5.621696e-01 5.334261e-01 5.106894e-01
<GCONST> 2.219432e+01
<TRANSP> 5
 0.000000e+00 1.000000e+00 0.000000e+00 0.000000e+00 0.000000e+00
 0.000000e+00 7.941864e-01 2.058136e-01 0.000000e+00 0.000000e+00
 0.000000e+00 0.000000e+00 8.313117e-01 1.686883e-01 0.000000e+00
 0.000000e+00 0.000000e+00 0.000000e+00 5.999151e-01 4.000850e-01
 0.000000e+00 0.000000e+00 0.000000e+00 0.000000e+00 0.000000e+00
<ENDHMM>
