~o
<STREAMINFO> 1 24
<VECSIZE> 24<NULLD><FBANK_Z><DIAGC>
~h "aw"
<BEGINHMM>
<NUMSTATES> 5
<STATE> 2
<MEAN> 24
 9.953880e-01 9.199135e-01 8.886785e-01 8.348783e-01 9.341065e-01 1.227547e+00 1.472226e+00 1.513257e+00 1.491452e+00 1.535445e+00 1.528136e+00 1.370484e+00 1.204962e+00 1.167153e+00 1.175524e+00 1.117887e+00 1.049696e+00 9.575703e-01 7.714330e-01 6.343452e-01 5.713597e-01 4.854481e-01 3.970741e-01 3.381548e-01
<VARIANCE> 24
 1.332756e-01 5.645371e-02 6.947015e-02 5.988273e-02 7.175384e-02 9.737387e-02 1.098799e-01 1.371313e-01 1.679131e-01 2.002571e-01 1.894348e-01 2.029472e-01 1.848488e-01 1.748946e-01 1.760904e-01 1.693808e-01 1.766276e-01 2.053824e-01 2.299152e-01 2.478026e-01 2.853597e-01 2.978467e-01 2.731606e-01 2.825904e-01
<GCONST> -2.252667e-01
<STATE> 3
<MEAN> 24
 7.155058e-01 7.167430e-01 6.612059e-01 6.568844e-01 7.279182e-01 9.975733e-01 1.154990e+00 1.186499e+00 1.225420e+00 1.231084e+00 1.025067e+00 7.178297e-01 5.627254e-01 5.352868e-01 4.926337e-01 5.020912e-01 5.094442e-01 3.607181e-01 1.262765e-01 6.670086e-02 8.396897e-02 8.202498e-03 -8.030482e-02 -8.229761e-02
<VARIANCE> 24
 1.075235e-01 4.108862e-02 5.623617e-02 4.693643e-02 7.329201e-02 8.593471e-02 8.455031e-02 1.018897e-01 1.324996e-01 1.526118e-01 1.904595e-01 1.957721e-01 1.614308e-01 1.664559e-01 1.922063e-01 1.769237e-01 1.754711e-01 1.928739e-01 1.979035e-01 2.241633e-01 2.690176e-01 2.593731e-01 2.351425e-01 2.172711e-01
<GCONST> -3.397997e+00
<STATE> 4
<MEAN> 24
 2.579382e-01 3.212032e-01 2.911650e-01 2.881730e-01 2.844939e-01 3.503579e-01 3.673663e-01 3.707277e-01 4.015498e-01 3.113679e-01 5.364801e-02 -1.813814e-01 -2.694321e-01 -2.593530e-01 -2.919991e-01 -2.910056e-01 -2.959716e-01 -3.517206e-01 -4.051678e-01 -4.168324e-01 -4.087244e-01 -3.830067e-01 -4.012532e-01 -4.317143e-01
<VARIANCE> 24
 2.639332e-01 2.290729e-01 2.224617e-01 2.548618e-01 3.028487e-01 3.930568e-01 4.431477e-01 4.960550e-01 5.045018e-01 4.756416e-01 4.391840e-01 3.754214e-01 3.502285e-01 3.717465e-01 3.937949e-01 3.936290e-01 4.072773e-01 4.426664e-01 4.525328e-01 4.589718e-01 4.911195e-01 5.135648e-01 4.633004e-01 4.501152e-01
<GCONST> 2.142725e+01
<TRANSP> 5
 0.000000e+00 1.000000e+00 0.000000e+00 0.000000e+00 0.000000e+00
 0.000000e+00 8.741974e-01 1.258025e-01 0.000000e+00 0.000000e+00
 0.000000e+00 0.000000e+00 8.384043e-01 1.615957e-01 0.000000e+00
 0.000000e+00 0.000000e+00 0.000000e+00 6.603025e-01 3.396976e-01
 0.000000e+00 0.000000e+00 0.000000e+00 0.000000e+00 0.000000e+00
<ENDHMM>
