~o
<STREAMINFO> 1 24
<VECSIZE> 24<NULLD><FBANK_Z><DIAGC>
~h "ax"
<BEGINHMM>
<NUMSTATES> 5
<STATE> 2
<MEAN> 24
 7.277446e-01 7.744158e-01 7.661372e-01 8.262952e-01 8.863482e-01 8.632823e-01 7.859057e-01 7.659696e-01 8.067886e-01 8.725801e-01 7.877153e-01 5.325723e-01 3.418200e-01 3.451107e-01 4.288104e-01 4.456808e-01 4.224016e-01 3.895640e-01 2.917742e-01 1.453267e-01 4.042941e-02 -1.912472e-02 -5.051040e-03 -3.405153e-02
<VARIANCE> 24
 1.540543e-01 8.992942e-02 1.038629e-01 1.153059e-01 1.323708e-01 1.564222e-01 1.673546e-01 1.904520e-01 2.270038e-01 2.377081e-01 2.534467e-01 2.602056e-01 2.366405e-01 2.373913e-01 2.517768e-01 2.487619e-01 2.480510e-01 2.692680e-01 2.989788e-01 3.258371e-01 3.413914e-01 3.376182e-01 3.233209e-01 3.067110e-01
<GCONST> 7.287133e+00
<STATE> 3
<MEAN> 24
 4.432865e-01 5.203912e-01 4.660033e-01 4.976397e-01 4.473344e-01 3.658290e-01 3.087673e-01 3.040032e-01 3.140783e-01 3.047412e-01 1.824917e-01 -4.381368e-02 -1.898654e-01 -1.775902e-01 -1.298135e-01 -1.348110e-01 -1.436483e-01 -1.521366e-01 -1.739829e-01 -2.098514e-01 -2.466425e-01 -2.710447e-01 -2.807719e-01 -3.094428e-01
<VARIANCE> 24
 1.485923e-01 1.018047e-01 1.155090e-01 1.371021e-01 1.476261e-01 1.649593e-01 1.799343e-01 2.159797e-01 2.399817e-01 2.239959e-01 2.172295e-01 2.138122e-01 2.027957e-01 2.085270e-01 2.327993e-01 2.490082e-01 2.461519e-01 2.854069e-01 3.448487e-01 4.006664e-01 4.272813e-01 4.229212e-01 3.929991e-01 3.711464e-01
<GCONST> 8.534730e+00
<STATE> 4
<MEAN> 24
 -4.291563e-02 4.021575e-02 -3.249718e-02 -1.240427e-01 -2.641738e-01 -3.640037e-01 -3.863265e-01 -3.765125e-01 -3.648048e-01 -3.874225e-01 -4.704212e-01 -5.800644e-01 -6.296160e-01 -5.861692e-01 -5.426728e-01 -5.597196e-01 -5.449095e-01 -4.991903e-01 -4.191475e-01 -3.335123e-01 -2.747840e-01 -2.519721e-01 -2.680265e-01 -2.823213e-01
<VARIANCE> 24
 3.949776e-01 3.970928e-01 4.228933e-01 4.733502e-01 4.819461e-01 4.645808e-01 5.098921e-01 5.747570e-01 5.449301e-01 4.724925e-01 4.428397e-01 4.370084e-01 4.437547e-01 4.892027e-01 5.598489e-01 6.107190e-01 6.694171e-01 7.895941e-01 9.347534e-01 1.063405e+00 1.111856e+00 1.086077e+00 1.073727e+00 1.057545e+00
<GCONST> 3.199633e+01
<TRANSP> 5
 0.000000e+00 1.000000e+00 0.000000e+00 0.000000e+00 0.000000e+00
 0.000000e+00 6.160113e-01 3.839887e-01 0.000000e+00 0.000000e+00
 0.000000e+00 0.000000e+00 4.063462e-01 5.936537e-01 0.000000e+00
 0.000000e+00 0.000000e+00 0.000000e+00 2.946036e-01 7.053965e-01
 0.000000e+00 0.000000e+00 0.000000e+00 0.000000e+00 0.000000e+00
<ENDHMM>
