~o
<STREAMINFO> 1 24
<VECSIZE> 24<NULLD><FBANK_Z><DIAGC>
~h "ay"
<BEGINHMM>
<NUMSTATES> 5
<STATE> 2
<MEAN> 24
 7.859868e-01 7.639820e-01 6.792991e-01 6.798352e-01 7.570362e-01 1.068277e+00 1.274563e+00 1.281128e+00 1.276009e+00 1.330773e+00 1.255320e+00 9.877845e-01 7.853258e-01 7.389300e-01 6.992248e-01 6.546733e-01 6.048716e-01 4.763045e-01 2.530718e-01 1.810683e-01 1.817131e-01 1.280201e-01 2.984469e-02 -3.338046e-02
<VARIANCE> 24
 9.571291e-02 3.917287e-02 4.996143e-02 4.700912e-02 6.213372e-02 8.561618e-02 8.056022e-02 1.007187e-01 1.406753e-01 1.630342e-01 1.648662e-01 1.885872e-01 1.666545e-01 1.649280e-01 1.705194e-01 1.714740e-01 1.680389e-01 1.780483e-01 2.220353e-01 2.419132e-01 2.658725e-01 2.692692e-01 2.447358e-01 2.425663e-01
<GCONST> -3.847977e+00
<STATE> 3
<MEAN> 24
 9.817015e-01 9.050578e-01 8.856410e-01 8.704280e-01 9.833692e-01 1.237866e+00 1.391903e+00 1.365352e+00 1.313611e+00 1.343486e+00 1.441878e+00 1.432769e+00 1.341875e+00 1.296904e+00 1.252817e+00 1.191106e+00 1.106883e+00 1.009231e+00 8.274598e-01 6.719300e-01 5.638862e-01 4.646640e-01 3.793518e-01 3.210336e-01
<VARIANCE> 24
 1.291730e-01 5.991495e-02 6.843232e-02 6.565548e-02 7.411845e-02 1.017794e-01 1.568967e-01 2.134259e-01 2.536139e-01 3.057322e-01 2.815805e-01 2.044152e-01 1.730343e-01 1.652019e-01 1.641602e-01 1.763113e-01 1.770389e-01 1.942220e-01 2.463602e-01 2.726532e-01 3.124798e-01 3.249386e-01 3.250692e-01 3.037096e-01
<GCONST> 2.376110e+00
<STATE> 4
<MEAN> 24
 3.410644e-01 4.024994e-01 3.492762e-01 3.431515e-01 3.041362e-01 2.492426e-01 1.727831e-01 7.591093e-02 1.516817e-05 -2.232307e-02 6.879368e-02 1.905855e-01 2.439883e-01 2.507034e-01 2.129992e-01 1.181506e-01 3.245654e-02 -1.239367e-03 -1.234630e-02 -2.660617e-02 -6.295911e-02 -1.098321e-01 -1.506884e-01 -1.658543e-01
<VARIANCE> 24
 2.738962e-01 2.407860e-01 2.494420e-01 2.936201e-01 3.440896e-01 4.147705e-01 4.531004e-01 4.650431e-01 4.654206e-01 4.958130e-01 5.167296e-01 4.955018e-01 4.850482e-01 4.793356e-01 4.868147e-01 5.020145e-01 5.076740e-01 5.012129e-01 5.444372e-01 5.934794e-01 6.087232e-01 6.102952e-01 6.115515e-01 5.939431e-01
<GCONST> 2.507408e+01
<TRANSP> 5
 0.000000e+00 1.000000e+00 0.000000e+00 0.000000e+00 0.000000e+00
 0.000000e+00 8.392400e-01 1.607600e-01 0.000000e+00 0.000000e+00
 0.000000e+00 0.000000e+00 8.542542e-01 1.457458e-01 0.000000e+00
 0.000000e+00 0.000000e+00 0.000000e+00 7.038264e-01 2.961737e-01
 0.000000e+00 0.000000e+00 0.000000e+00 0.000000e+00 0.000000e+00
<ENDHMM>
