~o
<STREAMINFO> 1 24
<VECSIZE> 24<NULLD><FBANK_Z><DIAGC>
~h "b"
<BEGINHMM>
<NUMSTATES> 5
<STATE> 2
<MEAN> 24
 -5.045905e-01 -3.439135e-01 -4.700198e-01 -7.976434e-01 -1.045627e+00 -1.163900e+00 -1.201842e+00 -1.195691e+00 -1.143346e+00 -1.162882e+00 -1.311912e+00 -1.422622e+00 -1.439280e+00 -1.436250e+00 -1.479303e+00 -1.496490e+00 -1.444489e+00 -1.457504e+00 -1.432376e+00 -1.340782e+00 -1.214028e+00 -1.124541e+00 -1.124032e+00 -1.129726e+00
<VARIANCE> 24
 5.349851e-01 6.783569e-01 6.188121e-01 4.995960e-01 4.088610e-01 3.679294e-01 3.911221e-01 4.262189e-01 4.226495e-01 3.945782e-01 3.470376e-01 3.214715e-01 3.260404e-01 3.436430e-01 3.219247e-01 2.915382e-01 2.859560e-01 2.834187e-01 2.837979e-01 2.895000e-01 2.778244e-01 2.638290e-01 2.460502e-01 2.328949e-01
<GCONST> 1.921209e+01
<STATE> 3
<MEAN> 24
 2.523894e-01 1.630688e-01 1.430269e-01 1.194801e-01 6.639075e-02 9.542011e-03 -9.818609e-03 1.829752e-02 6.134471e-02 6.139535e-02 1.512658e-02 -2.894932e-02 -4.989814e-02 -4.269930e-02 -6.415034e-02 -5.945488e-02 -2.843235e-02 -6.211777e-02 -6.421550e-02 -2.197519e-02 3.503575e-02 4.303184e-02 1.523537e-04 -4.323303e-02
<VARIANCE> 24
 2.414991e-01 2.391765e-01 2.776476e-01 2.841847e-01 2.918076e-01 2.677743e-01 2.554862e-01 2.680249e-01 2.795342e-01 2.752996e-01 2.740293e-01 2.917666e-01 3.193231e-01 3.292053e-01 3.173855e-01 2.959298e-01 2.878908e-01 3.013365e-01 3.157219e-01 3.426197e-01 3.743100e-01 4.008796e-01 3.951671e-01 3.810849e-01
<GCONST> 1.532012e+01
<STATE> 4
<MEAN> 24
 8.092781e-01 7.817715e-01 8.153597e-01 9.123056e-01 9.396067e-01 8.701046e-01 8.000373e-01 8.038427e-01 8.247640e-01 7.702518e-01 6.475000e-01 5.493958e-01 4.901025e-01 5.228765e-01 5.068448e-01 4.534163e-01 4.685938e-01 3.964666e-01 2.537928e-01 1.183094e-01 3.529644e-02 -1.925545e-02 -4.512022e-02 -2.102487e-02
<VARIANCE> 24
 1.563383e-01 1.052791e-01 1.200837e-01 1.251291e-01 1.605019e-01 2.391307e-01 2.548359e-01 2.762401e-01 3.324227e-01 3.885587e-01 4.214633e-01 4.486904e-01 4.657728e-01 5.130419e-01 5.082530e-01 4.330588e-01 3.829150e-01 3.814184e-01 3.979453e-01 3.944869e-01 3.835498e-01 3.675671e-01 3.456817e-01 3.521471e-01
<GCONST> 1.539268e+01
<TRANSP> 5
 0.000000e+00 1.000000e+00 0.000000e+00 0.000000e+00 0.000000e+00
 0.000000e+00 7.661321e-01 2.338679e-01 0.000000e+00 0.000000e+00
 0.000000e+00 0.000000e+00 3.870232e-01 6.129768e-01 0.000000e+00
 0.000000e+00 0.000000e+00 0.000000e+00 5.071962e-01 4.928037e-01
 0.000000e+00 0.000000e+00 0.000000e+00 0.000000e+00 0.000000e+00
<ENDHMM>
