~o
<STREAMINFO> 1 24
<VECSIZE> 24<NULLD><FBANK_Z><DIAGC>
~h "ch"
<BEGINHMM>
<NUMSTATES> 5
<STATE> 2
<MEAN> 24
 -1.198672e+00 -1.188651e+00 -1.177683e+00 -1.262145e+00 -1.294725e+00 -1.274371e+00 -1.260414e+00 -1.244054e+00 -1.182276e+00 -1.109379e+00 -1.074937e+00 -1.028985e+00 -9.587370e-01 -8.970675e-01 -7.925714e-01 -6.437795e-01 -5.427287e-01 -5.443851e-01 -5.333195e-01 -4.957033e-01 -4.316876e-01 -3.849047e-01 -3.978672e-01 -4.127773e-01
<VARIANCE> 24
 4.119821e-01 4.249089e-01 3.978807e-01 3.384185e-01 2.829090e-01 2.689624e-01 3.085356e-01 3.415363e-01 3.556334e-01 3.574168e-01 3.762169e-01 4.148291e-01 4.892458e-01 5.904307e-01 6.742348e-01 8.717131e-01 9.820508e-01 9.740001e-01 9.646638e-01 9.644391e-01 9.385470e-01 8.950692e-01 8.820636e-01 8.518406e-01
<GCONST> 2.926506e+01
<STATE> 3
<MEAN> 24
 -2.321741e-01 -5.153443e-01 -5.515706e-01 -4.817497e-01 -4.227145e-01 -3.461061e-01 -2.715048e-01 -1.960482e-01 -1.248343e-01 -6.455092e-02 3.644899e-02 2.405648e-01 4.881130e-01 7.136071e-01 9.849530e-01 1.219751e+00 1.353710e+00 1.382417e+00 1.452477e+00 1.530262e+00 1.621959e+00 1.701633e+00 1.724281e+00 1.678438e+00
<VARIANCE> 24
 3.032295e-01 1.594927e-01 1.418919e-01 1.347355e-01 1.344118e-01 1.332518e-01 1.342936e-01 1.411599e-01 1.380119e-01 1.350800e-01 1.358679e-01 1.681317e-01 1.927970e-01 2.355589e-01 2.822677e-01 2.464399e-01 2.280439e-01 2.293196e-01 2.571652e-01 2.762021e-01 2.973264e-01 3.325769e-01 3.745959e-01 3.796250e-01
<GCONST> 5.756313e+00
<STATE> 4
<MEAN> 24
 1.300669e-01 1.620623e-01 1.779861e-01 1.448278e-01 1.245795e-01 4.827297e-02 1.556188e-03 -2.343537e-02 -4.250269e-02 3.339436e-04 1.350088e-01 2.992926e-01 3.819755e-01 3.886533e-01 3.799583e-01 3.629566e-01 3.500544e-01 2.673033e-01 1.999048e-01 1.457053e-01 1.119091e-01 9.227841e-02 9.753735e-02 5.999045e-02
<VARIANCE> 24
 7.052792e-01 8.527852e-01 9.061655e-01 8.211175e-01 7.686619e-01 6.625237e-01 6.062736e-01 5.899368e-01 5.505181e-01 5.567853e-01 6.092040e-01 6.431144e-01 6.382443e-01 6.279461e-01 5.731674e-01 5.131940e-01 4.770872e-01 4.518990e-01 4.268156e-01 4.418395e-01 4.554513e-01 4.843859e-01 4.709070e-01 4.606266e-01
<GCONST> 3.110237e+01
<TRANSP> 5
 0.000000e+00 1.000000e+00 0.000000e+00 0.000000e+00 0.000000e+00
 0.000000e+00 7.076134e-01 2.923866e-01 0.000000e+00 0.000000e+00
 0.000000e+00 0.000000e+00 8.646882e-01 1.353118e-01 0.000000e+00
 0.000000e+00 0.000000e+00 0.000000e+00 6.150987e-01 3.849013e-01
 0.000000e+00 0.000000e+00 0.000000e+00 0.000000e+00 0.000000e+00
<ENDHMM>
