~o
<STREAMINFO> 1 24
<VECSIZE> 24<NULLD><FBANK_Z><DIAGC>
~h "cl"
<BEGINHMM>
<NUMSTATES> 5
<STATE> 2
<MEAN> 24
 -8.666803e-01 -6.790476e-01 -6.435242e-01 -7.559749e-01 -8.666531e-01 -9.538212e-01 -1.022529e+00 -1.063760e+00 -1.040201e+00 -1.000222e+00 -9.836927e-01 -9.883270e-01 -9.906426e-01 -9.789563e-01 -1.001433e+00 -1.053498e+00 -1.085953e+00 -1.060045e+00 -9.864776e-01 -9.077041e-01 -8.343230e-01 -7.759709e-01 -7.767915e-01 -7.816960e-01
<VARIANCE> 24
 4.145784e-01 4.759062e-01 4.492799e-01 3.988798e-01 3.410063e-01 3.035899e-01 3.117478e-01 3.288043e-01 3.436171e-01 3.564064e-01 3.732378e-01 3.904629e-01 4.087228e-01 4.132470e-01 4.016068e-01 3.954007e-01 3.886530e-01 4.019231e-01 4.377412e-01 4.394189e-01 4.305004e-01 4.033647e-01 3.816833e-01 3.785918e-01
<GCONST> 2.138642e+01
<STATE> 3
<MEAN> 24
 -1.609702e+00 -1.574462e+00 -1.554268e+00 -1.619074e+00 -1.628385e+00 -1.617166e+00 -1.649472e+00 -1.653848e+00 -1.607802e+00 -1.560824e+00 -1.581978e+00 -1.606432e+00 -1.599642e+00 -1.594408e+00 -1.578774e+00 -1.554325e+00 -1.527267e+00 -1.498620e+00 -1.423715e+00 -1.293356e+00 -1.151131e+00 -1.055123e+00 -1.050028e+00 -1.044843e+00
<VARIANCE> 24
 4.069896e-01 4.756615e-01 4.423881e-01 3.508634e-01 2.609793e-01 2.241308e-01 2.404284e-01 2.431518e-01 2.381789e-01 2.290666e-01 2.208148e-01 2.214462e-01 2.281292e-01 2.442444e-01 2.422326e-01 2.366171e-01 2.413389e-01 2.630217e-01 2.989388e-01 3.197061e-01 3.167188e-01 2.960021e-01 2.805673e-01 2.757270e-01
<GCONST> 1.322143e+01
<STATE> 4
<MEAN> 24
 -4.297410e-01 -4.912226e-01 -4.799288e-01 -4.193382e-01 -3.905514e-01 -3.703513e-01 -3.316481e-01 -2.827897e-01 -2.302224e-01 -2.047618e-01 -1.854108e-01 -1.386748e-01 -8.195937e-02 -5.646603e-02 -4.171854e-02 1.522157e-02 3.278067e-02 7.124920e-02 1.841996e-01 2.901209e-01 3.507484e-01 3.633723e-01 3.494940e-01 3.272874e-01
<VARIANCE> 24
 6.326526e-01 5.738153e-01 5.372014e-01 4.931209e-01 4.486936e-01 4.045243e-01 3.945250e-01 4.184616e-01 4.275246e-01 4.303584e-01 4.470189e-01 4.902824e-01 5.244932e-01 5.174260e-01 5.157084e-01 5.730548e-01 6.216701e-01 6.502957e-01 7.268592e-01 8.106819e-01 8.677312e-01 8.873551e-01 8.806781e-01 9.037271e-01
<GCONST> 3.060143e+01
<TRANSP> 5
 0.000000e+00 1.000000e+00 0.000000e+00 0.000000e+00 0.000000e+00
 0.000000e+00 4.604558e-01 5.395442e-01 0.000000e+00 0.000000e+00
 0.000000e+00 0.000000e+00 7.582362e-01 2.417638e-01 0.000000e+00
 0.000000e+00 0.000000e+00 0.000000e+00 5.817626e-01 4.182374e-01
 0.000000e+00 0.000000e+00 0.000000e+00 0.000000e+00 0.000000e+00
<ENDHMM>
