~o
<STREAMINFO> 1 24
<VECSIZE> 24<NULLD><FBANK_Z><DIAGC>
~h "d"
<BEGINHMM>
<NUMSTATES> 5
<STATE> 2
<MEAN> 24
 -5.922605e-01 -3.940405e-01 -4.961152e-01 -7.862312e-01 -1.016120e+00 -1.143427e+00 -1.214923e+00 -1.272790e+00 -1.269818e+00 -1.225844e+00 -1.168476e+00 -1.149633e+00 -1.210924e+00 -1.224649e+00 -1.163109e+00 -1.186311e+00 -1.207458e+00 -1.193255e+00 -1.165916e+00 -1.081771e+00 -9.735751e-01 -9.010693e-01 -9.133821e-01 -9.347976e-01
<VARIANCE> 24
 4.653095e-01 5.814320e-01 5.387943e-01 4.703008e-01 4.051750e-01 3.695975e-01 4.019270e-01 4.349812e-01 4.409080e-01 4.361776e-01 4.509137e-01 4.780523e-01 5.007850e-01 5.214284e-01 5.198211e-01 5.432346e-01 5.490577e-01 5.592097e-01 5.877220e-01 5.743012e-01 5.355956e-01 5.031760e-01 4.771693e-01 4.405206e-01
<GCONST> 2.685808e+01
<STATE> 3
<MEAN> 24
 -1.452065e-01 -2.317069e-01 -2.478667e-01 -2.185580e-01 -2.184871e-01 -2.254021e-01 -1.967101e-01 -1.575006e-01 -1.207374e-01 -9.359333e-02 -3.131500e-02 7.348125e-02 1.491301e-01 1.388284e-01 1.842951e-01 2.821364e-01 2.849809e-01 2.873350e-01 3.483399e-01 4.083050e-01 4.302778e-01 4.101390e-01 3.521851e-01 2.849806e-01
<VARIANCE> 24
 3.720152e-01 3.628221e-01 3.387841e-01 2.985916e-01 2.469900e-01 2.050551e-01 1.937041e-01 2.057133e-01 2.183111e-01 2.406303e-01 2.466151e-01 2.533887e-01 2.874196e-01 3.201164e-01 3.196558e-01 3.473246e-01 3.791363e-01 4.219332e-01 5.022347e-01 5.671142e-01 6.196754e-01 6.773958e-01 7.027623e-01 6.993366e-01
<GCONST> 1.863969e+01
<STATE> 4
<MEAN> 24
 5.863495e-01 5.621876e-01 6.001103e-01 6.635365e-01 6.221939e-01 4.552986e-01 3.581300e-01 3.182346e-01 3.073810e-01 3.447263e-01 4.681531e-01 6.168678e-01 6.376081e-01 5.758774e-01 6.397508e-01 6.810492e-01 6.171265e-01 5.973101e-01 5.725368e-01 4.947180e-01 4.201682e-01 3.871883e-01 3.851187e-01 3.529684e-01
<VARIANCE> 24
 3.683027e-01 3.646910e-01 3.918614e-01 3.962293e-01 3.875581e-01 3.384719e-01 2.799373e-01 2.575995e-01 2.692282e-01 3.205933e-01 3.740586e-01 3.956095e-01 4.121245e-01 4.230660e-01 4.517607e-01 4.367161e-01 4.356084e-01 4.697069e-01 5.129502e-01 5.745376e-01 6.255667e-01 6.634832e-01 6.713191e-01 6.474169e-01
<GCONST> 2.332692e+01
<TRANSP> 5
 0.000000e+00 1.000000e+00 0.000000e+00 0.000000e+00 0.000000e+00
 0.000000e+00 6.705976e-01 3.294025e-01 0.000000e+00 0.000000e+00
 0.000000e+00 0.000000e+00 5.379725e-01 4.620275e-01 0.000000e+00
 0.000000e+00 0.000000e+00 0.000000e+00 5.406606e-01 4.593394e-01
 0.000000e+00 0.000000e+00 0.000000e+00 0.000000e+00 0.000000e+00
<ENDHMM>
