~o
<STREAMINFO> 1 24
<VECSIZE> 24<NULLD><FBANK_Z><DIAGC>
~h "dh"
<BEGINHMM>
<NUMSTATES> 5
<STATE> 2
<MEAN> 24
 -2.400803e-01 -1.983462e-01 -2.497029e-01 -3.023264e-01 -3.923469e-01 -4.733961e-01 -5.121650e-01 -5.274766e-01 -5.057955e-01 -4.449385e-01 -3.947113e-01 -4.413903e-01 -5.227749e-01 -5.340450e-01 -4.489035e-01 -4.508926e-01 -4.759882e-01 -4.122023e-01 -3.206863e-01 -1.726866e-01 -5.089972e-05 1.087200e-01 1.038246e-01 8.493823e-02
<VARIANCE> 24
 5.359008e-01 5.310903e-01 5.222673e-01 4.834413e-01 4.238569e-01 3.725934e-01 3.607369e-01 3.807330e-01 3.904969e-01 4.011577e-01 4.047122e-01 4.235143e-01 4.394149e-01 4.330613e-01 4.300035e-01 4.574837e-01 4.434218e-01 4.468350e-01 5.091113e-01 5.796378e-01 6.292651e-01 6.343062e-01 6.652627e-01 6.779776e-01
<GCONST> 2.618860e+01
<STATE> 3
<MEAN> 24
 5.398169e-01 5.325607e-01 5.381011e-01 5.471491e-01 4.707372e-01 3.097005e-01 1.949543e-01 1.387420e-01 1.366917e-01 2.085748e-01 3.155368e-01 2.877727e-01 1.604504e-01 1.286159e-01 2.475022e-01 2.152735e-01 1.128739e-01 1.664637e-01 2.027363e-01 2.369602e-01 3.254239e-01 3.831556e-01 3.693333e-01 3.406842e-01
<VARIANCE> 24
 1.552117e-01 1.281591e-01 1.488853e-01 1.530167e-01 1.644726e-01 1.578440e-01 1.352498e-01 1.337771e-01 1.432235e-01 1.838269e-01 2.102831e-01 2.249781e-01 2.409450e-01 2.196944e-01 2.008446e-01 2.170899e-01 2.247431e-01 2.151249e-01 2.261473e-01 2.838628e-01 3.288794e-01 3.583490e-01 3.649370e-01 3.785119e-01
<GCONST> 6.093890e+00
<STATE> 4
<MEAN> 24
 7.872972e-01 8.188266e-01 8.512741e-01 9.356880e-01 9.398536e-01 7.598444e-01 6.003223e-01 5.187917e-01 4.936089e-01 5.751178e-01 7.318001e-01 7.461905e-01 6.235819e-01 5.826023e-01 7.155347e-01 6.714429e-01 5.261289e-01 5.421882e-01 5.121035e-01 4.040084e-01 3.699795e-01 3.586728e-01 3.305537e-01 3.249519e-01
<VARIANCE> 24
 1.789289e-01 1.083674e-01 1.267492e-01 1.300756e-01 1.549359e-01 1.870972e-01 1.727524e-01 1.670677e-01 1.780543e-01 2.243173e-01 2.730548e-01 2.971184e-01 3.266267e-01 3.006226e-01 2.779254e-01 2.894337e-01 2.847755e-01 2.699996e-01 2.810962e-01 3.099590e-01 3.233244e-01 3.582951e-01 3.599602e-01 3.573075e-01
<GCONST> 9.189431e+00
<TRANSP> 5
 0.000000e+00 1.000000e+00 0.000000e+00 0.000000e+00 0.000000e+00
 0.000000e+00 5.034555e-01 4.965446e-01 0.000000e+00 0.000000e+00
 0.000000e+00 0.000000e+00 2.553905e-01 7.446096e-01 0.000000e+00
 0.000000e+00 0.000000e+00 0.000000e+00 3.154519e-01 6.845481e-01
 0.000000e+00 0.000000e+00 0.000000e+00 0.000000e+00 0.000000e+00
<ENDHMM>
