~o
<STREAMINFO> 1 24
<VECSIZE> 24<NULLD><FBANK_Z><DIAGC>
~h "dx"
<BEGINHMM>
<NUMSTATES> 5
<STATE> 2
<MEAN> 24
 1.719825e-01 2.904334e-01 2.796763e-01 1.868597e-01 2.902057e-02 -1.155827e-01 -1.945902e-01 -2.336419e-01 -2.270640e-01 -1.384162e-01 5.126664e-03 4.977302e-02 -1.515883e-02 -3.947789e-02 9.680219e-03 -7.612690e-02 -2.265791e-01 -3.274359e-01 -4.328018e-01 -4.941719e-01 -4.719871e-01 -4.370786e-01 -4.577984e-01 -5.048054e-01
<VARIANCE> 24
 2.225737e-01 1.511575e-01 1.823943e-01 2.602467e-01 3.157869e-01 3.159049e-01 3.163680e-01 3.373189e-01 3.734552e-01 4.447466e-01 4.627164e-01 4.418353e-01 4.492041e-01 4.635382e-01 4.690864e-01 4.932207e-01 5.200399e-01 5.147404e-01 4.859537e-01 4.363904e-01 4.121813e-01 4.001329e-01 3.858559e-01 3.645101e-01
<GCONST> 2.007871e+01
<STATE> 3
<MEAN> 24
 5.609083e-01 5.986307e-01 6.423275e-01 6.913912e-01 6.057011e-01 4.269579e-01 3.163610e-01 2.653548e-01 2.660360e-01 3.361665e-01 4.824260e-01 5.882146e-01 5.844879e-01 5.542861e-01 6.038172e-01 5.631598e-01 4.009379e-01 2.700351e-01 1.441002e-01 -2.236986e-02 -8.891717e-02 -7.986277e-02 -7.012373e-02 -1.022866e-01
<VARIANCE> 24
 1.188112e-01 8.115777e-02 9.661703e-02 1.058487e-01 1.326006e-01 1.524874e-01 1.387385e-01 1.436869e-01 1.740331e-01 2.464731e-01 2.776905e-01 2.589259e-01 2.363779e-01 2.315182e-01 2.350100e-01 2.472736e-01 2.987627e-01 3.286576e-01 3.336281e-01 3.492918e-01 3.303351e-01 3.248554e-01 3.075427e-01 2.840793e-01
<GCONST> 6.395990e+00
<STATE> 4
<MEAN> 24
 7.525237e-01 7.909858e-01 8.477257e-01 9.364346e-01 9.376455e-01 7.683935e-01 6.185479e-01 5.399749e-01 5.208849e-01 5.874236e-01 7.393508e-01 8.517349e-01 8.646963e-01 8.276997e-01 8.540240e-01 8.144318e-01 6.460324e-01 4.996570e-01 3.204681e-01 1.939751e-02 -1.460479e-01 -1.225396e-01 -4.408514e-02 -1.820935e-02
<VARIANCE> 24
 1.368876e-01 7.788382e-02 9.538430e-02 9.556606e-02 1.184035e-01 1.653060e-01 1.598889e-01 1.641356e-01 1.936898e-01 2.704570e-01 3.312786e-01 3.080321e-01 2.880042e-01 2.840115e-01 2.929230e-01 2.945204e-01 3.464981e-01 3.949637e-01 4.151689e-01 4.009582e-01 3.407472e-01 3.288828e-01 3.303514e-01 3.162874e-01
<GCONST> 8.881751e+00
<TRANSP> 5
 0.000000e+00 1.000000e+00 0.000000e+00 0.000000e+00 0.000000e+00
 0.000000e+00 2.944387e-01 7.055612e-01 0.000000e+00 0.000000e+00
 0.000000e+00 0.000000e+00 1.565503e-01 8.434498e-01 0.000000e+00
 0.000000e+00 0.000000e+00 0.000000e+00 2.509538e-01 7.490461e-01
 0.000000e+00 0.000000e+00 0.000000e+00 0.000000e+00 0.000000e+00
<ENDHMM>
