~o
<STREAMINFO> 1 24
<VECSIZE> 24<NULLD><FBANK_Z><DIAGC>
~h "eh"
<BEGINHMM>
<NUMSTATES> 5
<STATE> 2
<MEAN> 24
 1.004983e+00 9.538465e-01 9.811017e-01 9.894813e-01 1.176579e+00 1.297936e+00 1.231632e+00 1.124321e+00 1.053937e+00 1.077978e+00 1.237109e+00 1.371187e+00 1.342203e+00 1.272678e+00 1.231492e+00 1.173766e+00 1.095442e+00 1.009949e+00 8.591713e-01 6.597114e-01 4.755057e-01 3.905701e-01 3.914967e-01 3.922499e-01
<VARIANCE> 24
 1.208310e-01 6.056003e-02 6.935098e-02 7.639927e-02 8.260091e-02 1.015560e-01 1.252580e-01 1.334934e-01 1.439426e-01 1.821310e-01 2.168960e-01 2.155625e-01 2.266869e-01 2.173466e-01 2.077226e-01 2.079244e-01 2.130401e-01 2.228674e-01 2.762788e-01 3.236050e-01 3.475972e-01 3.528821e-01 3.374552e-01 3.393991e-01
<GCONST> 2.495197e+00
<STATE> 3
<MEAN> 24
 7.272280e-01 7.620315e-01 7.154387e-01 7.626076e-01 8.581594e-01 9.518236e-01 8.865330e-01 7.831168e-01 7.139269e-01 7.166764e-01 8.351291e-01 9.296327e-01 8.655248e-01 7.387619e-01 6.640856e-01 6.230057e-01 5.413320e-01 4.543725e-01 3.422205e-01 1.920310e-01 6.491055e-02 -4.373207e-04 -1.348567e-02 -1.296458e-02
<VARIANCE> 24
 1.015212e-01 4.774295e-02 6.143178e-02 5.833380e-02 7.323894e-02 8.293044e-02 9.908517e-02 1.141380e-01 1.415979e-01 1.810165e-01 1.978700e-01 1.842536e-01 2.052719e-01 1.928378e-01 1.850872e-01 1.821892e-01 1.862270e-01 1.945522e-01 2.176183e-01 2.436769e-01 2.695709e-01 2.738628e-01 2.693845e-01 2.564674e-01
<GCONST> -1.565336e+00
<STATE> 4
<MEAN> 24
 2.247797e-01 2.933969e-01 2.391782e-01 1.826455e-01 1.489517e-01 1.011437e-01 4.518481e-02 5.762274e-03 -1.903173e-02 -2.863965e-02 2.366083e-02 5.297076e-02 -3.360252e-03 -6.088911e-02 -9.226621e-02 -1.479171e-01 -2.129791e-01 -2.178054e-01 -1.859311e-01 -1.773116e-01 -1.726883e-01 -1.726415e-01 -1.909250e-01 -2.030720e-01
<VARIANCE> 24
 3.620771e-01 3.243561e-01 3.476382e-01 3.797510e-01 4.296330e-01 4.942922e-01 5.249622e-01 5.686381e-01 6.063128e-01 5.823029e-01 5.418096e-01 5.071572e-01 5.044888e-01 4.808339e-01 4.794378e-01 5.184709e-01 5.512896e-01 5.745200e-01 6.183999e-01 6.900310e-01 7.546145e-01 7.896702e-01 7.830824e-01 7.545223e-01
<GCONST> 2.899743e+01
<TRANSP> 5
 0.000000e+00 1.000000e+00 0.000000e+00 0.000000e+00 0.000000e+00
 0.000000e+00 7.948337e-01 2.051663e-01 0.000000e+00 0.000000e+00
 0.000000e+00 0.000000e+00 7.229005e-01 2.770995e-01 0.000000e+00
 0.000000e+00 0.000000e+00 0.000000e+00 4.597330e-01 5.402669e-01
 0.000000e+00 0.000000e+00 0.000000e+00 0.000000e+00 0.000000e+00
<ENDHMM>
