~o
<STREAMINFO> 1 24
<VECSIZE> 24<NULLD><FBANK_Z><DIAGC>
~h "el"
<BEGINHMM>
<NUMSTATES> 5
<STATE> 2
<MEAN> 24
 7.401932e-01 7.532085e-01 8.393931e-01 9.262663e-01 1.039857e+00 1.013029e+00 1.034353e+00 1.149007e+00 1.024166e+00 6.022050e-01 1.466171e-01 -1.457532e-01 -2.443077e-01 -1.302469e-01 7.974920e-02 2.333622e-01 3.497632e-01 3.356610e-01 1.958754e-01 4.009706e-02 -4.794284e-02 -1.661140e-01 -1.936848e-01 -2.689865e-01
<VARIANCE> 24
 1.229566e-01 7.837604e-02 9.710838e-02 9.485154e-02 8.945124e-02 8.930270e-02 9.199836e-02 1.122704e-01 1.832787e-01 2.893773e-01 2.478597e-01 1.846941e-01 1.741674e-01 2.420928e-01 2.651877e-01 2.601765e-01 2.559590e-01 2.705529e-01 2.935520e-01 3.095773e-01 2.951245e-01 2.972120e-01 2.910303e-01 2.733543e-01
<GCONST> 3.483046e+00
<STATE> 3
<MEAN> 24
 4.881520e-01 5.520391e-01 5.588468e-01 6.872941e-01 7.137820e-01 6.704574e-01 7.169349e-01 7.681268e-01 5.354813e-01 6.410618e-02 -3.526099e-01 -6.086943e-01 -6.955739e-01 -6.163478e-01 -4.398564e-01 -2.659016e-01 -1.644827e-01 -1.509737e-01 -2.300210e-01 -3.427998e-01 -3.844255e-01 -4.425565e-01 -4.747827e-01 -5.498354e-01
<VARIANCE> 24
 9.228369e-02 5.684023e-02 6.851982e-02 6.469731e-02 6.706606e-02 7.659976e-02 8.337919e-02 9.976989e-02 1.906926e-01 2.575115e-01 1.878689e-01 1.466292e-01 1.443290e-01 1.808800e-01 2.175587e-01 2.492744e-01 2.242439e-01 2.274899e-01 2.534899e-01 2.680225e-01 2.747596e-01 2.531469e-01 2.345771e-01 2.154796e-01
<GCONST> -1.101508e+00
<STATE> 4
<MEAN> 24
 -2.191521e-02 4.378650e-02 -2.015855e-02 -4.338870e-02 -7.236774e-02 -8.318083e-02 -2.758788e-02 -2.808633e-02 -1.449251e-01 -4.133174e-01 -6.499855e-01 -8.023264e-01 -8.532963e-01 -8.304490e-01 -7.647191e-01 -6.563641e-01 -5.416924e-01 -4.870928e-01 -4.374292e-01 -3.842107e-01 -3.306858e-01 -3.344380e-01 -3.556536e-01 -4.037174e-01
<VARIANCE> 24
 3.059609e-01 2.829036e-01 3.146096e-01 3.464262e-01 3.796741e-01 3.911583e-01 3.879869e-01 4.039845e-01 4.330655e-01 4.946355e-01 4.687191e-01 4.183371e-01 3.964939e-01 4.058654e-01 4.579985e-01 4.971495e-01 5.115080e-01 5.830760e-01 6.979746e-01 7.611259e-01 7.608870e-01 7.447357e-01 6.906095e-01 6.823059e-01
<GCONST> 2.604593e+01
<TRANSP> 5
 0.000000e+00 1.000000e+00 0.000000e+00 0.000000e+00 0.000000e+00
 0.000000e+00 7.448963e-01 2.551037e-01 0.000000e+00 0.000000e+00
 0.000000e+00 0.000000e+00 7.350974e-01 2.649026e-01 0.000000e+00
 0.000000e+00 0.000000e+00 0.000000e+00 5.702863e-01 4.297137e-01
 0.000000e+00 0.000000e+00 0.000000e+00 0.000000e+00 0.000000e+00
<ENDHMM>
