~o
<STREAMINFO> 1 24
<VECSIZE> 24<NULLD><FBANK_Z><DIAGC>
~h "en"
<BEGINHMM>
<NUMSTATES> 5
<STATE> 2
<MEAN> 24
 2.785070e-01 5.723605e-01 5.886221e-01 4.011305e-01 2.602758e-01 1.102501e-01 5.493586e-02 2.511800e-02 -2.877353e-02 -1.111811e-01 -1.090638e-01 -1.453766e-01 -1.733542e-01 -5.359207e-02 1.283977e-02 -1.550734e-01 -4.786718e-01 -5.371219e-01 -3.704203e-01 -3.355185e-01 -4.081587e-01 -4.398347e-01 -4.383801e-01 -4.757423e-01
<VARIANCE> 24
 1.639452e-01 1.005662e-01 1.192932e-01 1.033281e-01 1.085460e-01 1.031158e-01 1.166659e-01 1.336184e-01 1.624339e-01 1.834863e-01 2.143635e-01 2.055242e-01 1.933225e-01 1.977777e-01 2.017412e-01 2.389231e-01 2.893804e-01 2.916811e-01 2.914780e-01 2.565173e-01 2.403879e-01 2.342519e-01 2.388391e-01 2.267432e-01
<GCONST> 3.164195e+00
<STATE> 3
<MEAN> 24
 1.401062e-02 2.720911e-01 2.237703e-01 4.294910e-03 -1.952787e-01 -3.633173e-01 -4.135439e-01 -4.532552e-01 -5.176195e-01 -6.513414e-01 -6.716943e-01 -7.043258e-01 -7.180560e-01 -5.895472e-01 -5.223467e-01 -7.258935e-01 -1.049115e+00 -1.066363e+00 -8.416845e-01 -7.171080e-01 -6.944926e-01 -7.067368e-01 -6.996627e-01 -7.182747e-01
<VARIANCE> 24
 1.448228e-01 1.278625e-01 1.456793e-01 1.336128e-01 1.438942e-01 1.297725e-01 1.402647e-01 1.630203e-01 1.864689e-01 1.933745e-01 2.157199e-01 2.062029e-01 1.803463e-01 2.042746e-01 2.229492e-01 2.460454e-01 2.317310e-01 2.234455e-01 2.404854e-01 2.248918e-01 2.430599e-01 2.032605e-01 1.997257e-01 2.186058e-01
<GCONST> 3.765577e+00
<STATE> 4
<MEAN> 24
 -5.161862e-02 6.579167e-02 4.843173e-02 -9.338809e-02 -2.033277e-01 -2.510716e-01 -2.447935e-01 -2.532062e-01 -2.848494e-01 -3.107710e-01 -2.862951e-01 -2.672949e-01 -2.833652e-01 -2.606727e-01 -2.317512e-01 -2.021179e-01 -2.407002e-01 -2.321015e-01 -8.223716e-02 2.134433e-02 2.851059e-02 7.172163e-03 1.155800e-02 -2.624344e-02
<VARIANCE> 24
 4.328884e-01 4.309185e-01 4.535593e-01 4.506332e-01 5.182661e-01 5.499937e-01 5.019824e-01 5.078979e-01 4.991262e-01 5.263197e-01 6.004767e-01 6.289824e-01 6.188249e-01 5.445873e-01 5.430083e-01 6.504491e-01 8.118675e-01 8.070728e-01 8.069673e-01 8.530598e-01 9.219140e-01 9.024501e-01 8.761358e-01 8.764184e-01
<GCONST> 3.253737e+01
<TRANSP> 5
 0.000000e+00 1.000000e+00 0.000000e+00 0.000000e+00 0.000000e+00
 0.000000e+00 7.235100e-01 2.764900e-01 0.000000e+00 0.000000e+00
 0.000000e+00 0.000000e+00 7.014102e-01 2.985899e-01 0.000000e+00
 0.000000e+00 0.000000e+00 0.000000e+00 4.465393e-01 5.534608e-01
 0.000000e+00 0.000000e+00 0.000000e+00 0.000000e+00 0.000000e+00
<ENDHMM>
