~o
<STREAMINFO> 1 24
<VECSIZE> 24<NULLD><FBANK_Z><DIAGC>
~h "epi"
<BEGINHMM>
<NUMSTATES> 5
<STATE> 2
<MEAN> 24
 -9.543305e-01 -9.524779e-01 -9.922515e-01 -1.013303e+00 -1.024361e+00 -1.022856e+00 -9.964634e-01 -9.820062e-01 -9.619055e-01 -9.422888e-01 -9.704926e-01 -1.012376e+00 -1.005242e+00 -9.478713e-01 -9.346358e-01 -9.642482e-01 -9.774558e-01 -9.282028e-01 -7.963932e-01 -6.634318e-01 -5.922434e-01 -5.838823e-01 -5.906956e-01 -5.964423e-01
<VARIANCE> 24
 5.286565e-01 5.654613e-01 5.003077e-01 4.004811e-01 3.298921e-01 2.971455e-01 3.262787e-01 3.539776e-01 3.875936e-01 3.941233e-01 3.930295e-01 3.812795e-01 3.653347e-01 3.814753e-01 3.831709e-01 4.035097e-01 4.194301e-01 4.139483e-01 4.393151e-01 4.672098e-01 4.697590e-01 4.540302e-01 4.272085e-01 4.195118e-01
<GCONST> 2.259973e+01
<STATE> 3
<MEAN> 24
 -2.725137e-01 -1.691178e-01 -2.187877e-01 -2.752439e-01 -3.543373e-01 -4.274751e-01 -4.082899e-01 -3.844150e-01 -3.764736e-01 -4.016950e-01 -4.936899e-01 -5.754690e-01 -5.776837e-01 -5.261750e-01 -5.308433e-01 -5.851888e-01 -6.189446e-01 -6.010483e-01 -4.938054e-01 -3.822958e-01 -3.258179e-01 -3.279780e-01 -3.588522e-01 -3.809511e-01
<VARIANCE> 24
 4.086624e-01 4.776691e-01 4.607202e-01 3.365586e-01 2.484302e-01 2.044045e-01 1.949550e-01 2.016890e-01 2.078157e-01 2.213476e-01 2.251049e-01 2.208053e-01 2.251413e-01 2.210907e-01 2.363121e-01 2.773526e-01 3.216318e-01 3.368785e-01 3.475468e-01 4.123364e-01 4.454092e-01 4.514312e-01 4.449383e-01 4.625562e-01
<GCONST> 1.523902e+01
<STATE> 4
<MEAN> 24
 2.113232e-01 3.577148e-01 3.796677e-01 3.453245e-01 2.518695e-01 1.299578e-01 1.264338e-01 1.661702e-01 1.458186e-01 6.517129e-02 -8.714368e-02 -2.144741e-01 -2.167504e-01 -1.357740e-01 -1.401580e-01 -1.956943e-01 -2.300958e-01 -2.314754e-01 -2.135789e-01 -2.077979e-01 -2.069675e-01 -2.016740e-01 -1.979540e-01 -2.059452e-01
<VARIANCE> 24
 3.932523e-01 4.286288e-01 4.425201e-01 3.916360e-01 3.428507e-01 3.054155e-01 3.006760e-01 3.250521e-01 3.236138e-01 3.379950e-01 3.174186e-01 2.871386e-01 2.919870e-01 3.095351e-01 3.271903e-01 3.644758e-01 4.321831e-01 4.623455e-01 5.274900e-01 6.601300e-01 7.616915e-01 7.935778e-01 7.518564e-01 7.329814e-01
<GCONST> 2.309082e+01
<TRANSP> 5
 0.000000e+00 1.000000e+00 0.000000e+00 0.000000e+00 0.000000e+00
 0.000000e+00 5.725206e-01 4.274794e-01 0.000000e+00 0.000000e+00
 0.000000e+00 0.000000e+00 3.583598e-01 6.416403e-01 0.000000e+00
 0.000000e+00 0.000000e+00 0.000000e+00 3.171286e-01 6.828714e-01
 0.000000e+00 0.000000e+00 0.000000e+00 0.000000e+00 0.000000e+00
<ENDHMM>
