~o
<STREAMINFO> 1 24
<VECSIZE> 24<NULLD><FBANK_Z><DIAGC>
~h "er"
<BEGINHMM>
<NUMSTATES> 5
<STATE> 2
<MEAN> 24
 8.277770e-01 8.351113e-01 8.987089e-01 9.929350e-01 1.086280e+00 9.992705e-01 8.925190e-01 8.777873e-01 9.678968e-01 1.179178e+00 1.315027e+00 1.256583e+00 9.850064e-01 4.973561e-01 1.241689e-01 1.294538e-01 2.297430e-01 1.672100e-01 -1.394345e-02 -1.943039e-01 -3.401490e-01 -3.706988e-01 -2.744586e-01 -1.982809e-01
<VARIANCE> 24
 1.206585e-01 6.512883e-02 7.847567e-02 8.952826e-02 8.524035e-02 1.025776e-01 1.045372e-01 1.143015e-01 1.633359e-01 2.182777e-01 1.947838e-01 1.913728e-01 2.931949e-01 4.024019e-01 3.668059e-01 3.514050e-01 3.373547e-01 3.194451e-01 3.303375e-01 3.101029e-01 2.899167e-01 2.771444e-01 3.029269e-01 2.918451e-01
<GCONST> 4.875416e+00
<STATE> 3
<MEAN> 24
 5.301864e-01 6.084539e-01 6.085998e-01 7.253321e-01 7.232088e-01 6.015897e-01 4.985455e-01 4.746177e-01 5.461517e-01 7.272443e-01 8.705474e-01 8.101215e-01 4.963263e-01 -1.369753e-02 -3.619609e-01 -3.678240e-01 -3.320228e-01 -3.990712e-01 -4.863853e-01 -5.779548e-01 -6.527940e-01 -6.594036e-01 -5.961621e-01 -5.336762e-01
<VARIANCE> 24
 9.895796e-02 5.449704e-02 6.805207e-02 7.019693e-02 7.282906e-02 8.843423e-02 8.403476e-02 1.037201e-01 1.531313e-01 2.018300e-01 1.825935e-01 1.827784e-01 2.993141e-01 3.817247e-01 3.305465e-01 3.161574e-01 2.841513e-01 2.703034e-01 2.550898e-01 2.365286e-01 2.160275e-01 1.924178e-01 2.113342e-01 2.222968e-01
<GCONST> 8.373517e-01
<STATE> 4
<MEAN> 24
 5.531230e-02 1.338177e-01 6.783868e-02 2.470927e-02 -6.656490e-02 -1.891405e-01 -2.355423e-01 -2.588250e-01 -2.556839e-01 -1.712782e-01 -1.357199e-02 3.872552e-02 -9.167746e-02 -3.109663e-01 -4.407704e-01 -4.425913e-01 -4.495357e-01 -4.737880e-01 -4.588296e-01 -4.246369e-01 -3.939520e-01 -3.700327e-01 -3.662488e-01 -3.749212e-01
<VARIANCE> 24
 3.304039e-01 2.998612e-01 3.269233e-01 3.731426e-01 3.964370e-01 3.901928e-01 3.888761e-01 4.136275e-01 4.382478e-01 4.549731e-01 4.617852e-01 4.730172e-01 5.640901e-01 6.925486e-01 7.320819e-01 7.597535e-01 7.957581e-01 8.343080e-01 8.619535e-01 8.668510e-01 8.680803e-01 8.457118e-01 8.261204e-01 7.955663e-01
<GCONST> 2.990958e+01
<TRANSP> 5
 0.000000e+00 1.000000e+00 0.000000e+00 0.000000e+00 0.000000e+00
 0.000000e+00 7.842023e-01 2.157978e-01 0.000000e+00 0.000000e+00
 0.000000e+00 0.000000e+00 7.334710e-01 2.665290e-01 0.000000e+00
 0.000000e+00 0.000000e+00 0.000000e+00 5.168779e-01 4.831221e-01
 0.000000e+00 0.000000e+00 0.000000e+00 0.000000e+00 0.000000e+00
<ENDHMM>
