~o
<STREAMINFO> 1 24
<VECSIZE> 24<NULLD><FBANK_Z><DIAGC>
~h "ey"
<BEGINHMM>
<NUMSTATES> 5
<STATE> 2
<MEAN> 24
 9.637010e-01 9.421221e-01 9.762605e-01 1.056944e+00 1.171910e+00 1.131960e+00 9.872798e-01 8.674827e-01 7.796668e-01 7.598994e-01 8.813168e-01 1.131563e+00 1.356689e+00 1.415017e+00 1.394595e+00 1.285416e+00 1.178496e+00 1.087001e+00 9.178786e-01 6.765246e-01 4.687080e-01 3.935228e-01 3.730033e-01 3.986244e-01
<VARIANCE> 24
 1.029474e-01 5.733772e-02 7.147470e-02 8.393017e-02 7.437579e-02 8.203883e-02 9.236139e-02 8.605994e-02 8.893634e-02 1.160937e-01 1.724323e-01 2.127385e-01 2.245567e-01 2.035867e-01 1.950462e-01 2.084026e-01 2.093323e-01 2.172371e-01 2.645704e-01 3.153501e-01 3.353849e-01 3.321507e-01 3.291303e-01 3.244323e-01
<GCONST> -2.460781e-01
<STATE> 3
<MEAN> 24
 6.840432e-01 7.443150e-01 7.574494e-01 8.509282e-01 8.138139e-01 6.565251e-01 4.933430e-01 3.732853e-01 2.657717e-01 2.060690e-01 2.743840e-01 5.363004e-01 8.569891e-01 9.919699e-01 9.921225e-01 8.678528e-01 7.577223e-01 6.803083e-01 5.449174e-01 3.168623e-01 9.910084e-02 1.285061e-02 1.931307e-02 5.094666e-02
<VARIANCE> 24
 8.749717e-02 4.933131e-02 6.588776e-02 7.122332e-02 6.529199e-02 8.399568e-02 7.700387e-02 7.350909e-02 7.309306e-02 9.212793e-02 1.417123e-01 2.198601e-01 2.417104e-01 1.710838e-01 1.549793e-01 1.875874e-01 1.831033e-01 1.967503e-01 2.241248e-01 2.651086e-01 2.802350e-01 2.751364e-01 2.801007e-01 2.912188e-01
<GCONST> -3.486658e+00
<STATE> 4
<MEAN> 24
 1.352281e-01 2.276894e-01 1.868857e-01 1.492031e-01 -2.380542e-02 -2.092174e-01 -3.048169e-01 -3.828744e-01 -4.400406e-01 -4.681799e-01 -4.303155e-01 -2.717596e-01 -6.053003e-02 6.160893e-02 8.244799e-02 -1.729825e-02 -8.263162e-02 -8.254597e-02 -8.602893e-02 -1.321550e-01 -1.624566e-01 -1.793167e-01 -2.010324e-01 -1.962277e-01
<VARIANCE> 24
 3.117381e-01 2.796191e-01 2.941989e-01 3.491850e-01 3.709265e-01 3.777150e-01 3.682118e-01 3.822232e-01 3.957393e-01 4.114494e-01 4.313809e-01 4.891004e-01 5.445145e-01 5.356763e-01 5.679210e-01 6.282583e-01 6.290519e-01 6.522990e-01 7.176268e-01 8.044425e-01 8.381767e-01 8.483848e-01 8.654347e-01 8.393502e-01
<GCONST> 2.773278e+01
<TRANSP> 5
 0.000000e+00 1.000000e+00 0.000000e+00 0.000000e+00 0.000000e+00
 0.000000e+00 8.473828e-01 1.526172e-01 0.000000e+00 0.000000e+00
 0.000000e+00 0.000000e+00 7.931723e-01 2.068277e-01 0.000000e+00
 0.000000e+00 0.000000e+00 0.000000e+00 5.623850e-01 4.376150e-01
 0.000000e+00 0.000000e+00 0.000000e+00 0.000000e+00 0.000000e+00
<ENDHMM>
