~o
<STREAMINFO> 1 24
<VECSIZE> 24<NULLD><FBANK_Z><DIAGC>
~h "f"
<BEGINHMM>
<NUMSTATES> 5
<STATE> 2
<MEAN> 24
 -9.473872e-01 -1.016908e+00 -1.000757e+00 -9.194360e-01 -8.658770e-01 -7.753432e-01 -6.903188e-01 -6.239774e-01 -5.496412e-01 -4.645055e-01 -3.882277e-01 -3.388008e-01 -2.952637e-01 -2.540266e-01 -2.088930e-01 -1.334106e-01 -8.884139e-02 -3.697262e-02 8.058608e-02 2.655094e-01 4.371974e-01 5.359854e-01 5.782507e-01 6.310468e-01
<VARIANCE> 24
 4.579230e-01 3.277237e-01 2.465534e-01 1.891804e-01 1.566754e-01 1.494043e-01 1.594703e-01 1.695599e-01 1.657387e-01 1.784718e-01 1.927267e-01 1.941110e-01 2.006242e-01 2.042117e-01 1.993231e-01 2.069789e-01 2.100429e-01 2.164551e-01 2.391072e-01 2.583944e-01 2.614423e-01 2.706520e-01 2.762022e-01 3.087697e-01
<GCONST> 7.607518e+00
<STATE> 3
<MEAN> 24
 -6.472080e-01 -7.387694e-01 -7.050670e-01 -6.019692e-01 -5.105119e-01 -3.943449e-01 -2.818348e-01 -1.775279e-01 -7.831682e-02 4.647471e-02 1.348773e-01 1.902431e-01 2.464986e-01 2.883446e-01 3.204977e-01 3.974549e-01 4.193959e-01 4.540701e-01 5.871994e-01 7.676340e-01 9.178731e-01 9.984818e-01 1.026588e+00 1.078882e+00
<VARIANCE> 24
 3.138181e-01 1.895562e-01 1.521925e-01 1.149683e-01 9.586105e-02 9.058758e-02 9.220852e-02 9.831051e-02 1.047329e-01 1.200289e-01 1.162384e-01 1.118174e-01 1.216162e-01 1.275392e-01 1.248171e-01 1.303459e-01 1.334433e-01 1.371893e-01 1.635608e-01 1.863336e-01 1.897428e-01 2.004326e-01 2.203539e-01 2.472689e-01
<GCONST> -2.882765e+00
<STATE> 4
<MEAN> 24
 3.559763e-01 3.782359e-01 3.900008e-01 4.032177e-01 4.249987e-01 4.122355e-01 3.884637e-01 4.008989e-01 4.080372e-01 3.747728e-01 2.931682e-01 2.047553e-01 1.242890e-01 6.692716e-02 1.741736e-02 -9.493889e-03 -1.452428e-02 -6.517688e-02 -1.308906e-01 -1.582649e-01 -1.618528e-01 -1.862240e-01 -1.988519e-01 -1.942071e-01
<VARIANCE> 24
 5.826406e-01 6.089137e-01 6.428390e-01 6.394510e-01 6.544960e-01 6.386260e-01 6.173596e-01 6.270871e-01 6.463784e-01 6.573923e-01 6.507295e-01 6.418704e-01 6.090313e-01 6.195629e-01 6.127855e-01 5.622979e-01 5.348464e-01 5.147273e-01 4.877486e-01 4.672207e-01 4.456580e-01 4.400847e-01 4.310968e-01 4.297085e-01
<GCONST> 3.050965e+01
<TRANSP> 5
 0.000000e+00 1.000000e+00 0.000000e+00 0.000000e+00 0.000000e+00
 0.000000e+00 7.319079e-01 2.680921e-01 0.000000e+00 0.000000e+00
 0.000000e+00 0.000000e+00 7.914943e-01 2.085057e-01 0.000000e+00
 0.000000e+00 0.000000e+00 0.000000e+00 6.404811e-01 3.595189e-01
 0.000000e+00 0.000000e+00 0.000000e+00 0.000000e+00 0.000000e+00
<ENDHMM>
