~o
<STREAMINFO> 1 24
<VECSIZE> 24<NULLD><FBANK_Z><DIAGC>
~h "g"
<BEGINHMM>
<NUMSTATES> 5
<STATE> 2
<MEAN> 24
 -7.650488e-01 -5.530831e-01 -6.203320e-01 -8.319634e-01 -1.081339e+00 -1.207950e+00 -1.283280e+00 -1.334018e+00 -1.310342e+00 -1.258343e+00 -1.242235e+00 -1.237115e+00 -1.182852e+00 -1.167269e+00 -1.262076e+00 -1.351663e+00 -1.340633e+00 -1.298982e+00 -1.251354e+00 -1.162861e+00 -1.078805e+00 -1.007969e+00 -1.001176e+00 -9.917451e-01
<VARIANCE> 24
 4.342637e-01 5.819382e-01 5.588748e-01 4.779535e-01 3.810090e-01 3.353329e-01 3.680623e-01 4.081188e-01 4.355161e-01 4.546518e-01 4.621513e-01 4.532546e-01 4.693453e-01 4.815066e-01 4.135788e-01 3.714761e-01 3.416132e-01 3.622337e-01 4.127879e-01 4.126469e-01 3.596745e-01 3.073035e-01 2.998631e-01 3.135423e-01
<GCONST> 2.249093e+01
<STATE> 3
<MEAN> 24
 -1.907428e-01 -2.176516e-01 -1.737739e-01 -1.247981e-01 -1.550890e-01 -1.662608e-01 -1.213890e-01 -3.766605e-02 9.200745e-02 2.250552e-01 2.593403e-01 2.048896e-01 1.632564e-01 1.029125e-01 2.952395e-03 -1.785010e-02 -2.899620e-02 2.348897e-03 1.211479e-01 1.904088e-01 1.291598e-01 6.120213e-02 4.170476e-02 1.076428e-01
<VARIANCE> 24
 2.899562e-01 2.829005e-01 2.694433e-01 2.106022e-01 1.665838e-01 1.463151e-01 1.639880e-01 2.051664e-01 2.632433e-01 3.241427e-01 3.340065e-01 3.256204e-01 3.251859e-01 3.544951e-01 3.863939e-01 4.222239e-01 3.941755e-01 3.875869e-01 4.622713e-01 5.357816e-01 5.474950e-01 5.614476e-01 5.443206e-01 5.185664e-01
<GCONST> 1.726069e+01
<STATE> 4
<MEAN> 24
 6.258585e-01 6.587890e-01 7.216750e-01 7.970612e-01 7.073532e-01 5.082747e-01 4.109607e-01 3.916395e-01 4.252585e-01 4.934130e-01 5.438263e-01 5.953352e-01 6.894553e-01 6.884412e-01 5.542367e-01 4.843367e-01 4.891841e-01 4.919215e-01 4.768106e-01 3.664945e-01 2.246287e-01 1.501196e-01 1.678824e-01 2.569491e-01
<VARIANCE> 24
 2.019795e-01 1.755475e-01 2.014005e-01 2.033469e-01 2.269382e-01 2.051060e-01 1.738961e-01 1.817293e-01 2.292148e-01 2.940790e-01 3.142960e-01 3.175387e-01 3.634556e-01 4.522285e-01 5.222008e-01 5.174240e-01 4.556758e-01 4.217167e-01 4.575860e-01 5.535730e-01 6.070852e-01 5.991062e-01 5.671206e-01 5.348771e-01
<GCONST> 1.770978e+01
<TRANSP> 5
 0.000000e+00 1.000000e+00 0.000000e+00 0.000000e+00 0.000000e+00
 0.000000e+00 7.102804e-01 2.897196e-01 0.000000e+00 0.000000e+00
 0.000000e+00 0.000000e+00 5.729094e-01 4.270906e-01 0.000000e+00
 0.000000e+00 0.000000e+00 0.000000e+00 5.719125e-01 4.280875e-01
 0.000000e+00 0.000000e+00 0.000000e+00 0.000000e+00 0.000000e+00
<ENDHMM>
