~o
<STREAMINFO> 1 24
<VECSIZE> 24<NULLD><FBANK_Z><DIAGC>
~h "hh"
<BEGINHMM>
<NUMSTATES> 5
<STATE> 2
<MEAN> 24
 -1.055346e-01 -2.056492e-01 -3.331937e-01 -3.776771e-01 -3.687631e-01 -3.075265e-01 -1.797291e-01 -1.273767e-01 -2.012944e-01 -2.753372e-01 -2.373153e-01 -1.754569e-01 -1.111714e-01 -4.920503e-02 3.610767e-03 3.427781e-02 -2.471382e-02 -7.315353e-02 -5.541115e-02 2.826937e-02 3.943200e-02 -2.926579e-02 -8.157285e-02 -1.044064e-01
<VARIANCE> 24
 5.697457e-01 4.519427e-01 3.264483e-01 2.368194e-01 1.883476e-01 1.685396e-01 1.910063e-01 2.292843e-01 2.626032e-01 3.048867e-01 3.300494e-01 3.615445e-01 3.378023e-01 2.839599e-01 3.067223e-01 3.232968e-01 3.207485e-01 3.141237e-01 3.301100e-01 3.476888e-01 3.708528e-01 3.577709e-01 3.466821e-01 3.327892e-01
<GCONST> 1.566878e+01
<STATE> 3
<MEAN> 24
 4.269005e-01 3.760321e-01 2.125201e-01 6.586204e-02 4.019172e-02 1.161946e-01 2.472424e-01 3.259822e-01 2.662694e-01 1.749225e-01 2.204861e-01 3.064058e-01 3.778810e-01 4.341990e-01 4.739877e-01 4.728728e-01 3.817611e-01 3.248232e-01 3.308971e-01 3.617750e-01 3.600591e-01 3.036134e-01 2.534761e-01 2.104642e-01
<VARIANCE> 24
 3.000730e-01 2.623696e-01 2.550672e-01 1.946253e-01 1.554138e-01 1.105244e-01 1.101957e-01 1.458141e-01 1.876253e-01 2.392953e-01 2.624377e-01 2.526052e-01 2.347750e-01 2.069336e-01 2.131052e-01 2.330735e-01 2.353609e-01 2.205412e-01 2.261120e-01 2.466720e-01 2.851073e-01 3.092215e-01 3.007196e-01 2.705976e-01
<GCONST> 7.743405e+00
<STATE> 4
<MEAN> 24
 8.643663e-01 8.736258e-01 8.389596e-01 7.222905e-01 7.242216e-01 7.813888e-01 8.529288e-01 8.635402e-01 7.819265e-01 6.902702e-01 6.877591e-01 7.259529e-01 7.554700e-01 7.579436e-01 7.380866e-01 6.849761e-01 5.882824e-01 5.105330e-01 4.507514e-01 4.178877e-01 3.579516e-01 2.961456e-01 2.564367e-01 2.286792e-01
<VARIANCE> 24
 2.083388e-01 1.083322e-01 1.207985e-01 1.203659e-01 1.305231e-01 1.662180e-01 2.095867e-01 2.664034e-01 3.195755e-01 3.653624e-01 3.715422e-01 3.530490e-01 3.262205e-01 3.199538e-01 3.543364e-01 3.446499e-01 3.066840e-01 2.999271e-01 3.024849e-01 3.177893e-01 3.431081e-01 3.669249e-01 3.446461e-01 3.110593e-01
<GCONST> 1.179611e+01
<TRANSP> 5
 0.000000e+00 1.000000e+00 0.000000e+00 0.000000e+00 0.000000e+00
 0.000000e+00 6.708910e-01 3.291090e-01 0.000000e+00 0.000000e+00
 0.000000e+00 0.000000e+00 6.236756e-01 3.763244e-01 0.000000e+00
 0.000000e+00 0.000000e+00 0.000000e+00 5.094453e-01 4.905547e-01
 0.000000e+00 0.000000e+00 0.000000e+00 0.000000e+00 0.000000e+00
<ENDHMM>
