~o
<STREAMINFO> 1 24
<VECSIZE> 24<NULLD><FBANK_Z><DIAGC>
~h "ih"
<BEGINHMM>
<NUMSTATES> 5
<STATE> 2
<MEAN> 24
 9.067199e-01 9.322049e-01 1.028723e+00 1.091188e+00 1.122042e+00 9.872767e-01 8.430167e-01 7.583038e-01 7.056862e-01 7.203863e-01 8.727426e-01 1.088742e+00 1.186300e+00 1.179747e+00 1.181791e+00 1.128453e+00 1.060486e+00 9.947171e-01 8.543378e-01 6.054014e-01 4.017507e-01 3.298684e-01 3.482685e-01 3.812420e-01
<VARIANCE> 24
 1.371924e-01 8.817793e-02 8.544511e-02 1.014236e-01 1.076829e-01 1.088971e-01 1.023622e-01 1.003057e-01 1.151994e-01 1.586112e-01 2.218661e-01 2.430195e-01 2.481350e-01 2.337465e-01 2.078471e-01 1.999417e-01 2.069990e-01 2.137098e-01 2.616133e-01 3.362146e-01 3.427249e-01 3.415761e-01 3.331237e-01 3.270527e-01
<GCONST> 3.059640e+00
<STATE> 3
<MEAN> 24
 6.502646e-01 7.435115e-01 7.533404e-01 8.082942e-01 7.632093e-01 6.018946e-01 4.711931e-01 3.872958e-01 3.187370e-01 3.006948e-01 4.303155e-01 6.360358e-01 7.122830e-01 6.772543e-01 6.525276e-01 5.983271e-01 5.253313e-01 4.919720e-01 4.051154e-01 2.351317e-01 6.673691e-02 -1.316187e-03 8.951688e-03 2.518748e-02
<VARIANCE> 24
 1.111582e-01 5.247233e-02 6.531152e-02 7.277330e-02 7.819423e-02 8.951814e-02 8.152737e-02 8.627465e-02 1.005650e-01 1.391121e-01 1.998303e-01 2.162915e-01 2.138413e-01 2.090350e-01 1.862774e-01 1.846776e-01 1.835245e-01 1.906671e-01 2.330638e-01 2.876048e-01 3.228198e-01 3.431117e-01 3.373609e-01 3.241691e-01
<GCONST> -6.600947e-01
<STATE> 4
<MEAN> 24
 1.290177e-01 2.467402e-01 2.156734e-01 1.300739e-01 4.773063e-03 -1.450020e-01 -2.196417e-01 -2.532764e-01 -2.774187e-01 -2.813405e-01 -2.223335e-01 -1.412477e-01 -1.103671e-01 -8.762582e-02 -7.244778e-02 -1.301672e-01 -1.711709e-01 -1.315445e-01 -5.668479e-02 -1.066437e-02 3.022114e-03 1.002909e-02 3.800340e-03 2.979235e-03
<VARIANCE> 24
 3.456883e-01 3.002146e-01 3.205031e-01 3.572319e-01 3.846104e-01 3.796737e-01 3.975939e-01 4.449783e-01 4.663735e-01 4.635167e-01 4.685865e-01 4.807504e-01 4.904992e-01 4.949023e-01 5.122863e-01 5.654966e-01 6.174735e-01 6.963890e-01 8.196095e-01 9.842109e-01 1.084699e+00 1.124110e+00 1.143742e+00 1.126835e+00
<GCONST> 2.973675e+01
<TRANSP> 5
 0.000000e+00 1.000000e+00 0.000000e+00 0.000000e+00 0.000000e+00
 0.000000e+00 7.566823e-01 2.433178e-01 0.000000e+00 0.000000e+00
 0.000000e+00 0.000000e+00 6.690722e-01 3.309278e-01 0.000000e+00
 0.000000e+00 0.000000e+00 0.000000e+00 4.159661e-01 5.840340e-01
 0.000000e+00 0.000000e+00 0.000000e+00 0.000000e+00 0.000000e+00
<ENDHMM>
