~o
<STREAMINFO> 1 24
<VECSIZE> 24<NULLD><FBANK_Z><DIAGC>
~h "ix"
<BEGINHMM>
<NUMSTATES> 5
<STATE> 2
<MEAN> 24
 7.011457e-01 7.970038e-01 8.289190e-01 8.774771e-01 8.562904e-01 7.168010e-01 5.907978e-01 5.029680e-01 4.353458e-01 4.467901e-01 6.266834e-01 7.956909e-01 7.856018e-01 7.222554e-01 7.126317e-01 6.573752e-01 5.698920e-01 5.260298e-01 4.425745e-01 2.372420e-01 6.710131e-02 -1.218957e-02 2.246621e-03 1.200177e-02
<VARIANCE> 24
 1.339490e-01 7.210146e-02 8.112342e-02 9.155132e-02 9.550369e-02 1.119797e-01 1.094665e-01 1.109612e-01 1.238434e-01 1.735322e-01 2.339442e-01 2.186716e-01 2.332909e-01 2.380193e-01 2.252187e-01 2.242157e-01 2.293143e-01 2.420521e-01 2.732223e-01 3.235450e-01 3.330429e-01 3.264808e-01 3.255146e-01 3.174253e-01
<GCONST> 3.122128e+00
<STATE> 3
<MEAN> 24
 4.322529e-01 5.550379e-01 5.321192e-01 5.466793e-01 4.265898e-01 2.470322e-01 1.420199e-01 5.822679e-02 -1.682885e-02 -3.083411e-02 1.149444e-01 2.545247e-01 2.407669e-01 2.028381e-01 2.057938e-01 1.293172e-01 4.799986e-02 5.802592e-02 5.635896e-02 -3.979810e-02 -1.300518e-01 -1.698911e-01 -1.739080e-01 -1.828586e-01
<VARIANCE> 24
 1.155242e-01 7.204793e-02 7.704566e-02 8.409967e-02 8.417238e-02 9.315399e-02 8.895954e-02 9.368201e-02 1.097873e-01 1.454183e-01 2.008827e-01 1.912493e-01 2.077782e-01 2.181488e-01 2.120065e-01 2.214559e-01 2.331778e-01 2.647821e-01 3.189358e-01 3.976319e-01 4.462914e-01 4.560935e-01 4.481342e-01 4.236733e-01
<GCONST> 2.993243e+00
<STATE> 4
<MEAN> 24
 -8.238211e-02 5.102038e-02 -5.745612e-03 -1.142495e-01 -2.834893e-01 -4.405599e-01 -5.125942e-01 -5.603566e-01 -5.885436e-01 -5.922493e-01 -5.221314e-01 -4.635072e-01 -4.547164e-01 -4.178529e-01 -3.953553e-01 -4.787548e-01 -5.240781e-01 -4.570886e-01 -3.610210e-01 -2.924395e-01 -2.600122e-01 -2.339903e-01 -2.378673e-01 -2.498145e-01
<VARIANCE> 24
 3.383762e-01 3.378936e-01 3.406859e-01 3.501700e-01 3.513769e-01 3.396963e-01 3.668527e-01 4.007300e-01 4.072864e-01 3.956947e-01 4.062974e-01 4.160397e-01 4.474578e-01 4.968758e-01 5.299156e-01 5.654690e-01 6.235391e-01 7.266251e-01 8.716702e-01 1.020144e+00 1.082350e+00 1.089731e+00 1.082719e+00 1.067076e+00
<GCONST> 2.886009e+01
<TRANSP> 5
 0.000000e+00 1.000000e+00 0.000000e+00 0.000000e+00 0.000000e+00
 0.000000e+00 6.364018e-01 3.635982e-01 0.000000e+00 0.000000e+00
 0.000000e+00 0.000000e+00 4.638359e-01 5.361641e-01 0.000000e+00
 0.000000e+00 0.000000e+00 0.000000e+00 3.364627e-01 6.635373e-01
 0.000000e+00 0.000000e+00 0.000000e+00 0.000000e+00 0.000000e+00
<ENDHMM>
