~o
<STREAMINFO> 1 24
<VECSIZE> 24<NULLD><FBANK_Z><DIAGC>
~h "iy"
<BEGINHMM>
<NUMSTATES> 5
<STATE> 2
<MEAN> 24
 7.972708e-01 8.858262e-01 1.055759e+00 1.015626e+00 8.274332e-01 5.870541e-01 4.479351e-01 3.656406e-01 2.891297e-01 2.459378e-01 3.088802e-01 5.524172e-01 9.600949e-01 1.199901e+00 1.223970e+00 1.179034e+00 1.090279e+00 1.018150e+00 8.303976e-01 5.260717e-01 3.292517e-01 2.645969e-01 3.025295e-01 3.640750e-01
<VARIANCE> 24
 1.298179e-01 1.005367e-01 9.165852e-02 9.612213e-02 1.060590e-01 9.981814e-02 8.689656e-02 9.108394e-02 9.686848e-02 1.253819e-01 1.849608e-01 2.697072e-01 3.115247e-01 2.403837e-01 1.976315e-01 2.291741e-01 2.278188e-01 2.288526e-01 2.692883e-01 3.466409e-01 3.408948e-01 3.454695e-01 3.452067e-01 3.473163e-01
<GCONST> 2.970469e+00
<STATE> 3
<MEAN> 24
 5.443332e-01 7.136145e-01 7.758812e-01 7.519286e-01 5.095621e-01 2.286517e-01 1.021789e-01 -1.151792e-02 -1.125201e-01 -1.958891e-01 -1.806593e-01 1.249134e-02 4.154524e-01 7.422925e-01 8.336558e-01 7.873595e-01 6.836753e-01 6.180261e-01 4.937806e-01 2.464560e-01 5.064991e-02 -4.003892e-02 -2.671841e-02 3.615965e-02
<VARIANCE> 24
 1.071008e-01 5.803965e-02 7.349998e-02 7.582359e-02 9.809001e-02 9.288519e-02 8.453220e-02 9.003212e-02 9.541249e-02 1.147811e-01 1.581053e-01 2.447082e-01 3.317870e-01 2.312422e-01 1.402383e-01 1.822008e-01 1.904888e-01 1.911518e-01 2.221090e-01 2.841229e-01 2.901725e-01 3.003020e-01 3.016717e-01 3.121014e-01
<GCONST> -6.177930e-01
<STATE> 4
<MEAN> 24
 1.228475e-01 2.492577e-01 2.271914e-01 1.437382e-01 -6.645647e-02 -2.698718e-01 -3.518075e-01 -4.364325e-01 -4.994820e-01 -5.559007e-01 -5.449038e-01 -4.217983e-01 -1.886669e-01 -1.431208e-03 4.085890e-02 -4.840003e-02 -1.206558e-01 -1.191017e-01 -1.267397e-01 -1.685625e-01 -2.069638e-01 -2.297097e-01 -2.343555e-01 -2.219228e-01
<VARIANCE> 24
 3.123455e-01 2.725137e-01 3.042371e-01 3.615446e-01 3.948242e-01 3.993776e-01 3.900082e-01 4.050721e-01 4.219936e-01 4.566497e-01 4.999455e-01 5.634254e-01 6.079900e-01 5.464340e-01 5.107571e-01 5.562056e-01 5.529690e-01 5.578091e-01 6.202554e-01 7.090833e-01 7.418689e-01 7.465909e-01 7.420275e-01 7.248198e-01
<GCONST> 2.726296e+01
<TRANSP> 5
 0.000000e+00 1.000000e+00 0.000000e+00 0.000000e+00 0.000000e+00
 0.000000e+00 7.718466e-01 2.281534e-01 0.000000e+00 0.000000e+00
 0.000000e+00 0.000000e+00 7.529998e-01 2.470002e-01 0.000000e+00
 0.000000e+00 0.000000e+00 0.000000e+00 5.246818e-01 4.753182e-01
 0.000000e+00 0.000000e+00 0.000000e+00 0.000000e+00 0.000000e+00
<ENDHMM>
