~o
<STREAMINFO> 1 24
<VECSIZE> 24<NULLD><FBANK_Z><DIAGC>
~h "jh"
<BEGINHMM>
<NUMSTATES> 5
<STATE> 2
<MEAN> 24
 -6.143712e-01 -4.265407e-01 -5.230849e-01 -7.947618e-01 -9.974373e-01 -1.091245e+00 -1.128249e+00 -1.162366e+00 -1.151053e+00 -1.105644e+00 -1.049941e+00 -9.552153e-01 -9.149560e-01 -9.292715e-01 -7.923151e-01 -6.694705e-01 -6.433295e-01 -6.552224e-01 -6.798202e-01 -6.778666e-01 -6.354820e-01 -6.038123e-01 -6.020929e-01 -6.108424e-01
<VARIANCE> 24
 3.421467e-01 4.516957e-01 4.114133e-01 3.368804e-01 2.766095e-01 2.533287e-01 2.899983e-01 3.241828e-01 3.293832e-01 3.336932e-01 3.541383e-01 3.989435e-01 4.468561e-01 5.214823e-01 5.872537e-01 7.472128e-01 8.507090e-01 8.286073e-01 8.286541e-01 8.107625e-01 7.654653e-01 7.260070e-01 7.049999e-01 6.798051e-01
<GCONST> 2.672729e+01
<STATE> 3
<MEAN> 24
 -2.494758e-01 -4.488546e-01 -4.873146e-01 -4.837810e-01 -5.018332e-01 -4.841041e-01 -4.332965e-01 -3.889065e-01 -3.228635e-01 -2.647564e-01 -1.588358e-01 5.630179e-02 2.888928e-01 4.972855e-01 7.878726e-01 1.063891e+00 1.235329e+00 1.258307e+00 1.297110e+00 1.359390e+00 1.428038e+00 1.500336e+00 1.521066e+00 1.449445e+00
<VARIANCE> 24
 3.090153e-01 2.615320e-01 2.588622e-01 2.155725e-01 1.787568e-01 1.518284e-01 1.541615e-01 1.669926e-01 1.664055e-01 1.585974e-01 1.460421e-01 1.643141e-01 1.799518e-01 2.197967e-01 2.555328e-01 2.273180e-01 2.207955e-01 2.396744e-01 2.679462e-01 2.834544e-01 3.116763e-01 3.607565e-01 4.088769e-01 4.226340e-01
<GCONST> 8.543200e+00
<STATE> 4
<MEAN> 24
 2.088899e-01 2.500253e-01 2.800409e-01 2.838458e-01 1.754952e-01 -1.393087e-02 -9.369221e-02 -1.420589e-01 -1.704421e-01 -1.330457e-01 3.569473e-02 2.749146e-01 4.001462e-01 4.071828e-01 4.642375e-01 5.114213e-01 5.215570e-01 4.296061e-01 3.696375e-01 3.127099e-01 2.827380e-01 2.687643e-01 2.674656e-01 2.003767e-01
<VARIANCE> 24
 7.026269e-01 7.630280e-01 8.171725e-01 7.942644e-01 7.173080e-01 5.448524e-01 4.758372e-01 4.499208e-01 4.162194e-01 4.200898e-01 5.286750e-01 6.241049e-01 6.429771e-01 6.391106e-01 5.969983e-01 5.645427e-01 5.463055e-01 5.101638e-01 4.857132e-01 4.678534e-01 4.722040e-01 4.879906e-01 4.809685e-01 4.783963e-01
<GCONST> 3.004661e+01
<TRANSP> 5
 0.000000e+00 1.000000e+00 0.000000e+00 0.000000e+00 0.000000e+00
 0.000000e+00 6.802329e-01 3.197671e-01 0.000000e+00 0.000000e+00
 0.000000e+00 0.000000e+00 8.147843e-01 1.852157e-01 0.000000e+00
 0.000000e+00 0.000000e+00 0.000000e+00 5.475184e-01 4.524816e-01
 0.000000e+00 0.000000e+00 0.000000e+00 0.000000e+00 0.000000e+00
<ENDHMM>
