~o
<STREAMINFO> 1 24
<VECSIZE> 24<NULLD><FBANK_Z><DIAGC>
~h "k"
<BEGINHMM>
<NUMSTATES> 5
<STATE> 2
<MEAN> 24
 -1.473938e+00 -1.527825e+00 -1.514518e+00 -1.551211e+00 -1.536526e+00 -1.508633e+00 -1.509495e+00 -1.485753e+00 -1.404274e+00 -1.311219e+00 -1.288440e+00 -1.305375e+00 -1.302849e+00 -1.328630e+00 -1.362879e+00 -1.364262e+00 -1.336627e+00 -1.292133e+00 -1.196355e+00 -1.089208e+00 -1.007332e+00 -9.451058e-01 -9.251976e-01 -8.848760e-01
<VARIANCE> 24
 4.817008e-01 4.734340e-01 4.585399e-01 4.253488e-01 3.693748e-01 3.488077e-01 3.971829e-01 4.375784e-01 4.605886e-01 4.735349e-01 4.839042e-01 4.767204e-01 4.684214e-01 4.644652e-01 4.123545e-01 3.799386e-01 3.619678e-01 3.852583e-01 4.466820e-01 4.430214e-01 3.854758e-01 3.289456e-01 3.186747e-01 3.445153e-01
<GCONST> 2.296451e+01
<STATE> 3
<MEAN> 24
 -3.698762e-01 -4.622089e-01 -4.694529e-01 -3.738530e-01 -2.567864e-01 -1.741211e-01 -9.856313e-02 1.153846e-02 1.185018e-01 1.838583e-01 1.929881e-01 1.572278e-01 1.445348e-01 1.468589e-01 1.286994e-01 1.477545e-01 1.271775e-01 1.569578e-01 3.182550e-01 4.252261e-01 3.853013e-01 3.064281e-01 2.924175e-01 3.503630e-01
<VARIANCE> 24
 3.424487e-01 2.270694e-01 1.838059e-01 1.501084e-01 1.444215e-01 1.466190e-01 1.599711e-01 2.021485e-01 2.583299e-01 3.068596e-01 3.309049e-01 3.389204e-01 3.402652e-01 3.515598e-01 3.684170e-01 4.137470e-01 3.899332e-01 3.678771e-01 4.309176e-01 4.881021e-01 5.294701e-01 5.449252e-01 5.194396e-01 5.194406e-01
<GCONST> 1.589710e+01
<STATE> 4
<MEAN> 24
 5.713234e-01 5.363767e-01 5.387154e-01 5.229309e-01 5.669168e-01 5.689020e-01 5.766206e-01 6.186944e-01 6.302361e-01 6.051963e-01 5.985691e-01 5.933680e-01 6.085399e-01 6.134706e-01 5.390363e-01 4.882478e-01 4.660837e-01 4.596378e-01 4.796227e-01 4.738079e-01 4.191158e-01 3.537897e-01 3.435909e-01 3.574926e-01
<VARIANCE> 24
 3.165257e-01 3.073746e-01 3.352675e-01 2.980646e-01 2.811467e-01 2.715460e-01 2.756356e-01 3.004415e-01 3.356672e-01 3.775373e-01 4.034281e-01 4.226009e-01 4.367064e-01 4.244882e-01 4.120254e-01 4.085365e-01 3.804787e-01 3.742592e-01 4.332439e-01 5.309389e-01 6.020202e-01 6.199472e-01 6.053939e-01 6.164350e-01
<GCONST> 2.172008e+01
<TRANSP> 5
 0.000000e+00 1.000000e+00 0.000000e+00 0.000000e+00 0.000000e+00
 0.000000e+00 7.427203e-01 2.572797e-01 0.000000e+00 0.000000e+00
 0.000000e+00 0.000000e+00 7.626556e-01 2.373445e-01 0.000000e+00
 0.000000e+00 0.000000e+00 0.000000e+00 6.746573e-01 3.253427e-01
 0.000000e+00 0.000000e+00 0.000000e+00 0.000000e+00 0.000000e+00
<ENDHMM>
