~o
<STREAMINFO> 1 24
<VECSIZE> 24<NULLD><FBANK_Z><DIAGC>
~h "l"
<BEGINHMM>
<NUMSTATES> 5
<STATE> 2
<MEAN> 24
 7.781724e-01 7.851168e-01 8.246235e-01 8.864650e-01 9.664387e-01 9.675921e-01 9.805302e-01 1.080132e+00 1.073169e+00 7.605643e-01 3.158765e-01 6.463418e-04 -1.241168e-01 -5.276059e-02 1.552380e-01 3.124363e-01 3.630176e-01 3.562601e-01 2.385912e-01 8.370015e-02 4.222385e-02 -5.902270e-03 -5.119276e-02 -1.578962e-01
<VARIANCE> 24
 1.245616e-01 6.524805e-02 7.916176e-02 7.997140e-02 1.055503e-01 1.550462e-01 1.789524e-01 2.069712e-01 2.364758e-01 3.116009e-01 2.899352e-01 2.223924e-01 1.995596e-01 2.471856e-01 2.910078e-01 2.929120e-01 2.694309e-01 2.692079e-01 2.792856e-01 2.852069e-01 2.875663e-01 3.082627e-01 2.972671e-01 2.832532e-01
<GCONST> 5.953459e+00
<STATE> 3
<MEAN> 24
 5.017779e-01 5.755777e-01 5.841743e-01 6.490906e-01 6.367154e-01 5.849172e-01 5.917560e-01 6.435267e-01 5.630845e-01 2.719570e-01 -9.756729e-02 -3.716372e-01 -4.886608e-01 -4.492841e-01 -2.937171e-01 -1.508646e-01 -8.936379e-02 -5.473433e-02 -1.064823e-01 -1.920591e-01 -2.259195e-01 -2.498922e-01 -2.851406e-01 -3.705330e-01
<VARIANCE> 24
 1.722517e-01 1.185744e-01 1.458702e-01 1.529699e-01 1.821476e-01 2.124608e-01 2.170662e-01 2.471793e-01 3.242692e-01 4.400724e-01 4.266545e-01 3.472356e-01 2.964388e-01 3.238893e-01 3.888648e-01 3.989365e-01 3.730697e-01 3.666653e-01 3.655032e-01 3.539901e-01 3.327495e-01 3.277685e-01 3.166960e-01 3.035890e-01
<GCONST> 1.358312e+01
<STATE> 4
<MEAN> 24
 7.272771e-01 7.170741e-01 7.489952e-01 7.598460e-01 8.409452e-01 8.769088e-01 8.581774e-01 8.669358e-01 9.109651e-01 8.845820e-01 7.111562e-01 4.806663e-01 3.283017e-01 3.261167e-01 4.770527e-01 5.842612e-01 6.016101e-01 5.958742e-01 5.157915e-01 4.029807e-01 3.479981e-01 3.185312e-01 2.992300e-01 2.194955e-01
<VARIANCE> 24
 3.446420e-01 2.597669e-01 2.995288e-01 3.367557e-01 4.281026e-01 5.044035e-01 5.136892e-01 5.240688e-01 5.791018e-01 6.333012e-01 6.470712e-01 5.882234e-01 5.016800e-01 4.970739e-01 5.577840e-01 5.478128e-01 5.206060e-01 5.127847e-01 4.983884e-01 4.727181e-01 4.639374e-01 4.881177e-01 4.879086e-01 4.641736e-01
<GCONST> 2.627678e+01
<TRANSP> 5
 0.000000e+00 1.000000e+00 0.000000e+00 0.000000e+00 0.000000e+00
 0.000000e+00 6.192845e-01 3.807155e-01 0.000000e+00 0.000000e+00
 0.000000e+00 0.000000e+00 6.105031e-01 3.894968e-01 0.000000e+00
 0.000000e+00 0.000000e+00 0.000000e+00 4.841042e-01 5.158958e-01
 0.000000e+00 0.000000e+00 0.000000e+00 0.000000e+00 0.000000e+00
<ENDHMM>
