~o
<STREAMINFO> 1 24
<VECSIZE> 24<NULLD><FBANK_Z><DIAGC>
~h "m"
<BEGINHMM>
<NUMSTATES> 5
<STATE> 2
<MEAN> 24
 2.939315e-01 6.128401e-01 6.035244e-01 3.866234e-01 1.381828e-01 -8.423663e-02 -1.250487e-01 -4.058298e-02 7.389577e-02 7.266329e-02 -9.208602e-02 -2.172266e-01 -1.510983e-01 2.828241e-02 -1.011918e-01 -4.413457e-01 -5.574512e-01 -5.120896e-01 -4.481031e-01 -4.743853e-01 -5.006647e-01 -4.566938e-01 -4.585137e-01 -5.259066e-01
<VARIANCE> 24
 1.355667e-01 7.024496e-02 9.408437e-02 7.611001e-02 8.310311e-02 9.459940e-02 1.197266e-01 1.494427e-01 1.684526e-01 1.564463e-01 1.513777e-01 1.415547e-01 1.609136e-01 2.154086e-01 2.494479e-01 2.543524e-01 2.295287e-01 2.260391e-01 2.307247e-01 2.131675e-01 2.096628e-01 1.994426e-01 2.054720e-01 1.861254e-01
<GCONST> -3.613917e-01
<STATE> 3
<MEAN> 24
 9.963711e-02 3.949621e-01 3.455861e-01 1.290928e-01 -1.472884e-01 -3.743096e-01 -4.209868e-01 -3.744328e-01 -3.045675e-01 -3.134966e-01 -4.486758e-01 -5.559815e-01 -5.334220e-01 -3.940415e-01 -4.730439e-01 -7.342839e-01 -8.494873e-01 -8.022373e-01 -7.234004e-01 -6.784665e-01 -6.624403e-01 -6.314568e-01 -6.361654e-01 -6.788701e-01
<VARIANCE> 24
 1.906878e-01 1.563332e-01 1.865572e-01 1.793747e-01 2.058372e-01 2.211674e-01 2.371743e-01 2.730169e-01 2.879612e-01 2.877039e-01 2.770395e-01 2.516479e-01 2.736320e-01 3.160650e-01 3.048547e-01 2.942478e-01 2.996092e-01 2.792248e-01 2.614976e-01 2.400715e-01 2.263556e-01 2.174318e-01 2.103937e-01 1.935214e-01
<GCONST> 9.897256e+00
<STATE> 4
<MEAN> 24
 4.660701e-01 5.931733e-01 6.112098e-01 4.901245e-01 4.344746e-01 4.168517e-01 4.177063e-01 4.318998e-01 4.467774e-01 4.176261e-01 3.572095e-01 2.842382e-01 2.756832e-01 3.362887e-01 2.545055e-01 1.865914e-01 2.337210e-01 1.578048e-01 4.062758e-02 -6.740452e-03 -2.387464e-02 -4.647917e-02 -4.935934e-02 -5.850046e-02
<VARIANCE> 24
 3.104840e-01 2.826719e-01 3.210548e-01 3.290124e-01 4.198697e-01 5.006291e-01 5.131585e-01 5.132784e-01 5.355459e-01 5.366032e-01 5.495221e-01 5.443693e-01 5.256116e-01 5.037529e-01 4.751431e-01 4.964604e-01 5.372345e-01 5.005840e-01 4.408226e-01 3.998041e-01 3.982264e-01 3.845474e-01 3.766236e-01 3.763186e-01
<GCONST> 2.442785e+01
<TRANSP> 5
 0.000000e+00 1.000000e+00 0.000000e+00 0.000000e+00 0.000000e+00
 0.000000e+00 6.646773e-01 3.353227e-01 0.000000e+00 0.000000e+00
 0.000000e+00 0.000000e+00 5.837197e-01 4.162803e-01 0.000000e+00
 0.000000e+00 0.000000e+00 0.000000e+00 5.377220e-01 4.622780e-01
 0.000000e+00 0.000000e+00 0.000000e+00 0.000000e+00 0.000000e+00
<ENDHMM>
