~o
<STREAMINFO> 1 24
<VECSIZE> 24<NULLD><FBANK_Z><DIAGC>
~h "n"
<BEGINHMM>
<NUMSTATES> 5
<STATE> 2
<MEAN> 24
 2.919783e-01 5.817922e-01 5.759876e-01 3.972104e-01 1.909546e-01 2.110799e-02 -2.797039e-02 -3.218475e-02 -6.002641e-02 -1.534568e-01 -1.898456e-01 -2.194653e-01 -1.929795e-01 -5.669681e-03 6.897033e-02 -1.756055e-01 -5.466835e-01 -6.098758e-01 -4.416043e-01 -3.596439e-01 -3.957661e-01 -4.316836e-01 -4.334098e-01 -4.394448e-01
<VARIANCE> 24
 1.365996e-01 7.755173e-02 9.462243e-02 7.847027e-02 8.530173e-02 9.378923e-02 1.136792e-01 1.294924e-01 1.504701e-01 1.827114e-01 2.104138e-01 1.960201e-01 1.848450e-01 2.107636e-01 2.191691e-01 2.466017e-01 2.709669e-01 2.801509e-01 2.817784e-01 2.459251e-01 2.390758e-01 2.217189e-01 2.330810e-01 2.252815e-01
<GCONST> 1.535027e+00
<STATE> 3
<MEAN> 24
 4.852898e-02 3.460321e-01 3.057625e-01 1.162730e-01 -1.328299e-01 -3.316595e-01 -3.819641e-01 -4.001664e-01 -4.552216e-01 -5.558918e-01 -5.889831e-01 -6.117191e-01 -6.062586e-01 -4.719679e-01 -3.893319e-01 -5.791607e-01 -8.569198e-01 -8.940271e-01 -7.383637e-01 -6.269641e-01 -6.228007e-01 -6.300758e-01 -6.382912e-01 -6.460748e-01
<VARIANCE> 24
 1.980211e-01 1.504054e-01 1.592468e-01 1.635506e-01 1.881185e-01 2.039668e-01 2.154206e-01 2.317737e-01 2.592604e-01 2.984483e-01 3.354494e-01 3.310264e-01 3.222631e-01 3.358634e-01 3.314263e-01 3.510734e-01 3.684421e-01 3.537341e-01 3.407946e-01 2.917335e-01 2.659116e-01 2.435343e-01 2.475887e-01 2.396845e-01
<GCONST> 1.165063e+01
<STATE> 4
<MEAN> 24
 2.427062e-01 3.633031e-01 3.591298e-01 2.428587e-01 1.697923e-01 1.384927e-01 1.248281e-01 9.743446e-02 6.042029e-02 4.658178e-02 1.047236e-01 1.446157e-01 1.576123e-01 1.805296e-01 2.168077e-01 2.396981e-01 1.835569e-01 1.608896e-01 1.812986e-01 1.258315e-01 7.236465e-02 8.139240e-02 1.027166e-01 9.582491e-02
<VARIANCE> 24
 4.388882e-01 4.273245e-01 4.298221e-01 4.431519e-01 5.172700e-01 5.743956e-01 5.509911e-01 5.346888e-01 5.355875e-01 5.940298e-01 6.913213e-01 7.175810e-01 6.933365e-01 6.162789e-01 6.131243e-01 7.024880e-01 7.339126e-01 7.048235e-01 6.498077e-01 6.076026e-01 6.127132e-01 6.336528e-01 6.363706e-01 6.442688e-01
<GCONST> 3.137631e+01
<TRANSP> 5
 0.000000e+00 1.000000e+00 0.000000e+00 0.000000e+00 0.000000e+00
 0.000000e+00 5.711224e-01 4.288776e-01 0.000000e+00 0.000000e+00
 0.000000e+00 0.000000e+00 5.513048e-01 4.486952e-01 0.000000e+00
 0.000000e+00 0.000000e+00 0.000000e+00 4.199104e-01 5.800896e-01
 0.000000e+00 0.000000e+00 0.000000e+00 0.000000e+00 0.000000e+00
<ENDHMM>
