~o
<STREAMINFO> 1 24
<VECSIZE> 24<NULLD><FBANK_Z><DIAGC>
~h "ng"
<BEGINHMM>
<NUMSTATES> 5
<STATE> 2
<MEAN> 24
 3.137683e-01 5.741289e-01 6.323884e-01 4.579037e-01 3.125854e-01 1.869994e-01 1.494401e-01 1.379594e-01 1.074052e-01 -3.337244e-02 -2.199369e-01 -2.609078e-01 -5.577951e-02 2.597457e-01 2.106176e-01 -1.903083e-01 -4.404812e-01 -4.001036e-01 -3.033280e-01 -3.318179e-01 -3.668746e-01 -3.216259e-01 -2.731399e-01 -2.614065e-01
<VARIANCE> 24
 1.482024e-01 8.551552e-02 1.042218e-01 9.236078e-02 8.672014e-02 8.551304e-02 1.075114e-01 1.314069e-01 1.473133e-01 1.728993e-01 1.708661e-01 1.747307e-01 2.223430e-01 2.455141e-01 2.168275e-01 2.677209e-01 2.669135e-01 3.057935e-01 3.100401e-01 2.607640e-01 2.407135e-01 2.526486e-01 2.687075e-01 2.603669e-01
<GCONST> 2.517171e+00
<STATE> 3
<MEAN> 24
 7.597696e-02 3.476779e-01 3.317313e-01 1.494823e-01 -4.311450e-02 -1.926665e-01 -2.342504e-01 -2.546442e-01 -3.151138e-01 -4.764756e-01 -6.285843e-01 -6.811969e-01 -5.699888e-01 -3.129785e-01 -3.381867e-01 -6.826813e-01 -9.035211e-01 -8.557970e-01 -7.235362e-01 -6.536165e-01 -6.608202e-01 -6.215959e-01 -5.824329e-01 -5.848692e-01
<VARIANCE> 24
 1.411327e-01 8.890117e-02 1.329999e-01 1.158556e-01 1.174625e-01 1.226090e-01 1.358754e-01 1.427479e-01 1.654555e-01 1.844892e-01 1.836364e-01 1.971031e-01 2.373917e-01 2.711865e-01 2.571574e-01 2.850364e-01 2.767461e-01 2.954766e-01 2.981104e-01 2.567859e-01 2.176125e-01 1.900230e-01 2.057182e-01 2.224499e-01
<GCONST> 3.867050e+00
<STATE> 4
<MEAN> 24
 -1.039801e-01 1.543979e-02 -1.544244e-02 -1.635696e-01 -3.093828e-01 -3.703956e-01 -3.665024e-01 -3.755831e-01 -4.056928e-01 -4.775331e-01 -5.099108e-01 -5.045294e-01 -4.361385e-01 -3.061768e-01 -3.557551e-01 -4.848879e-01 -5.194928e-01 -4.468251e-01 -3.263993e-01 -2.577121e-01 -2.635950e-01 -2.598496e-01 -2.481872e-01 -2.523541e-01
<VARIANCE> 24
 3.884742e-01 3.608401e-01 4.153185e-01 4.273387e-01 4.729641e-01 4.771474e-01 4.609034e-01 4.706210e-01 4.882917e-01 5.245329e-01 5.723351e-01 6.548536e-01 7.016829e-01 6.840968e-01 6.825973e-01 7.769828e-01 8.383768e-01 8.561231e-01 8.141304e-01 7.723073e-01 7.262073e-01 6.816372e-01 6.671809e-01 6.910095e-01
<GCONST> 3.141368e+01
<TRANSP> 5
 0.000000e+00 1.000000e+00 0.000000e+00 0.000000e+00 0.000000e+00
 0.000000e+00 6.433863e-01 3.566137e-01 0.000000e+00 0.000000e+00
 0.000000e+00 0.000000e+00 6.310351e-01 3.689649e-01 0.000000e+00
 0.000000e+00 0.000000e+00 0.000000e+00 3.753059e-01 6.246942e-01
 0.000000e+00 0.000000e+00 0.000000e+00 0.000000e+00 0.000000e+00
<ENDHMM>
