~o
<STREAMINFO> 1 24
<VECSIZE> 24<NULLD><FBANK_Z><DIAGC>
~h "ow"
<BEGINHMM>
<NUMSTATES> 5
<STATE> 2
<MEAN> 24
 9.475088e-01 9.019681e-01 9.330937e-01 9.981288e-01 1.171488e+00 1.253559e+00 1.190948e+00 1.220205e+00 1.298454e+00 1.243019e+00 9.979195e-01 7.216910e-01 6.155038e-01 7.082133e-01 7.631261e-01 7.843595e-01 8.402808e-01 7.472707e-01 5.288591e-01 3.173074e-01 2.144621e-01 1.418941e-01 1.597678e-01 2.071127e-01
<VARIANCE> 24
 1.166406e-01 6.621760e-02 7.679866e-02 8.919876e-02 9.097565e-02 8.750586e-02 1.009792e-01 1.354244e-01 1.746140e-01 2.070100e-01 2.790864e-01 2.754036e-01 2.309188e-01 2.306429e-01 2.137336e-01 2.137190e-01 2.140367e-01 2.137980e-01 2.852050e-01 3.021923e-01 2.984326e-01 3.059555e-01 2.977705e-01 2.800978e-01
<GCONST> 2.818973e+00
<STATE> 3
<MEAN> 24
 6.694955e-01 7.038014e-01 6.961651e-01 8.003950e-01 8.805360e-01 8.771096e-01 8.508031e-01 9.214653e-01 9.211501e-01 6.833521e-01 3.159140e-01 4.052795e-02 -3.688131e-02 7.352177e-02 1.360452e-01 1.829448e-01 2.334642e-01 1.371467e-01 -4.029289e-02 -1.791008e-01 -2.622051e-01 -3.300976e-01 -2.807909e-01 -2.502421e-01
<VARIANCE> 24
 8.682204e-02 4.707314e-02 6.011349e-02 6.678240e-02 7.036908e-02 8.110616e-02 9.394328e-02 1.279503e-01 1.579964e-01 2.208721e-01 2.346230e-01 1.973998e-01 1.778045e-01 1.976240e-01 1.883130e-01 1.930977e-01 1.932626e-01 2.088605e-01 2.320164e-01 2.401214e-01 2.400792e-01 2.340095e-01 2.304872e-01 2.163687e-01
<GCONST> -1.561093e+00
<STATE> 4
<MEAN> 24
 1.782893e-01 2.672501e-01 2.243077e-01 2.299745e-01 1.587000e-01 6.294953e-02 7.784372e-02 9.591211e-02 4.049679e-02 -8.148529e-02 -2.546478e-01 -4.151008e-01 -4.676034e-01 -4.195963e-01 -3.716587e-01 -3.305232e-01 -2.874934e-01 -2.845683e-01 -2.883665e-01 -2.626553e-01 -2.353789e-01 -2.218976e-01 -2.224447e-01 -2.364345e-01
<VARIANCE> 24
 2.671955e-01 2.284303e-01 2.520650e-01 3.023210e-01 3.507794e-01 3.819063e-01 4.077163e-01 4.288425e-01 3.997359e-01 4.049908e-01 4.340522e-01 4.367214e-01 4.285944e-01 4.317037e-01 4.432530e-01 5.157320e-01 5.894724e-01 6.664324e-01 7.600360e-01 8.332208e-01 8.792456e-01 8.798382e-01 8.543028e-01 8.252476e-01
<GCONST> 2.634002e+01
<TRANSP> 5
 0.000000e+00 1.000000e+00 0.000000e+00 0.000000e+00 0.000000e+00
 0.000000e+00 8.364292e-01 1.635707e-01 0.000000e+00 0.000000e+00
 0.000000e+00 0.000000e+00 8.097633e-01 1.902367e-01 0.000000e+00
 0.000000e+00 0.000000e+00 0.000000e+00 5.864486e-01 4.135514e-01
 0.000000e+00 0.000000e+00 0.000000e+00 0.000000e+00 0.000000e+00
<ENDHMM>
