~o
<STREAMINFO> 1 24
<VECSIZE> 24<NULLD><FBANK_Z><DIAGC>
~h "oy"
<BEGINHMM>
<NUMSTATES> 5
<STATE> 2
<MEAN> 24
 7.630655e-01 7.552400e-01 7.682575e-01 8.785579e-01 1.027783e+00 1.067022e+00 1.075072e+00 1.145451e+00 9.931202e-01 6.511573e-01 2.801653e-01 2.685205e-02 2.584327e-02 1.870210e-01 1.842392e-01 1.922411e-01 2.131009e-01 5.440144e-02 -1.626737e-01 -2.846460e-01 -3.628013e-01 -4.115705e-01 -3.528800e-01 -3.092110e-01
<VARIANCE> 24
 8.584589e-02 4.403061e-02 5.866519e-02 6.128476e-02 7.425860e-02 6.543701e-02 7.603350e-02 1.223240e-01 2.089518e-01 3.076140e-01 2.992168e-01 2.420346e-01 2.537957e-01 2.390406e-01 2.023399e-01 2.181177e-01 2.230926e-01 2.350806e-01 2.651189e-01 2.436425e-01 2.442644e-01 2.546961e-01 2.284666e-01 2.395265e-01
<GCONST> 2.353456e-01
<STATE> 3
<MEAN> 24
 9.245431e-01 8.933958e-01 9.488418e-01 9.754316e-01 1.144369e+00 1.150633e+00 1.059683e+00 1.001557e+00 1.034606e+00 1.083565e+00 1.074508e+00 9.996582e-01 9.892969e-01 1.088215e+00 9.890077e-01 8.804703e-01 8.798705e-01 7.811302e-01 5.928082e-01 3.748862e-01 1.750802e-01 7.880766e-02 1.198153e-01 1.802562e-01
<VARIANCE> 24
 1.130491e-01 5.409445e-02 6.731130e-02 8.176736e-02 7.562554e-02 1.088336e-01 1.280505e-01 1.675560e-01 2.398885e-01 2.680942e-01 2.476203e-01 2.468429e-01 2.293952e-01 1.870021e-01 1.955769e-01 1.977559e-01 1.854935e-01 1.952200e-01 2.649608e-01 2.847468e-01 3.069863e-01 2.792268e-01 2.693757e-01 2.487651e-01
<GCONST> 2.165529e+00
<STATE> 4
<MEAN> 24
 3.812258e-01 4.795274e-01 4.147824e-01 3.916489e-01 3.015829e-01 1.530869e-01 6.797008e-02 -2.497660e-02 -6.732774e-02 -9.828787e-02 -6.909246e-04 1.787623e-01 3.366854e-01 3.825320e-01 3.792387e-01 2.861142e-01 2.106380e-01 2.299095e-01 2.506322e-01 2.350207e-01 1.703842e-01 1.151290e-01 9.281571e-02 8.719571e-02
<VARIANCE> 24
 2.052652e-01 1.686973e-01 2.112166e-01 2.548649e-01 2.911392e-01 2.893225e-01 2.654781e-01 2.542943e-01 2.666078e-01 2.858752e-01 3.251747e-01 3.633868e-01 4.061673e-01 4.237427e-01 4.424906e-01 5.208073e-01 5.046691e-01 5.479977e-01 6.476790e-01 8.086537e-01 8.625374e-01 8.730249e-01 9.196342e-01 9.397352e-01
<GCONST> 2.235553e+01
<TRANSP> 5
 0.000000e+00 1.000000e+00 0.000000e+00 0.000000e+00 0.000000e+00
 0.000000e+00 8.606120e-01 1.393881e-01 0.000000e+00 0.000000e+00
 0.000000e+00 0.000000e+00 8.704423e-01 1.295577e-01 0.000000e+00
 0.000000e+00 0.000000e+00 0.000000e+00 6.654182e-01 3.345818e-01
 0.000000e+00 0.000000e+00 0.000000e+00 0.000000e+00 0.000000e+00
<ENDHMM>
