~o
<STREAMINFO> 1 24
<VECSIZE> 24<NULLD><FBANK_Z><DIAGC>
~h "p"
<BEGINHMM>
<NUMSTATES> 5
<STATE> 2
<MEAN> 24
 -1.462712e+00 -1.518916e+00 -1.511085e+00 -1.604119e+00 -1.628829e+00 -1.603531e+00 -1.619213e+00 -1.614989e+00 -1.566948e+00 -1.518336e+00 -1.562375e+00 -1.599151e+00 -1.585661e+00 -1.577175e+00 -1.558955e+00 -1.535886e+00 -1.503678e+00 -1.487276e+00 -1.419213e+00 -1.287753e+00 -1.147813e+00 -1.050149e+00 -1.035124e+00 -1.032093e+00
<VARIANCE> 24
 5.476827e-01 5.480396e-01 4.841751e-01 3.910595e-01 2.995133e-01 2.729472e-01 2.988088e-01 3.108083e-01 3.119535e-01 3.099852e-01 2.874213e-01 2.735527e-01 2.741354e-01 2.966681e-01 2.881636e-01 2.677422e-01 2.666161e-01 2.788304e-01 2.999440e-01 3.122025e-01 3.023529e-01 2.753073e-01 2.656215e-01 2.557128e-01
<GCONST> 1.626758e+01
<STATE> 3
<MEAN> 24
 -8.564978e-02 -3.370474e-01 -4.289528e-01 -3.656420e-01 -2.804746e-01 -1.926854e-01 -9.790816e-02 -1.974978e-02 3.770486e-02 1.138223e-01 1.200121e-01 8.712690e-02 6.588528e-02 6.199329e-02 6.143501e-02 7.449806e-02 7.425199e-02 6.819203e-02 1.096702e-01 2.103642e-01 3.038784e-01 3.047728e-01 2.606241e-01 2.135016e-01
<VARIANCE> 24
 4.072677e-01 2.495153e-01 1.896580e-01 1.539245e-01 1.425143e-01 1.400093e-01 1.587661e-01 1.864311e-01 2.013040e-01 2.387924e-01 2.567475e-01 2.684011e-01 2.878797e-01 3.037837e-01 3.058331e-01 3.162746e-01 3.169648e-01 3.252533e-01 3.554735e-01 3.810325e-01 3.999614e-01 4.134666e-01 4.077039e-01 3.985530e-01
<GCONST> 1.248380e+01
<STATE> 4
<MEAN> 24
 7.304209e-01 7.256366e-01 7.275028e-01 7.064495e-01 7.487822e-01 7.497635e-01 7.669852e-01 8.122338e-01 8.123028e-01 7.673976e-01 6.797600e-01 5.893548e-01 4.760767e-01 3.775253e-01 3.081496e-01 2.671196e-01 2.536260e-01 1.967580e-01 1.308421e-01 7.655716e-02 4.528820e-02 1.613899e-02 9.296049e-03 1.224875e-02
<VARIANCE> 24
 2.631389e-01 2.041608e-01 2.250629e-01 2.180254e-01 2.283385e-01 2.279709e-01 2.428994e-01 2.688481e-01 3.172072e-01 3.613384e-01 3.905897e-01 4.417675e-01 4.759857e-01 5.078987e-01 5.357060e-01 4.980823e-01 4.571430e-01 4.485725e-01 4.653003e-01 4.893265e-01 5.108059e-01 5.134575e-01 4.817341e-01 4.600674e-01
<GCONST> 1.991288e+01
<TRANSP> 5
 0.000000e+00 1.000000e+00 0.000000e+00 0.000000e+00 0.000000e+00
 0.000000e+00 7.937985e-01 2.062015e-01 0.000000e+00 0.000000e+00
 0.000000e+00 0.000000e+00 7.442175e-01 2.557825e-01 0.000000e+00
 0.000000e+00 0.000000e+00 0.000000e+00 6.237291e-01 3.762710e-01
 0.000000e+00 0.000000e+00 0.000000e+00 0.000000e+00 0.000000e+00
<ENDHMM>
