~o
<STREAMINFO> 1 24
<VECSIZE> 24<NULLD><FBANK_Z><DIAGC>
~h "r"
<BEGINHMM>
<NUMSTATES> 5
<STATE> 2
<MEAN> 24
 6.177671e-01 6.875852e-01 7.106976e-01 8.029493e-01 8.012167e-01 6.982913e-01 6.416209e-01 6.981720e-01 8.493163e-01 9.458717e-01 8.706562e-01 7.107252e-01 3.983949e-01 -9.545758e-02 -4.233173e-01 -4.125411e-01 -3.644246e-01 -4.407548e-01 -5.416526e-01 -6.004869e-01 -6.416833e-01 -6.297585e-01 -5.650325e-01 -4.796165e-01
<VARIANCE> 24
 1.325346e-01 6.670769e-02 8.761599e-02 9.288425e-02 1.322998e-01 1.946403e-01 1.868275e-01 1.947956e-01 2.311492e-01 2.670943e-01 3.037883e-01 3.723636e-01 4.998524e-01 5.049304e-01 3.727073e-01 3.443875e-01 3.473961e-01 3.383267e-01 3.000861e-01 2.588661e-01 2.266609e-01 2.209076e-01 2.449824e-01 2.608327e-01
<GCONST> 8.762048e+00
<STATE> 3
<MEAN> 24
 8.513920e-01 8.423950e-01 8.847135e-01 9.549006e-01 1.065890e+00 1.075386e+00 1.005782e+00 9.901295e-01 1.073837e+00 1.241295e+00 1.313725e+00 1.265888e+00 1.104818e+00 6.617957e-01 2.518696e-01 2.207924e-01 2.727939e-01 1.653018e-01 -3.289225e-02 -2.003837e-01 -3.269340e-01 -3.363010e-01 -2.428414e-01 -1.450260e-01
<VARIANCE> 24
 1.151825e-01 6.074035e-02 8.001982e-02 8.646124e-02 9.603897e-02 1.421937e-01 1.664197e-01 1.796219e-01 2.253894e-01 2.495633e-01 2.181840e-01 2.012197e-01 2.536556e-01 3.996739e-01 3.598685e-01 3.256125e-01 3.237864e-01 3.282714e-01 3.373323e-01 3.135152e-01 2.947938e-01 2.919004e-01 3.004662e-01 2.905098e-01
<GCONST> 6.553187e+00
<STATE> 4
<MEAN> 24
 4.732680e-01 5.286051e-01 5.382642e-01 5.379242e-01 5.139115e-01 4.542250e-01 4.034803e-01 3.695312e-01 3.914685e-01 4.813642e-01 5.831810e-01 6.170369e-01 5.579816e-01 3.342593e-01 7.487582e-02 -1.874753e-04 -2.062040e-02 -9.379029e-02 -2.021934e-01 -3.028932e-01 -3.767069e-01 -3.917717e-01 -3.641655e-01 -3.306800e-01
<VARIANCE> 24
 3.358677e-01 2.565210e-01 3.070657e-01 3.670962e-01 4.697162e-01 5.824320e-01 6.020723e-01 6.147317e-01 6.474387e-01 6.814365e-01 6.574197e-01 6.540917e-01 7.794505e-01 9.173599e-01 8.114123e-01 7.467182e-01 7.801302e-01 7.455195e-01 6.676618e-01 5.986444e-01 5.374702e-01 4.930673e-01 4.723493e-01 4.755872e-01
<GCONST> 3.040557e+01
<TRANSP> 5
 0.000000e+00 1.000000e+00 0.000000e+00 0.000000e+00 0.000000e+00
 0.000000e+00 5.973371e-01 4.026629e-01 0.000000e+00 0.000000e+00
 0.000000e+00 0.000000e+00 6.250308e-01 3.749692e-01 0.000000e+00
 0.000000e+00 0.000000e+00 0.000000e+00 3.294113e-01 6.705887e-01
 0.000000e+00 0.000000e+00 0.000000e+00 0.000000e+00 0.000000e+00
<ENDHMM>
