~o
<STREAMINFO> 1 24
<VECSIZE> 24<NULLD><FBANK_Z><DIAGC>
~h "s"
<BEGINHMM>
<NUMSTATES> 5
<STATE> 2
<MEAN> 24
 -4.324116e-01 -7.209948e-01 -7.807628e-01 -7.381150e-01 -6.847495e-01 -6.040550e-01 -5.180220e-01 -4.378559e-01 -3.784137e-01 -3.372272e-01 -2.658004e-01 -1.676630e-01 -1.090215e-01 -6.549809e-02 4.511365e-02 2.253325e-01 4.503785e-01 7.201083e-01 1.068219e+00 1.445803e+00 1.703537e+00 1.857738e+00 1.914680e+00 1.943986e+00
<VARIANCE> 24
 2.858537e-01 1.774645e-01 1.359218e-01 1.105148e-01 9.490801e-02 8.939076e-02 9.424765e-02 1.007686e-01 9.822736e-02 9.878037e-02 1.074433e-01 1.222059e-01 1.279842e-01 1.239764e-01 1.301363e-01 1.525259e-01 1.842469e-01 2.477842e-01 3.676198e-01 4.138523e-01 3.349636e-01 2.889799e-01 3.324108e-01 3.608593e-01
<GCONST> 1.046485e+00
<STATE> 3
<MEAN> 24
 -1.647029e-01 -4.322401e-01 -4.880765e-01 -4.456223e-01 -3.759581e-01 -2.757758e-01 -1.849262e-01 -8.935414e-02 -3.060985e-02 1.460307e-02 1.041060e-01 2.313744e-01 2.820885e-01 3.063760e-01 4.362505e-01 6.296846e-01 8.458755e-01 1.126040e+00 1.468566e+00 1.796697e+00 1.981985e+00 2.072638e+00 2.094904e+00 2.125033e+00
<VARIANCE> 24
 2.624180e-01 1.405996e-01 1.154781e-01 9.522133e-02 8.462424e-02 8.332968e-02 8.499808e-02 9.267259e-02 9.410752e-02 9.767680e-02 1.076005e-01 1.203410e-01 1.242724e-01 1.212786e-01 1.285945e-01 1.564602e-01 2.040790e-01 2.550449e-01 3.284857e-01 3.595044e-01 3.326524e-01 3.292670e-01 3.667810e-01 3.987115e-01
<GCONST> 1.378112e-01
<STATE> 4
<MEAN> 24
 -4.351170e-01 -5.070410e-01 -5.060695e-01 -4.837417e-01 -4.565573e-01 -4.542204e-01 -4.654185e-01 -4.552765e-01 -4.264002e-01 -3.476514e-01 -2.835965e-01 -3.019529e-01 -3.612385e-01 -3.664625e-01 -2.773756e-01 -1.857305e-01 -1.083576e-01 -9.841538e-03 1.066728e-01 2.061142e-01 2.449225e-01 2.551899e-01 2.354674e-01 2.123880e-01
<VARIANCE> 24
 9.235457e-01 1.050185e+00 1.103568e+00 1.052283e+00 1.004713e+00 8.991935e-01 8.000314e-01 7.582543e-01 7.194644e-01 7.346945e-01 7.835499e-01 7.500765e-01 6.591294e-01 6.270311e-01 6.738676e-01 6.495482e-01 5.933207e-01 5.923912e-01 6.227555e-01 6.271880e-01 6.193742e-01 6.426075e-01 6.717352e-01 6.906747e-01
<GCONST> 3.707279e+01
<TRANSP> 5
 0.000000e+00 1.000000e+00 0.000000e+00 0.000000e+00 0.000000e+00
 0.000000e+00 7.873178e-01 2.126822e-01 0.000000e+00 0.000000e+00
 0.000000e+00 0.000000e+00 8.058613e-01 1.941387e-01 0.000000e+00
 0.000000e+00 0.000000e+00 0.000000e+00 5.975772e-01 4.024228e-01
 0.000000e+00 0.000000e+00 0.000000e+00 0.000000e+00 0.000000e+00
<ENDHMM>
