~o
<STREAMINFO> 1 24
<VECSIZE> 24<NULLD><FBANK_Z><DIAGC>
~h "sh"
<BEGINHMM>
<NUMSTATES> 5
<STATE> 2
<MEAN> 24
 -3.353381e-01 -6.165670e-01 -6.883061e-01 -6.574257e-01 -6.302197e-01 -5.703584e-01 -5.003296e-01 -4.376336e-01 -3.786390e-01 -3.035623e-01 -1.724573e-01 9.645577e-02 4.002242e-01 6.536173e-01 9.520581e-01 1.169124e+00 1.320236e+00 1.359616e+00 1.421722e+00 1.513700e+00 1.622311e+00 1.713516e+00 1.722567e+00 1.640343e+00
<VARIANCE> 24
 2.833022e-01 1.518898e-01 1.112120e-01 9.434400e-02 8.343709e-02 7.648652e-02 8.098423e-02 8.579109e-02 8.268923e-02 8.591625e-02 9.482441e-02 1.334338e-01 1.618698e-01 1.919004e-01 2.096725e-01 1.937182e-01 1.946094e-01 2.037344e-01 2.005596e-01 1.879922e-01 2.150874e-01 2.564982e-01 2.816227e-01 2.759054e-01
<GCONST> -1.567713e+00
<STATE> 3
<MEAN> 24
 -7.979543e-02 -3.483344e-01 -3.859332e-01 -3.404581e-01 -3.063900e-01 -2.300595e-01 -1.592428e-01 -8.449500e-02 -2.258297e-02 4.549038e-02 1.729262e-01 4.355301e-01 7.240621e-01 9.701465e-01 1.245670e+00 1.408300e+00 1.538415e+00 1.563359e+00 1.631092e+00 1.706403e+00 1.804447e+00 1.894328e+00 1.925304e+00 1.855767e+00
<VARIANCE> 24
 2.602863e-01 1.236309e-01 1.055210e-01 9.328368e-02 7.923524e-02 7.781762e-02 7.844117e-02 8.240025e-02 8.392131e-02 8.730753e-02 9.800155e-02 1.372822e-01 1.641042e-01 2.105917e-01 2.228914e-01 1.898963e-01 1.969686e-01 2.202881e-01 2.243023e-01 2.055425e-01 2.192613e-01 2.487859e-01 2.798823e-01 2.823637e-01
<GCONST> -1.491731e+00
<STATE> 4
<MEAN> 24
 -5.165351e-03 4.767504e-02 4.923514e-02 2.519694e-02 -1.184181e-02 -8.485078e-02 -1.411167e-01 -1.794466e-01 -2.050878e-01 -1.814333e-01 -6.065758e-02 1.278244e-01 2.289682e-01 2.609020e-01 3.456880e-01 3.759347e-01 3.855496e-01 3.048901e-01 2.583955e-01 1.905954e-01 1.419575e-01 1.391824e-01 1.352856e-01 8.019093e-02
<VARIANCE> 24
 6.327859e-01 7.420557e-01 8.049509e-01 7.409807e-01 6.527345e-01 5.281190e-01 4.450633e-01 4.158252e-01 3.882807e-01 3.987791e-01 4.519394e-01 4.910845e-01 4.908794e-01 4.772296e-01 4.561837e-01 4.303336e-01 4.453261e-01 4.387876e-01 4.099718e-01 4.190499e-01 4.713024e-01 5.055305e-01 4.946565e-01 4.861881e-01
<GCONST> 2.738063e+01
<TRANSP> 5
 0.000000e+00 1.000000e+00 0.000000e+00 0.000000e+00 0.000000e+00
 0.000000e+00 7.835538e-01 2.164462e-01 0.000000e+00 0.000000e+00
 0.000000e+00 0.000000e+00 8.156382e-01 1.843618e-01 0.000000e+00
 0.000000e+00 0.000000e+00 0.000000e+00 6.383638e-01 3.616362e-01
 0.000000e+00 0.000000e+00 0.000000e+00 0.000000e+00 0.000000e+00
<ENDHMM>
