~o
<STREAMINFO> 1 24
<VECSIZE> 24<NULLD><FBANK_Z><DIAGC>
~h "sil"
<BEGINHMM>
<NUMSTATES> 5
<STATE> 2
<MEAN> 24
 -1.212313e+00 -1.206135e+00 -1.174104e+00 -1.143069e+00 -1.109789e+00 -1.034355e+00 -9.459609e-01 -9.172911e-01 -9.476937e-01 -9.454377e-01 -9.080489e-01 -9.033341e-01 -9.433706e-01 -9.986789e-01 -1.049163e+00 -1.034161e+00 -1.023069e+00 -1.005761e+00 -9.347105e-01 -8.009492e-01 -7.294152e-01 -7.352949e-01 -7.606282e-01 -7.838648e-01
<VARIANCE> 24
 4.857777e-01 3.563772e-01 2.628946e-01 2.157360e-01 1.835516e-01 1.836656e-01 2.130286e-01 2.322357e-01 2.222584e-01 2.310509e-01 2.643603e-01 2.852735e-01 2.697969e-01 2.527933e-01 2.552008e-01 2.599345e-01 2.585931e-01 2.723434e-01 3.048166e-01 3.412070e-01 3.136884e-01 2.665464e-01 2.626443e-01 2.713664e-01
<GCONST> 1.209797e+01
<STATE> 3
<MEAN> 24
 -1.853290e+00 -1.880362e+00 -1.853031e+00 -1.845246e+00 -1.786430e+00 -1.726329e+00 -1.710998e+00 -1.706662e+00 -1.703777e+00 -1.679679e+00 -1.682589e+00 -1.696184e+00 -1.710131e+00 -1.731335e+00 -1.718586e+00 -1.688879e+00 -1.654980e+00 -1.631436e+00 -1.567388e+00 -1.432499e+00 -1.289651e+00 -1.186949e+00 -1.170519e+00 -1.164796e+00
<VARIANCE> 24
 2.710251e-01 1.814669e-01 1.540513e-01 1.411275e-01 1.170062e-01 1.159567e-01 1.453852e-01 1.538987e-01 1.384173e-01 1.346316e-01 1.310597e-01 1.259818e-01 1.165859e-01 1.168680e-01 1.138680e-01 1.115056e-01 1.144220e-01 1.228366e-01 1.415608e-01 1.644129e-01 1.612028e-01 1.534172e-01 1.497576e-01 1.533132e-01
<GCONST> -3.079132e+00
<STATE> 4
<MEAN> 24
 -8.145127e-01 -8.105935e-01 -7.849756e-01 -7.547267e-01 -7.285323e-01 -6.832559e-01 -6.457024e-01 -6.324196e-01 -6.320984e-01 -6.324739e-01 -6.213538e-01 -6.031065e-01 -5.935447e-01 -6.040021e-01 -6.113959e-01 -6.012097e-01 -6.013396e-01 -5.825135e-01 -5.348978e-01 -4.438657e-01 -3.841065e-01 -3.726243e-01 -3.919663e-01 -4.088319e-01
<VARIANCE> 24
 8.313373e-01 7.547556e-01 6.793994e-01 6.132879e-01 5.580162e-01 5.275038e-01 5.324308e-01 5.549478e-01 5.745729e-01 5.734490e-01 5.822846e-01 6.231053e-01 6.617767e-01 6.667609e-01 6.586595e-01 6.853904e-01 6.956978e-01 6.983548e-01 7.127871e-01 7.124172e-01 6.906000e-01 6.583912e-01 6.494102e-01 6.442038e-01
<GCONST> 3.352872e+01
<TRANSP> 5
 0.000000e+00 1.000000e+00 0.000000e+00 0.000000e+00 0.000000e+00
 0.000000e+00 8.566020e-01 1.433980e-01 0.000000e+00 0.000000e+00
 0.000000e+00 0.000000e+00 8.830501e-01 1.169499e-01 0.000000e+00
 0.000000e+00 0.000000e+00 0.000000e+00 7.147240e-01 2.852760e-01
 0.000000e+00 0.000000e+00 0.000000e+00 0.000000e+00 0.000000e+00
<ENDHMM>
