~o
<STREAMINFO> 1 24
<VECSIZE> 24<NULLD><FBANK_Z><DIAGC>
~h "t"
<BEGINHMM>
<NUMSTATES> 5
<STATE> 2
<MEAN> 24
 -1.384429e+00 -1.407465e+00 -1.395565e+00 -1.455599e+00 -1.467279e+00 -1.444417e+00 -1.449106e+00 -1.438069e+00 -1.393419e+00 -1.336100e+00 -1.337103e+00 -1.329113e+00 -1.294182e+00 -1.270355e+00 -1.222530e+00 -1.169169e+00 -1.127825e+00 -1.096433e+00 -1.010739e+00 -8.867649e-01 -7.711428e-01 -7.090905e-01 -7.105017e-01 -7.167416e-01
<VARIANCE> 24
 5.779144e-01 5.564773e-01 5.250686e-01 4.814015e-01 4.117894e-01 3.873315e-01 4.282742e-01 4.535852e-01 4.560922e-01 4.412128e-01 4.555888e-01 5.088549e-01 5.670568e-01 6.109601e-01 6.307688e-01 6.837017e-01 7.060288e-01 7.371349e-01 7.963471e-01 8.107951e-01 7.736391e-01 7.259545e-01 7.002388e-01 6.745437e-01
<GCONST> 3.074140e+01
<STATE> 3
<MEAN> 24
 -1.068865e-01 -3.496461e-01 -3.629133e-01 -2.556445e-01 -1.722990e-01 -9.811180e-02 -2.745618e-02 5.102750e-02 9.191061e-02 1.196812e-01 1.864409e-01 3.383374e-01 4.760633e-01 5.098535e-01 5.959328e-01 7.211756e-01 7.615032e-01 8.398026e-01 1.008291e+00 1.158653e+00 1.239119e+00 1.251070e+00 1.218094e+00 1.167149e+00
<VARIANCE> 24
 3.631215e-01 2.272337e-01 1.916135e-01 1.621364e-01 1.498031e-01 1.413396e-01 1.438147e-01 1.582939e-01 1.654762e-01 1.671723e-01 1.727486e-01 1.876743e-01 2.056393e-01 2.367023e-01 2.240211e-01 2.271972e-01 2.513030e-01 2.700260e-01 3.172354e-01 3.593160e-01 3.998346e-01 4.554297e-01 4.987909e-01 5.282218e-01
<GCONST> 9.588928e+00
<STATE> 4
<MEAN> 24
 4.148281e-01 4.499322e-01 4.540266e-01 4.409227e-01 4.293517e-01 3.622707e-01 3.220808e-01 3.001421e-01 2.657777e-01 2.948959e-01 4.090993e-01 4.906020e-01 4.557081e-01 3.690207e-01 3.621951e-01 3.229209e-01 2.551389e-01 2.287254e-01 2.027828e-01 1.580222e-01 9.212548e-02 4.678184e-02 3.427816e-02 1.115784e-02
<VARIANCE> 24
 5.215932e-01 5.393983e-01 5.624916e-01 5.212812e-01 4.921514e-01 4.556324e-01 4.332187e-01 4.370966e-01 4.493216e-01 4.843750e-01 4.962747e-01 4.746813e-01 4.760908e-01 4.769122e-01 4.856167e-01 4.707044e-01 4.477807e-01 4.274753e-01 4.391818e-01 4.558916e-01 4.739332e-01 4.920403e-01 4.926284e-01 4.876440e-01
<GCONST> 2.638210e+01
<TRANSP> 5
 0.000000e+00 1.000000e+00 0.000000e+00 0.000000e+00 0.000000e+00
 0.000000e+00 6.971930e-01 3.028070e-01 0.000000e+00 0.000000e+00
 0.000000e+00 0.000000e+00 7.438213e-01 2.561787e-01 0.000000e+00
 0.000000e+00 0.000000e+00 0.000000e+00 6.277950e-01 3.722050e-01
 0.000000e+00 0.000000e+00 0.000000e+00 0.000000e+00 0.000000e+00
<ENDHMM>
