~o
<STREAMINFO> 1 24
<VECSIZE> 24<NULLD><FBANK_Z><DIAGC>
~h "th"
<BEGINHMM>
<NUMSTATES> 5
<STATE> 2
<MEAN> 24
 -9.974157e-01 -1.136487e+00 -1.158611e+00 -1.138655e+00 -1.127768e+00 -1.075163e+00 -1.026600e+00 -1.014980e+00 -9.831135e-01 -9.560416e-01 -9.371912e-01 -9.062233e-01 -8.761998e-01 -8.698790e-01 -8.315574e-01 -7.470339e-01 -6.945866e-01 -6.359971e-01 -4.976501e-01 -2.733137e-01 -4.868906e-02 1.003568e-01 1.172224e-01 1.437993e-01
<VARIANCE> 24
 6.968327e-01 5.582353e-01 4.532061e-01 4.038857e-01 3.576669e-01 3.368757e-01 3.787388e-01 3.979836e-01 3.877108e-01 3.732488e-01 3.886149e-01 4.291921e-01 4.530574e-01 4.605190e-01 4.670326e-01 4.956436e-01 4.849138e-01 5.003973e-01 5.777187e-01 6.788747e-01 7.323070e-01 7.260915e-01 7.502013e-01 8.145905e-01
<GCONST> 2.722773e+01
<STATE> 3
<MEAN> 24
 -4.042878e-01 -5.873387e-01 -5.989045e-01 -5.248804e-01 -4.552387e-01 -3.670576e-01 -2.859770e-01 -2.243772e-01 -1.768314e-01 -1.501971e-01 -7.665157e-02 3.647476e-03 5.008871e-02 5.428009e-02 1.085056e-01 2.079416e-01 2.132476e-01 2.715921e-01 4.262893e-01 6.729679e-01 9.095834e-01 1.043610e+00 1.035558e+00 1.038888e+00
<VARIANCE> 24
 4.317790e-01 2.757268e-01 2.177340e-01 1.709588e-01 1.388747e-01 1.286462e-01 1.263603e-01 1.310670e-01 1.329611e-01 1.387043e-01 1.390386e-01 1.435045e-01 1.468909e-01 1.662749e-01 1.724974e-01 1.738186e-01 1.812523e-01 1.848500e-01 2.241504e-01 2.697058e-01 3.144301e-01 3.102685e-01 3.197558e-01 3.501054e-01
<GCONST> 4.718751e+00
<STATE> 4
<MEAN> 24
 2.854805e-01 2.665302e-01 2.863488e-01 3.128469e-01 3.036067e-01 2.498578e-01 1.844472e-01 1.616801e-01 1.532439e-01 1.993022e-01 2.770419e-01 2.844013e-01 2.033225e-01 1.670253e-01 1.684858e-01 1.259227e-01 6.569802e-02 6.004745e-02 4.526165e-02 3.156067e-02 5.970124e-02 1.040654e-01 8.872078e-02 7.679632e-02
<VARIANCE> 24
 7.367756e-01 8.305581e-01 8.649293e-01 8.468615e-01 8.298128e-01 7.625463e-01 6.725820e-01 6.497918e-01 6.496106e-01 6.697904e-01 7.013131e-01 7.268774e-01 7.300909e-01 7.610147e-01 7.842001e-01 7.470445e-01 6.894810e-01 6.595386e-01 6.376909e-01 5.785910e-01 5.995495e-01 6.158988e-01 6.387198e-01 6.791810e-01
<GCONST> 3.577634e+01
<TRANSP> 5
 0.000000e+00 1.000000e+00 0.000000e+00 0.000000e+00 0.000000e+00
 0.000000e+00 6.991938e-01 3.008061e-01 0.000000e+00 0.000000e+00
 0.000000e+00 0.000000e+00 7.692329e-01 2.307671e-01 0.000000e+00
 0.000000e+00 0.000000e+00 0.000000e+00 6.023067e-01 3.976934e-01
 0.000000e+00 0.000000e+00 0.000000e+00 0.000000e+00 0.000000e+00
<ENDHMM>
