~o
<STREAMINFO> 1 24
<VECSIZE> 24<NULLD><FBANK_Z><DIAGC>
~h "uh"
<BEGINHMM>
<NUMSTATES> 5
<STATE> 2
<MEAN> 24
 9.417025e-01 9.214420e-01 1.046855e+00 1.121493e+00 1.204311e+00 1.057810e+00 9.020285e-01 9.077380e-01 9.462637e-01 9.859662e-01 9.827378e-01 8.739898e-01 7.784671e-01 8.483863e-01 8.810704e-01 8.228666e-01 8.418189e-01 7.741625e-01 6.369491e-01 4.147244e-01 2.479746e-01 1.592779e-01 1.728566e-01 2.079736e-01
<VARIANCE> 24
 1.177501e-01 8.816592e-02 7.640462e-02 9.122454e-02 1.012121e-01 1.160406e-01 1.069279e-01 1.386174e-01 1.745992e-01 2.122335e-01 2.747101e-01 3.407616e-01 3.426979e-01 3.030014e-01 2.650537e-01 2.572453e-01 2.504536e-01 2.505601e-01 3.009383e-01 3.567109e-01 3.343294e-01 3.313869e-01 3.858894e-01 3.659347e-01
<GCONST> 6.146957e+00
<STATE> 3
<MEAN> 24
 6.485509e-01 7.119334e-01 7.245533e-01 8.449837e-01 8.387408e-01 6.968219e-01 5.809848e-01 5.814311e-01 5.784547e-01 5.540924e-01 4.794928e-01 3.686092e-01 2.540351e-01 2.703817e-01 2.934585e-01 2.415861e-01 2.676125e-01 2.535638e-01 1.460061e-01 -1.257405e-02 -1.684011e-01 -2.564004e-01 -2.290376e-01 -2.122585e-01
<VARIANCE> 24
 9.477587e-02 5.134137e-02 6.069722e-02 6.998380e-02 8.552700e-02 1.208382e-01 1.198254e-01 1.763465e-01 2.044024e-01 1.968836e-01 2.282021e-01 2.711601e-01 2.751853e-01 2.484817e-01 2.314809e-01 2.142108e-01 1.791906e-01 1.930123e-01 2.352605e-01 3.024958e-01 3.418984e-01 3.008998e-01 2.940427e-01 2.893077e-01
<GCONST> 2.465259e+00
<STATE> 4
<MEAN> 24
 -7.114568e-02 7.428966e-02 2.479361e-02 -6.710693e-02 -1.904879e-01 -3.406105e-01 -4.153608e-01 -4.484843e-01 -4.298609e-01 -3.851739e-01 -3.581294e-01 -4.349059e-01 -5.380929e-01 -5.617968e-01 -5.531220e-01 -5.698748e-01 -5.850568e-01 -5.623938e-01 -5.844107e-01 -5.926815e-01 -5.668207e-01 -5.644869e-01 -5.569759e-01 -5.420440e-01
<VARIANCE> 24
 3.994054e-01 3.356037e-01 3.309450e-01 4.124469e-01 4.833559e-01 5.221003e-01 5.846397e-01 6.674125e-01 6.341807e-01 5.339500e-01 4.764568e-01 4.962683e-01 5.405957e-01 5.794910e-01 5.889037e-01 6.101436e-01 6.362404e-01 6.852532e-01 7.834256e-01 8.198446e-01 8.194163e-01 7.991664e-01 8.038375e-01 7.861636e-01
<GCONST> 3.092570e+01
<TRANSP> 5
 0.000000e+00 1.000000e+00 0.000000e+00 0.000000e+00 0.000000e+00
 0.000000e+00 7.411975e-01 2.588026e-01 0.000000e+00 0.000000e+00
 0.000000e+00 0.000000e+00 6.683967e-01 3.316033e-01 0.000000e+00
 0.000000e+00 0.000000e+00 0.000000e+00 4.227670e-01 5.772330e-01
 0.000000e+00 0.000000e+00 0.000000e+00 0.000000e+00 0.000000e+00
<ENDHMM>
