~o
<STREAMINFO> 1 24
<VECSIZE> 24<NULLD><FBANK_Z><DIAGC>
~h "uw"
<BEGINHMM>
<NUMSTATES> 5
<STATE> 2
<MEAN> 24
 7.780591e-01 9.072042e-01 1.048383e+00 1.026478e+00 8.493438e-01 5.665867e-01 4.585039e-01 4.196085e-01 4.208859e-01 4.839342e-01 6.030966e-01 7.472084e-01 8.789998e-01 9.767606e-01 8.646705e-01 7.347202e-01 7.792346e-01 7.162804e-01 5.125184e-01 1.590248e-01 -1.096027e-02 -5.589982e-02 5.932046e-02 1.576771e-01
<VARIANCE> 24
 1.347513e-01 7.561966e-02 8.516974e-02 1.054696e-01 1.157905e-01 1.068616e-01 9.788029e-02 1.213822e-01 1.671580e-01 2.227858e-01 2.361355e-01 2.336780e-01 2.280888e-01 2.108477e-01 2.170710e-01 2.154118e-01 2.109356e-01 2.046240e-01 2.754571e-01 3.642508e-01 3.244229e-01 2.906804e-01 2.991728e-01 3.056433e-01
<GCONST> 3.505010e+00
<STATE> 3
<MEAN> 24
 5.803763e-01 7.345408e-01 7.953310e-01 8.231130e-01 6.325303e-01 3.710993e-01 2.821936e-01 2.682369e-01 3.121501e-01 3.305175e-01 2.888140e-01 2.281240e-01 2.245357e-01 3.097092e-01 2.046221e-01 8.799931e-02 1.268399e-01 7.350717e-02 -6.059647e-02 -2.807251e-01 -4.053171e-01 -4.354469e-01 -3.449259e-01 -2.634108e-01
<VARIANCE> 24
 1.099547e-01 5.323841e-02 7.294152e-02 7.690016e-02 1.040920e-01 1.057969e-01 1.029046e-01 1.434789e-01 2.139740e-01 2.282496e-01 2.088601e-01 2.245539e-01 2.364034e-01 2.178542e-01 2.084577e-01 1.999549e-01 1.953238e-01 1.884853e-01 2.356671e-01 2.964087e-01 2.646568e-01 2.603809e-01 2.651517e-01 2.714201e-01
<GCONST> 1.568382e+00
<STATE> 4
<MEAN> 24
 1.517426e-01 3.110946e-01 2.791133e-01 2.234127e-01 1.099705e-02 -1.875095e-01 -2.386276e-01 -2.664285e-01 -2.630240e-01 -2.767050e-01 -2.734112e-01 -2.548935e-01 -2.524792e-01 -1.944507e-01 -2.218366e-01 -2.986536e-01 -2.905523e-01 -2.798254e-01 -2.577973e-01 -2.846675e-01 -2.966472e-01 -2.916628e-01 -2.958374e-01 -2.637462e-01
<VARIANCE> 24
 2.708320e-01 2.297483e-01 2.586960e-01 3.258609e-01 3.611870e-01 3.616822e-01 3.609356e-01 4.093424e-01 4.612574e-01 4.590850e-01 4.388466e-01 4.495436e-01 4.836632e-01 5.239341e-01 5.447459e-01 5.515770e-01 6.201895e-01 6.933125e-01 8.012161e-01 8.903318e-01 9.242260e-01 9.235689e-01 8.989596e-01 8.612522e-01
<GCONST> 2.756444e+01
<TRANSP> 5
 0.000000e+00 1.000000e+00 0.000000e+00 0.000000e+00 0.000000e+00
 0.000000e+00 7.901356e-01 2.098644e-01 0.000000e+00 0.000000e+00
 0.000000e+00 0.000000e+00 7.602924e-01 2.397076e-01 0.000000e+00
 0.000000e+00 0.000000e+00 0.000000e+00 5.211605e-01 4.788395e-01
 0.000000e+00 0.000000e+00 0.000000e+00 0.000000e+00 0.000000e+00
<ENDHMM>
