~o
<STREAMINFO> 1 24
<VECSIZE> 24<NULLD><FBANK_Z><DIAGC>
~h "v"
<BEGINHMM>
<NUMSTATES> 5
<STATE> 2
<MEAN> 24
 -1.164393e-01 5.207637e-02 -3.507607e-02 -1.349209e-01 -2.877470e-01 -3.973656e-01 -4.387013e-01 -4.085665e-01 -3.378139e-01 -3.221157e-01 -4.079356e-01 -5.244446e-01 -5.833657e-01 -5.773654e-01 -6.215780e-01 -6.525573e-01 -6.042932e-01 -6.168545e-01 -6.049053e-01 -5.216548e-01 -4.236282e-01 -3.860447e-01 -3.942682e-01 -3.676845e-01
<VARIANCE> 24
 3.171620e-01 3.073977e-01 3.297653e-01 3.659891e-01 3.663466e-01 3.300609e-01 3.279670e-01 3.647960e-01 3.888160e-01 3.806390e-01 3.404155e-01 3.129295e-01 2.938154e-01 2.872647e-01 2.649209e-01 2.568359e-01 2.574871e-01 2.490168e-01 2.558462e-01 2.741151e-01 2.917573e-01 3.052821e-01 3.113966e-01 3.281436e-01
<GCONST> 1.601720e+01
<STATE> 3
<MEAN> 24
 -1.715505e-01 -1.187740e-01 -1.683606e-01 -2.216931e-01 -3.005080e-01 -3.382784e-01 -3.200181e-01 -2.739493e-01 -2.045884e-01 -1.515747e-01 -1.382632e-01 -1.464471e-01 -1.489673e-01 -1.312288e-01 -1.345109e-01 -1.119156e-01 -6.674182e-02 -5.111444e-02 1.501896e-02 1.354111e-01 2.618917e-01 3.164176e-01 3.126808e-01 3.313145e-01
<VARIANCE> 24
 3.656839e-01 4.009428e-01 3.890319e-01 3.399291e-01 2.806072e-01 2.283890e-01 2.053744e-01 2.199387e-01 2.362829e-01 2.220796e-01 1.923226e-01 1.842195e-01 1.872372e-01 1.940101e-01 1.878715e-01 2.009784e-01 2.108305e-01 2.170548e-01 2.534131e-01 2.924440e-01 3.323344e-01 3.546272e-01 3.691945e-01 3.970754e-01
<GCONST> 1.169687e+01
<STATE> 4
<MEAN> 24
 4.371189e-01 4.705059e-01 4.846878e-01 5.038903e-01 4.952828e-01 4.187755e-01 3.590121e-01 3.770766e-01 4.346374e-01 4.521437e-01 4.134614e-01 3.356169e-01 2.388337e-01 1.783629e-01 8.985218e-02 3.410221e-02 6.278491e-02 2.808356e-02 -3.858428e-02 -7.649203e-02 -7.352367e-02 -9.735514e-02 -1.120257e-01 -8.609784e-02
<VARIANCE> 24
 4.579896e-01 4.458956e-01 4.655649e-01 4.962272e-01 5.323579e-01 5.264865e-01 4.867396e-01 4.925251e-01 5.334136e-01 5.570111e-01 5.886227e-01 5.958936e-01 5.678417e-01 5.961704e-01 5.737892e-01 5.012307e-01 4.958199e-01 4.830491e-01 4.692409e-01 4.562244e-01 4.470510e-01 4.509479e-01 4.419656e-01 4.516103e-01
<GCONST> 2.758089e+01
<TRANSP> 5
 0.000000e+00 1.000000e+00 0.000000e+00 0.000000e+00 0.000000e+00
 0.000000e+00 6.070306e-01 3.929694e-01 0.000000e+00 0.000000e+00
 0.000000e+00 0.000000e+00 5.939570e-01 4.060430e-01 0.000000e+00
 0.000000e+00 0.000000e+00 0.000000e+00 5.094932e-01 4.905068e-01
 0.000000e+00 0.000000e+00 0.000000e+00 0.000000e+00 0.000000e+00
<ENDHMM>
