~o
<STREAMINFO> 1 24
<VECSIZE> 24<NULLD><FBANK_Z><DIAGC>
~h "vcl"
<BEGINHMM>
<NUMSTATES> 5
<STATE> 2
<MEAN> 24
 -2.324272e-01 4.713043e-02 -2.884478e-02 -3.161944e-01 -5.896398e-01 -7.534607e-01 -8.156403e-01 -8.691291e-01 -8.634542e-01 -8.633186e-01 -8.701628e-01 -9.051271e-01 -9.612691e-01 -9.753495e-01 -1.003321e+00 -1.093495e+00 -1.135788e+00 -1.138661e+00 -1.119598e+00 -1.063567e+00 -9.845261e-01 -9.371561e-01 -9.439840e-01 -9.467636e-01
<VARIANCE> 24
 2.137874e-01 2.001453e-01 1.999029e-01 2.067604e-01 2.001035e-01 1.965020e-01 2.379398e-01 2.901929e-01 3.281648e-01 3.244938e-01 3.244108e-01 3.276815e-01 3.446293e-01 3.546662e-01 3.256380e-01 3.151396e-01 3.279237e-01 3.310688e-01 3.408141e-01 3.436066e-01 3.304318e-01 3.105465e-01 2.873078e-01 2.767732e-01
<GCONST> 1.382912e+01
<STATE> 3
<MEAN> 24
 -9.605660e-01 -7.927109e-01 -8.589793e-01 -1.110179e+00 -1.287251e+00 -1.361231e+00 -1.405611e+00 -1.434052e+00 -1.405682e+00 -1.374718e+00 -1.399186e+00 -1.431197e+00 -1.447689e+00 -1.446755e+00 -1.434476e+00 -1.438994e+00 -1.425142e+00 -1.412041e+00 -1.359625e+00 -1.234830e+00 -1.105693e+00 -1.036436e+00 -1.034611e+00 -1.037195e+00
<VARIANCE> 24
 5.706648e-01 7.144927e-01 6.364655e-01 5.045279e-01 3.787378e-01 3.123630e-01 3.261572e-01 3.534082e-01 3.536617e-01 3.409832e-01 3.297481e-01 3.297674e-01 3.320855e-01 3.525274e-01 3.321577e-01 3.136734e-01 3.210967e-01 3.360109e-01 3.479381e-01 3.428531e-01 3.155054e-01 2.877879e-01 2.836080e-01 2.817540e-01
<GCONST> 1.976147e+01
<STATE> 4
<MEAN> 24
 -8.025464e-02 -1.310904e-01 -1.294944e-01 -1.295256e-01 -1.819150e-01 -2.271051e-01 -2.058709e-01 -1.629546e-01 -1.067021e-01 -8.237148e-02 -8.372297e-02 -6.573545e-02 -3.159189e-02 -3.436370e-03 -2.173899e-03 2.047087e-02 3.628651e-02 4.681088e-02 1.180516e-01 1.973134e-01 2.517087e-01 2.629454e-01 2.550452e-01 2.344160e-01
<VARIANCE> 24
 5.571492e-01 5.323424e-01 5.322872e-01 4.978467e-01 4.519905e-01 3.791664e-01 3.449966e-01 3.678189e-01 3.913532e-01 4.082732e-01 4.150591e-01 4.470064e-01 4.720525e-01 4.495180e-01 4.434460e-01 4.999247e-01 5.618244e-01 5.839682e-01 6.312271e-01 7.115547e-01 7.654560e-01 7.944778e-01 8.068944e-01 8.167821e-01
<GCONST> 2.833299e+01
<TRANSP> 5
 0.000000e+00 1.000000e+00 0.000000e+00 0.000000e+00 0.000000e+00
 0.000000e+00 5.076514e-01 4.923486e-01 0.000000e+00 0.000000e+00
 0.000000e+00 0.000000e+00 6.953787e-01 3.046214e-01 0.000000e+00
 0.000000e+00 0.000000e+00 0.000000e+00 5.455813e-01 4.544187e-01
 0.000000e+00 0.000000e+00 0.000000e+00 0.000000e+00 0.000000e+00
<ENDHMM>
