~o
<STREAMINFO> 1 24
<VECSIZE> 24<NULLD><FBANK_Z><DIAGC>
~h "w"
<BEGINHMM>
<NUMSTATES> 5
<STATE> 2
<MEAN> 24
 3.709823e-01 5.175816e-01 5.600826e-01 6.464726e-01 5.066120e-01 3.949322e-01 4.310774e-01 3.459051e-01 7.750240e-02 -2.567479e-01 -5.528187e-01 -7.255962e-01 -7.223244e-01 -6.153945e-01 -6.381915e-01 -6.759450e-01 -6.189539e-01 -6.449050e-01 -7.084538e-01 -7.922276e-01 -8.437042e-01 -8.212373e-01 -7.697162e-01 -7.355611e-01
<VARIANCE> 24
 1.477664e-01 8.606873e-02 1.016511e-01 1.105332e-01 1.381245e-01 1.479469e-01 1.763773e-01 2.647558e-01 3.504635e-01 3.574263e-01 2.940469e-01 2.431738e-01 2.471987e-01 2.939105e-01 2.636415e-01 2.672362e-01 2.815529e-01 2.526113e-01 2.338839e-01 2.138343e-01 1.822684e-01 1.675853e-01 1.868008e-01 1.986035e-01
<GCONST> 5.889426e+00
<STATE> 3
<MEAN> 24
 6.766425e-01 7.148917e-01 7.615715e-01 8.668934e-01 8.633025e-01 7.607742e-01 7.874390e-01 8.550603e-01 7.343454e-01 4.062950e-01 3.950812e-02 -1.908991e-01 -1.870383e-01 -3.656089e-02 -7.969882e-02 -1.134085e-01 -2.795715e-02 -1.021192e-01 -2.503102e-01 -4.204496e-01 -5.315150e-01 -5.517494e-01 -4.646514e-01 -3.943666e-01
<VARIANCE> 24
 9.370841e-02 5.283920e-02 7.104641e-02 7.525036e-02 7.771669e-02 1.013135e-01 1.249342e-01 1.668397e-01 2.183622e-01 2.748809e-01 2.504329e-01 2.032030e-01 1.908279e-01 2.187345e-01 1.949271e-01 1.930592e-01 2.087931e-01 1.936557e-01 1.987225e-01 2.030547e-01 1.803152e-01 1.827296e-01 2.026863e-01 2.040911e-01
<GCONST> -4.088764e-01
<STATE> 4
<MEAN> 24
 8.238551e-01 8.189593e-01 8.663858e-01 9.485519e-01 1.014674e+00 9.647276e-01 9.284344e-01 9.751720e-01 1.012541e+00 9.340305e-01 6.975723e-01 4.552186e-01 3.871854e-01 4.893211e-01 4.358661e-01 3.825836e-01 4.376878e-01 3.738398e-01 2.148242e-01 -3.427984e-03 -1.527372e-01 -2.476907e-01 -1.673291e-01 -5.879437e-02
<VARIANCE> 24
 1.226127e-01 7.436994e-02 1.001569e-01 9.602599e-02 1.088503e-01 1.545414e-01 1.922399e-01 2.576751e-01 3.154322e-01 3.410864e-01 3.544549e-01 3.310200e-01 3.072683e-01 3.214681e-01 2.927413e-01 2.747751e-01 2.794686e-01 2.669195e-01 2.952114e-01 3.186343e-01 2.982118e-01 2.699765e-01 2.852812e-01 3.008733e-01
<GCONST> 8.535815e+00
<TRANSP> 5
 0.000000e+00 1.000000e+00 0.000000e+00 0.000000e+00 0.000000e+00
 0.000000e+00 6.842299e-01 3.157701e-01 0.000000e+00 0.000000e+00
 0.000000e+00 0.000000e+00 5.085756e-01 4.914244e-01 0.000000e+00
 0.000000e+00 0.000000e+00 0.000000e+00 4.708125e-01 5.291876e-01
 0.000000e+00 0.000000e+00 0.000000e+00 0.000000e+00 0.000000e+00
<ENDHMM>
