~o
<STREAMINFO> 1 24
<VECSIZE> 24<NULLD><FBANK_Z><DIAGC>
~h "y"
<BEGINHMM>
<NUMSTATES> 5
<STATE> 2
<MEAN> 24
 4.311947e-01 6.663054e-01 6.950004e-01 5.616835e-01 2.207744e-01 -6.270988e-02 -1.794961e-01 -3.038206e-01 -3.921257e-01 -4.425030e-01 -4.212803e-01 -2.195126e-01 1.934488e-01 4.626887e-01 5.503492e-01 6.258851e-01 6.409733e-01 5.622283e-01 4.111518e-01 1.151280e-01 -1.111335e-01 -2.221567e-01 -2.088726e-01 -1.393251e-01
<VARIANCE> 24
 1.621784e-01 7.608323e-02 1.023917e-01 1.301732e-01 1.716314e-01 1.580288e-01 1.552279e-01 1.715580e-01 1.729822e-01 1.777248e-01 2.232404e-01 3.367774e-01 4.682483e-01 3.602790e-01 2.539740e-01 2.489524e-01 2.377286e-01 2.213585e-01 2.333345e-01 2.998739e-01 2.707705e-01 2.569302e-01 2.502874e-01 2.687969e-01
<GCONST> 6.583919e+00
<STATE> 3
<MEAN> 24
 6.620792e-01 8.253534e-01 9.421397e-01 8.452755e-01 5.789049e-01 2.779313e-01 1.634805e-01 6.305807e-02 -7.467638e-03 -4.658638e-02 2.038273e-02 3.008824e-01 7.860100e-01 1.003218e+00 9.627202e-01 8.944880e-01 8.791274e-01 7.718160e-01 5.563586e-01 2.179931e-01 8.083765e-03 -9.668858e-02 -5.038518e-02 5.037806e-02
<VARIANCE> 24
 1.290434e-01 5.957852e-02 7.613967e-02 8.560118e-02 1.167947e-01 9.255634e-02 8.003824e-02 8.792760e-02 9.202989e-02 1.112425e-01 1.574023e-01 2.479756e-01 3.138819e-01 2.161003e-01 1.896804e-01 2.600026e-01 2.489927e-01 2.314084e-01 2.678604e-01 3.271259e-01 2.842043e-01 2.526357e-01 2.540410e-01 2.867148e-01
<GCONST> 6.566795e-01
<STATE> 4
<MEAN> 24
 8.428648e-01 8.918513e-01 1.008942e+00 1.023698e+00 8.986487e-01 6.645247e-01 5.322545e-01 4.533618e-01 4.066768e-01 4.331092e-01 5.829067e-01 8.400193e-01 1.107217e+00 1.131140e+00 9.494431e-01 8.409229e-01 8.507226e-01 7.515068e-01 5.222252e-01 2.355503e-01 6.726775e-02 9.992817e-03 6.498310e-02 1.558609e-01
<VARIANCE> 24
 1.580461e-01 7.587932e-02 1.093361e-01 1.107660e-01 1.626490e-01 2.071439e-01 1.911500e-01 2.113258e-01 2.195247e-01 2.734030e-01 3.483987e-01 3.850339e-01 3.618797e-01 3.230959e-01 3.790477e-01 4.158824e-01 3.633637e-01 3.467698e-01 3.838907e-01 4.225767e-01 4.091468e-01 4.137443e-01 4.093702e-01 4.052556e-01
<GCONST> 1.239394e+01
<TRANSP> 5
 0.000000e+00 1.000000e+00 0.000000e+00 0.000000e+00 0.000000e+00
 0.000000e+00 6.072023e-01 3.927977e-01 0.000000e+00 0.000000e+00
 0.000000e+00 0.000000e+00 5.123596e-01 4.876405e-01 0.000000e+00
 0.000000e+00 0.000000e+00 0.000000e+00 4.621908e-01 5.378092e-01
 0.000000e+00 0.000000e+00 0.000000e+00 0.000000e+00 0.000000e+00
<ENDHMM>
