~o
<STREAMINFO> 1 24
<VECSIZE> 24<NULLD><FBANK_Z><DIAGC>
~h "z"
<BEGINHMM>
<NUMSTATES> 5
<STATE> 2
<MEAN> 24
 -3.218148e-01 -5.103747e-01 -5.975219e-01 -6.057311e-01 -6.374171e-01 -6.406597e-01 -5.902678e-01 -5.508319e-01 -5.115839e-01 -4.631484e-01 -3.655263e-01 -2.799386e-01 -2.578403e-01 -2.231720e-01 -7.911163e-02 1.067020e-01 3.546204e-01 6.437985e-01 9.987450e-01 1.359662e+00 1.597090e+00 1.717432e+00 1.738694e+00 1.742130e+00
<VARIANCE> 24
 3.005705e-01 3.197548e-01 2.856368e-01 2.388141e-01 1.596770e-01 1.041507e-01 9.603640e-02 9.692337e-02 9.523091e-02 9.978059e-02 1.116874e-01 1.225073e-01 1.253553e-01 1.236481e-01 1.378781e-01 1.618765e-01 2.144376e-01 2.777863e-01 3.873023e-01 4.119277e-01 3.412402e-01 3.213181e-01 3.633092e-01 3.893583e-01
<GCONST> 4.568852e+00
<STATE> 3
<MEAN> 24
 -8.595878e-02 -2.753647e-01 -3.189668e-01 -2.927737e-01 -2.885924e-01 -2.689554e-01 -2.183356e-01 -1.701115e-01 -1.286765e-01 -6.264723e-02 6.454788e-02 1.551177e-01 1.539927e-01 1.741764e-01 3.246254e-01 4.926817e-01 7.001324e-01 9.584209e-01 1.253806e+00 1.514735e+00 1.652825e+00 1.703676e+00 1.697063e+00 1.703295e+00
<VARIANCE> 24
 3.348389e-01 2.990423e-01 2.857123e-01 2.423318e-01 1.666106e-01 1.138088e-01 9.951180e-02 1.017419e-01 1.054660e-01 1.157919e-01 1.292328e-01 1.415700e-01 1.494290e-01 1.453869e-01 1.588891e-01 1.852795e-01 2.475388e-01 2.928099e-01 3.577071e-01 3.812506e-01 3.664547e-01 3.762027e-01 4.210227e-01 4.516614e-01
<GCONST> 6.560122e+00
<STATE> 4
<MEAN> 24
 -3.908120e-01 -4.117953e-01 -3.971857e-01 -3.646004e-01 -3.694585e-01 -4.193811e-01 -4.365806e-01 -4.349663e-01 -4.154061e-01 -3.392377e-01 -2.607493e-01 -2.788824e-01 -3.570742e-01 -3.763674e-01 -2.983553e-01 -2.439994e-01 -1.973344e-01 -1.140197e-01 -1.159575e-02 9.204864e-02 1.351387e-01 1.394632e-01 1.036786e-01 7.292763e-02
<VARIANCE> 24
 8.923274e-01 9.703751e-01 9.777330e-01 9.546239e-01 8.765497e-01 7.208027e-01 6.369738e-01 6.056935e-01 5.758619e-01 5.890632e-01 6.557494e-01 6.624843e-01 5.879182e-01 5.579806e-01 5.985581e-01 5.751293e-01 5.221076e-01 5.337615e-01 5.714443e-01 5.668204e-01 5.449800e-01 5.521945e-01 5.807593e-01 5.996019e-01
<GCONST> 3.372794e+01
<TRANSP> 5
 0.000000e+00 1.000000e+00 0.000000e+00 0.000000e+00 0.000000e+00
 0.000000e+00 7.449707e-01 2.550293e-01 0.000000e+00 0.000000e+00
 0.000000e+00 0.000000e+00 7.106896e-01 2.893104e-01 0.000000e+00
 0.000000e+00 0.000000e+00 0.000000e+00 5.007210e-01 4.992790e-01
 0.000000e+00 0.000000e+00 0.000000e+00 0.000000e+00 0.000000e+00
<ENDHMM>
