~o
<STREAMINFO> 1 24
<VECSIZE> 24<NULLD><FBANK_Z><DIAGC>
~h "zh"
<BEGINHMM>
<NUMSTATES> 5
<STATE> 2
<MEAN> 24
 -1.188510e-01 -3.205016e-01 -4.242769e-01 -4.604819e-01 -5.678586e-01 -6.225574e-01 -5.880613e-01 -5.627807e-01 -5.274263e-01 -4.700065e-01 -3.351458e-01 -8.550030e-02 1.694934e-01 3.665601e-01 6.464379e-01 8.923390e-01 1.110546e+00 1.159803e+00 1.215891e+00 1.360959e+00 1.431884e+00 1.470080e+00 1.487846e+00 1.443516e+00
<VARIANCE> 24
 2.604046e-01 2.916999e-01 2.688005e-01 2.275602e-01 1.539086e-01 9.642678e-02 8.600380e-02 8.201833e-02 7.741560e-02 8.085144e-02 1.042613e-01 1.329416e-01 1.334246e-01 1.907161e-01 2.150152e-01 1.927093e-01 2.088512e-01 2.404345e-01 2.500366e-01 2.500368e-01 2.569830e-01 2.967119e-01 3.121253e-01 3.152888e-01
<GCONST> 2.709524e+00
<STATE> 3
<MEAN> 24
 1.116709e-01 -4.826770e-02 -1.002402e-01 -1.209062e-01 -2.063740e-01 -2.431439e-01 -2.140049e-01 -2.198188e-01 -1.804540e-01 -9.322310e-02 1.093779e-01 4.190851e-01 6.256332e-01 8.108692e-01 1.009768e+00 1.110513e+00 1.197202e+00 1.174389e+00 1.237454e+00 1.326512e+00 1.419196e+00 1.473829e+00 1.503084e+00 1.473725e+00
<VARIANCE> 24
 2.382017e-01 2.735106e-01 2.298654e-01 2.052316e-01 1.269720e-01 9.031186e-02 7.597630e-02 8.000064e-02 8.980695e-02 8.939607e-02 1.172535e-01 1.716963e-01 1.761873e-01 2.361358e-01 2.191313e-01 2.102007e-01 2.251160e-01 2.517848e-01 2.919372e-01 2.567157e-01 2.705869e-01 3.038579e-01 3.436847e-01 3.557472e-01
<GCONST> 3.703994e+00
<STATE> 4
<MEAN> 24
 6.700874e-02 1.156221e-01 1.039534e-01 1.125968e-01 -4.025519e-03 -1.439628e-01 -1.806580e-01 -2.187710e-01 -2.022471e-01 -1.340463e-01 1.062916e-02 1.647676e-01 1.984163e-01 2.197822e-01 1.924136e-01 1.960018e-01 2.413194e-01 1.375426e-01 1.248124e-01 2.128935e-01 2.129515e-01 1.590264e-01 1.343390e-01 1.174399e-01
<VARIANCE> 24
 5.857199e-01 6.698050e-01 7.227589e-01 7.192701e-01 5.972055e-01 4.212455e-01 3.690627e-01 3.594961e-01 3.355623e-01 4.040869e-01 4.819757e-01 5.286462e-01 5.390736e-01 4.910350e-01 4.777877e-01 3.862338e-01 3.596977e-01 3.702699e-01 3.748049e-01 4.131054e-01 4.542947e-01 4.626768e-01 4.717432e-01 4.835727e-01
<GCONST> 2.581585e+01
<TRANSP> 5
 0.000000e+00 1.000000e+00 0.000000e+00 0.000000e+00 0.000000e+00
 0.000000e+00 7.341450e-01 2.658550e-01 0.000000e+00 0.000000e+00
 0.000000e+00 0.000000e+00 6.943446e-01 3.056554e-01 0.000000e+00
 0.000000e+00 0.000000e+00 0.000000e+00 5.163397e-01 4.836603e-01
 0.000000e+00 0.000000e+00 0.000000e+00 0.000000e+00 0.000000e+00
<ENDHMM>
