~o
<STREAMINFO> 1 24
<VECSIZE> 24<NULLD><FBANK_Z><DIAGC>
~h "aa"
<BEGINHMM>
<NUMSTATES> 5
<STATE> 2
<MEAN> 24
 7.934702e-01 7.525284e-01 6.943714e-01 6.971638e-01 8.068637e-01 1.118142e+00 1.305436e+00 1.359316e+00 1.429030e+00 1.409690e+00 1.096899e+00 7.608992e-01 6.234402e-01 5.761877e-01 4.883443e-01 4.776817e-01 4.885929e-01 3.779259e-01 1.619114e-01 6.750392e-02 8.826815e-02 5.745355e-02 -1.081759e-02 -5.671521e-02
<VARIANCE> 24
 1.045602e-01 4.132371e-02 5.264192e-02 4.751890e-02 6.604096e-02 8.300969e-02 7.593434e-02 8.957443e-02 1.162865e-01 1.430350e-01 2.188580e-01 2.154669e-01 1.951622e-01 1.974514e-01 2.401229e-01 2.334987e-01 2.173996e-01 2.261599e-01 2.569818e-01 2.536185e-01 2.956227e-01 3.065757e-01 2.663386e-01 2.586974e-01
<GCONST> -1.630248e+00
<STATE> 3
<MEAN> 24
 1.047739e+00 9.272438e-01 9.204027e-01 8.823452e-01 1.022907e+00 1.354689e+00 1.595592e+00 1.648456e+00 1.699205e+00 1.755696e+00 1.548272e+00 1.206782e+00 1.029157e+00 9.875697e-01 9.477885e-01 9.224645e-01 9.098974e-01 8.202024e-01 6.016549e-01 4.619829e-01 4.372509e-01 3.769861e-01 2.875419e-01 2.134882e-01
<VARIANCE> 24
 1.366736e-01 5.908229e-02 6.576405e-02 6.215433e-02 7.500170e-02 1.022910e-01 1.127706e-01 1.345960e-01 1.616095e-01 1.681968e-01 2.089500e-01 2.219057e-01 2.050509e-01 2.192041e-01 2.668050e-01 2.687103e-01 2.567526e-01 2.743358e-01 3.168886e-01 3.333862e-01 3.811209e-01 3.936696e-01 3.280718e-01 3.162879e-01
<GCONST> 3.255020e+00
<STATE> 4
<MEAN> 24
 3.094772e-01 3.471222e-01 2.846248e-01 2.426202e-01 2.624861e-01 3.734772e-01 4.011260e-01 3.802413e-01 4.021350e-01 4.201975e-01 3.213153e-01 1.396276e-01 -3.638117e-03 -1.079509e-01 -1.996241e-01 -2.276305e-01 -2.365393e-01 -2.621676e-01 -3.099233e-01 -3.234247e-01 -3.034279e-01 -2.883192e-01 -3.099894e-01 -3.304629e-01
<VARIANCE> 24
 3.804901e-01 3.218511e-01 3.260988e-01 3.720061e-01 4.478275e-01 5.540245e-01 6.280941e-01 6.862893e-01 7.125980e-01 7.094612e-01 6.603535e-01 6.413281e-01 5.873364e-01 4.997591e-01 4.791649e-01 4.979251e-01 5.011299e-01 4.962686e-01 4.973258e-01 5.070550e-01 5.116507e-01 5.083246e-01 5.087979e-01 4.972689e-01
<GCONST> 2.797394e+01
<TRANSP> 5
 0.000000e+00 1.000000e+00 0.000000e+00 0.000000e+00 0.000000e+00
 0.000000e+00 8.114343e-01 1.885657e-01 0.000000e+00 0.000000e+00
 0.000000e+00 0.000000e+00 8.203679e-01 1.796321e-01 0.000000e+00
 0.000000e+00 0.000000e+00 0.000000e+00 5.870401e-01 4.129599e-01
 0.000000e+00 0.000000e+00 0.000000e+00 0.000000e+00 0.000000e+00
<ENDHMM>
