~o
<STREAMINFO> 1 24
<VECSIZE> 24<NULLD><FBANK_Z><DIAGC>
~h "ae"
<BEGINHMM>
<NUMSTATES> 5
<STATE> 2
<MEAN> 24
 1.039573e+00 9.588850e-01 9.591393e-01 9.148406e-01 1.053230e+00 1.328648e+00 1.448346e+00 1.358764e+00 1.253615e+00 1.223390e+00 1.355279e+00 1.506639e+00 1.500492e+00 1.456135e+00 1.411221e+00 1.285269e+00 1.150544e+00 1.056772e+00 9.170372e-01 7.598098e-01 6.459432e-01 5.922871e-01 5.166093e-01 4.712708e-01
<VARIANCE> 24
 1.257537e-01 5.741688e-02 6.547454e-02 6.939840e-02 7.426401e-02 9.976706e-02 1.227096e-01 1.497101e-01 1.531406e-01 1.779526e-01 2.216393e-01 2.015015e-01 1.846503e-01 1.704961e-01 1.682169e-01 1.914593e-01 2.069320e-01 2.152794e-01 2.485797e-01 2.742332e-01 3.088807e-01 3.356509e-01 3.240904e-01 3.208018e-01
<GCONST> 9.498707e-01
<STATE> 3
<MEAN> 24
 7.047461e-01 7.460821e-01 6.691936e-01 6.538599e-01 7.165083e-01 9.285007e-01 9.830072e-01 8.880961e-01 7.760563e-01 7.202716e-01 8.275104e-01 9.714662e-01 9.740793e-01 9.229415e-01 8.600881e-01 7.592281e-01 6.342602e-01 5.479319e-01 4.228554e-01 2.977317e-01 1.979085e-01 1.315147e-01 1.054445e-01 8.688699e-02
<VARIANCE> 24
 1.053443e-01 4.434509e-02 5.464905e-02 4.859195e-02 5.985644e-02 7.485246e-02 9.217301e-02 1.062163e-01 1.169760e-01 1.461886e-01 1.923394e-01 1.848330e-01 1.812261e-01 1.688024e-01 1.651200e-01 1.849878e-01 2.006976e-01 1.854107e-01 2.063110e-01 2.162815e-01 2.432561e-01 2.632654e-01 2.601170e-01 2.575092e-01
<GCONST> -3.456013e+00
<STATE> 4
<MEAN> 24
 1.742866e-01 2.154580e-01 1.395102e-01 6.707138e-02 1.160262e-02 8.516043e-03 -6.836240e-03 -6.149602e-02 -1.101112e-01 -1.270036e-01 -7.168578e-02 -5.289589e-02 -7.563428e-02 -6.613596e-02 -1.234058e-01 -2.449265e-01 -3.191167e-01 -2.893708e-01 -2.249585e-01 -2.036355e-01 -2.054050e-01 -1.940066e-01 -2.058820e-01 -2.170507e-01
<VARIANCE> 24
 3.675515e-01 3.404063e-01 3.404014e-01 3.481610e-01 3.633542e-01 4.123148e-01 4.565673e-01 4.826341e-01 4.851357e-01 4.815914e-01 4.651835e-01 4.363127e-01 4.379355e-01 4.477122e-01 4.698194e-01 5.039462e-01 5.162689e-01 5.426773e-01 5.920630e-01 6.366701e-01 7.024230e-01 7.241887e-01 7.164621e-01 6.959088e-01
<GCONST> 2.674837e+01
<TRANSP> 5
 0.000000e+00 1.000000e+00 0.000000e+00 0.000000e+00 0.000000e+00
 0.000000e+00 8.637984e-01 1.362016e-01 0.000000e+00 0.000000e+00
 0.000000e+00 0.000000e+00 8.045202e-01 1.954798e-01 0.000000e+00
 0.000000e+00 0.000000e+00 0.000000e+00 5.327217e-01 4.672783e-01
 0.000000e+00 0.000000e+00 0.000000e+00 0.000000e+00 0.000000e+00
<ENDHMM>
