~o
<STREAMINFO> 1 24
<VECSIZE> 24<NULLD><FBANK_Z><DIAGC>
~h "ah"
<BEGINHMM>
<NUMSTATES> 5
<STATE> 2
<MEAN> 24
 9.957003e-01 9.413767e-01 9.601972e-01 9.537414e-01 1.119105e+00 1.319899e+00 1.337137e+00 1.292035e+00 1.319839e+00 1.419717e+00 1.375876e+00 1.128148e+00 9.315162e-01 9.065585e-01 9.398773e-01 9.724364e-01 9.661365e-01 8.870875e-01 6.893943e-01 4.796530e-01 3.761185e-01 3.019065e-01 2.912069e-01 2.882875e-01
<VARIANCE> 24
 1.275324e-01 6.360399e-02 7.576467e-02 7.502270e-02 8.977596e-02 1.000066e-01 1.085371e-01 1.195927e-01 1.463270e-01 1.829194e-01 2.125907e-01 2.513564e-01 2.216333e-01 2.097639e-01 2.273915e-01 2.242621e-01 2.144502e-01 2.297538e-01 2.809567e-01 3.040158e-01 3.134189e-01 3.331399e-01 3.236997e-01 2.997149e-01
<GCONST> 2.409874e+00
<STATE> 3
<MEAN> 24
 6.891992e-01 7.283201e-01 6.837454e-01 7.057227e-01 7.682985e-01 9.001364e-01 8.940483e-01 8.587471e-01 8.723947e-01 9.321744e-01 8.675138e-01 6.125169e-01 4.041354e-01 3.525680e-01 3.460535e-01 3.709422e-01 3.703086e-01 3.143257e-01 1.794508e-01 5.511266e-02 -2.226681e-02 -9.576494e-02 -1.005634e-01 -8.658835e-02
<VARIANCE> 24
 1.030328e-01 5.355942e-02 6.122943e-02 6.199954e-02 7.654864e-02 8.436923e-02 9.721863e-02 1.145331e-01 1.419778e-01 1.548923e-01 1.727188e-01 1.980578e-01 1.702291e-01 1.582731e-01 1.864684e-01 1.866396e-01 1.801643e-01 1.916976e-01 2.234136e-01 2.438103e-01 2.612149e-01 2.632821e-01 2.564933e-01 2.404108e-01
<GCONST> -2.107769e+00
<STATE> 4
<MEAN> 24
 1.721627e-01 2.533667e-01 1.997160e-01 1.114583e-01 2.439450e-02 -3.729926e-02 -7.131711e-02 -7.524852e-02 -6.250396e-02 -4.605421e-02 -9.067868e-02 -2.078600e-01 -3.022158e-01 -2.933290e-01 -2.527703e-01 -2.843426e-01 -3.249121e-01 -3.195360e-01 -2.606049e-01 -2.131156e-01 -1.927019e-01 -1.795640e-01 -1.885186e-01 -2.075162e-01
<VARIANCE> 24
 3.140393e-01 2.918862e-01 3.133593e-01 3.360921e-01 3.477275e-01 3.589944e-01 3.922112e-01 4.382762e-01 4.427755e-01 4.105353e-01 4.004207e-01 4.015090e-01 4.076493e-01 4.366424e-01 4.666838e-01 5.159529e-01 5.421819e-01 6.006352e-01 7.076741e-01 8.145960e-01 8.763955e-01 9.174228e-01 9.002701e-01 8.681368e-01
<GCONST> 2.680707e+01
<TRANSP> 5
 0.000000e+00 1.000000e+00 0.000000e+00 0.000000e+00 0.000000e+00
 0.000000e+00 7.936060e-01 2.063940e-01 0.000000e+00 0.000000e+00
 0.000000e+00 0.000000e+00 6.896316e-01 3.103684e-01 0.000000e+00
 0.000000e+00 0.000000e+00 0.000000e+00 4.495992e-01 5.504008e-01
 0.000000e+00 0.000000e+00 0.000000e+00 0.000000e+00 0.000000e+00
<ENDHMM>
