~o
<STREAMINFO> 1 24
<VECSIZE> 24<NULLD><FBANK_Z><DIAGC>
~h "ao"
<BEGINHMM>
<NUMSTATES> 5
<STATE> 2
<MEAN> 24
 7.401368e-01 7.293864e-01 7.201999e-01 8.123531e-01 9.509217e-01 1.078848e+00 1.144609e+00 1.231626e+00 1.126780e+00 7.577713e-01 3.562970e-01 1.256148e-01 1.036283e-01 1.297710e-01 6.383749e-02 9.047575e-02 1.710722e-01 7.479800e-02 -1.328006e-01 -2.507069e-01 -3.044505e-01 -2.981754e-01 -2.627966e-01 -2.505432e-01
<VARIANCE> 24
 9.022894e-02 4.477965e-02 6.650648e-02 7.395377e-02 8.250878e-02 6.782787e-02 8.279985e-02 1.231626e-01 2.281112e-01 3.280689e-01 2.895294e-01 2.395970e-01 2.270055e-01 2.505014e-01 2.914913e-01 2.962699e-01 2.809325e-01 2.776878e-01 2.738244e-01 2.760023e-01 2.861840e-01 2.822821e-01 2.627527e-01 2.474692e-01
<GCONST> 2.552112e+00
<STATE> 3
<MEAN> 24
 9.625147e-01 8.559873e-01 8.598625e-01 8.649406e-01 1.035961e+00 1.313745e+00 1.457577e+00 1.557415e+00 1.627883e+00 1.437423e+00 1.017700e+00 7.004226e-01 5.913435e-01 5.992730e-01 6.369689e-01 6.907034e-01 7.295440e-01 6.574435e-01 4.305540e-01 2.821904e-01 2.366496e-01 1.991833e-01 1.433193e-01 8.770292e-02
<VARIANCE> 24
 1.265841e-01 6.065607e-02 6.861835e-02 7.402550e-02 8.786724e-02 9.905588e-02 1.112813e-01 1.302209e-01 1.556187e-01 2.306896e-01 2.698889e-01 2.178682e-01 1.972059e-01 2.383463e-01 2.980269e-01 2.888624e-01 2.754371e-01 2.781992e-01 3.093049e-01 3.312820e-01 3.603743e-01 3.579525e-01 3.083959e-01 3.002837e-01
<GCONST> 4.033967e+00
<STATE> 4
<MEAN> 24
 4.262209e-01 4.254342e-01 3.849634e-01 4.137843e-01 4.653240e-01 5.387663e-01 5.685662e-01 6.127534e-01 5.942973e-01 4.673388e-01 2.386762e-01 5.165341e-02 -4.773467e-02 -1.421767e-01 -2.072156e-01 -1.940626e-01 -1.655964e-01 -1.698283e-01 -2.188933e-01 -2.380243e-01 -2.601024e-01 -2.468797e-01 -2.478115e-01 -2.334162e-01
<VARIANCE> 24
 2.375047e-01 2.059384e-01 2.407510e-01 2.753294e-01 3.306746e-01 3.596488e-01 3.655553e-01 4.285789e-01 4.935237e-01 5.232369e-01 4.848596e-01 4.577591e-01 4.060337e-01 3.469535e-01 3.603277e-01 4.015290e-01 4.207897e-01 4.548794e-01 4.963641e-01 5.397010e-01 5.681559e-01 5.626682e-01 5.336550e-01 5.116270e-01
<GCONST> 2.223322e+01
<TRANSP> 5
 0.000000e+00 1.000000e+00 0.000000e+00 0.000000e+00 0.000000e+00
 0.000000e+00 7.948746e-01 2.051254e-01 0.000000e+00 0.000000e+00
 0.000000e+00 0.000000e+00 8.311606e-01 1.688394e-01 0.000000e+00
 0.000000e+00 0.000000e+00 0.000000e+00 5.981470e-01 4.018531e-01
 0.000000e+00 0.000000e+00 0.000000e+00 0.000000e+00 0.000000e+00
<ENDHMM>
