~o
<STREAMINFO> 1 24
<VECSIZE> 24<NULLD><FBANK_Z><DIAGC>
~h "aw"
<BEGINHMM>
<NUMSTATES> 5
<STATE> 2
<MEAN> 24
 9.969276e-01 9.209096e-01 8.897196e-01 8.357154e-01 9.350916e-01 1.229030e+00 1.473435e+00 1.514370e+00 1.492692e+00 1.536713e+00 1.529833e+00 1.372230e+00 1.206281e+00 1.168009e+00 1.177187e+00 1.120200e+00 1.050867e+00 9.594238e-01 7.738072e-01 6.354416e-01 5.721849e-01 4.871057e-01 3.994736e-01 3.401060e-01
<VARIANCE> 24
 1.329826e-01 5.634025e-02 6.936308e-02 5.996442e-02 7.155956e-02 9.702665e-02 1.095046e-01 1.368617e-01 1.676008e-01 2.001703e-01 1.887305e-01 2.022537e-01 1.848959e-01 1.750175e-01 1.756269e-01 1.684333e-01 1.763494e-01 2.046782e-01 2.290069e-01 2.471266e-01 2.854274e-01 2.973097e-01 2.723451e-01 2.819593e-01
<GCONST> -2.765572e-01
<STATE> 3
<MEAN> 24
 7.152737e-01 7.166616e-01 6.605124e-01 6.564702e-01 7.268280e-01 9.969149e-01 1.155898e+00 1.187539e+00 1.225964e+00 1.233787e+00 1.029898e+00 7.239297e-01 5.697455e-01 5.426342e-01 4.989034e-01 5.061655e-01 5.132699e-01 3.633664e-01 1.289512e-01 7.047280e-02 8.717678e-02 9.999286e-03 -7.891808e-02 -7.983515e-02
<VARIANCE> 24
 1.066138e-01 4.087156e-02 5.552149e-02 4.623322e-02 7.221106e-02 8.527933e-02 8.448680e-02 1.019769e-01 1.327492e-01 1.516881e-01 1.881528e-01 1.939988e-01 1.587271e-01 1.644723e-01 1.902493e-01 1.752556e-01 1.755496e-01 1.931876e-01 1.972244e-01 2.255047e-01 2.699271e-01 2.597851e-01 2.347816e-01 2.166584e-01
<GCONST> -3.530939e+00
<STATE> 4
<MEAN> 24
 2.636020e-01 3.262423e-01 2.973509e-01 2.936700e-01 2.922896e-01 3.587678e-01 3.761147e-01 3.799284e-01 4.107639e-01 3.177037e-01 5.762023e-02 -1.791536e-01 -2.689446e-01 -2.589152e-01 -2.909341e-01 -2.878635e-01 -2.900984e-01 -3.456421e-01 -4.021518e-01 -4.142925e-01 -4.052096e-01 -3.801604e-01 -4.003942e-01 -4.322764e-01
<VARIANCE> 24
 2.662566e-01 2.291629e-01 2.245823e-01 2.556428e-01 3.066189e-01 3.961580e-01 4.454124e-01 4.982582e-01 5.064832e-01 4.746372e-01 4.374037e-01 3.721121e-01 3.465898e-01 3.681025e-01 3.902822e-01 3.912497e-01 4.067274e-01 4.419504e-01 4.504806e-01 4.557214e-01 4.878370e-01 5.105057e-01 4.599715e-01 4.469968e-01
<GCONST> 2.139083e+01
<TRANSP> 5
 0.000000e+00 1.000000e+00 0.000000e+00 0.000000e+00 0.000000e+00
 0.000000e+00 8.735892e-01 1.264108e-01 0.000000e+00 0.000000e+00
 0.000000e+00 0.000000e+00 8.384376e-01 1.615624e-01 0.000000e+00
 0.000000e+00 0.000000e+00 0.000000e+00 6.645162e-01 3.354839e-01
 0.000000e+00 0.000000e+00 0.000000e+00 0.000000e+00 0.000000e+00
<ENDHMM>
