~o
<STREAMINFO> 1 24
<VECSIZE> 24<NULLD><FBANK_Z><DIAGC>
~h "ax"
<BEGINHMM>
<NUMSTATES> 5
<STATE> 2
<MEAN> 24
 7.280859e-01 7.744876e-01 7.664053e-01 8.265225e-01 8.866120e-01 8.633866e-01 7.859826e-01 7.661057e-01 8.068568e-01 8.719986e-01 7.867769e-01 5.318298e-01 3.412634e-01 3.450113e-01 4.289190e-01 4.456299e-01 4.222883e-01 3.893000e-01 2.913089e-01 1.446050e-01 3.960238e-02 -2.018836e-02 -6.403097e-03 -3.538084e-02
<VARIANCE> 24
 1.536824e-01 8.982085e-02 1.036292e-01 1.150098e-01 1.320173e-01 1.558275e-01 1.669145e-01 1.901909e-01 2.266439e-01 2.375813e-01 2.534831e-01 2.601256e-01 2.364442e-01 2.368848e-01 2.508490e-01 2.479847e-01 2.473010e-01 2.687537e-01 2.986656e-01 3.256000e-01 3.405921e-01 3.368065e-01 3.232952e-01 3.065565e-01
<GCONST> 7.244073e+00
<STATE> 3
<MEAN> 24
 4.415565e-01 5.188326e-01 4.641379e-01 4.955504e-01 4.445913e-01 3.627955e-01 3.060248e-01 3.014535e-01 3.112353e-01 3.023363e-01 1.806504e-01 -4.573022e-02 -1.916015e-01 -1.800102e-01 -1.330422e-01 -1.377089e-01 -1.463779e-01 -1.541684e-01 -1.748337e-01 -2.101304e-01 -2.459706e-01 -2.695076e-01 -2.792505e-01 -3.081213e-01
<VARIANCE> 24
 1.482058e-01 1.017144e-01 1.151203e-01 1.367856e-01 1.469208e-01 1.646477e-01 1.795603e-01 2.152177e-01 2.391577e-01 2.235924e-01 2.172187e-01 2.136920e-01 2.025397e-01 2.080900e-01 2.323675e-01 2.486885e-01 2.457128e-01 2.846097e-01 3.446911e-01 4.016409e-01 4.295645e-01 4.254057e-01 3.941928e-01 3.723139e-01
<GCONST> 8.515646e+00
<STATE> 4
<MEAN> 24
 -4.412128e-02 3.947633e-02 -3.351769e-02 -1.251620e-01 -2.653705e-01 -3.649081e-01 -3.873382e-01 -3.777491e-01 -3.657237e-01 -3.880845e-01 -4.711956e-01 -5.806845e-01 -6.303327e-01 -5.867972e-01 -5.429209e-01 -5.602085e-01 -5.453519e-01 -4.999286e-01 -4.202810e-01 -3.339887e-01 -2.756152e-01 -2.530999e-01 -2.687417e-01 -2.828052e-01
<VARIANCE> 24
 3.952825e-01 3.975911e-01 4.233754e-01 4.738640e-01 4.823655e-01 4.652551e-01 5.104069e-01 5.751926e-01 5.458143e-01 4.734789e-01 4.433180e-01 4.374529e-01 4.442643e-01 4.898200e-01 5.610923e-01 6.117502e-01 6.709059e-01 7.915411e-01 9.364097e-01 1.064855e+00 1.113092e+00 1.087343e+00 1.075326e+00 1.059389e+00
<GCONST> 3.203011e+01
<TRANSP> 5
 0.000000e+00 1.000000e+00 0.000000e+00 0.000000e+00 0.000000e+00
 0.000000e+00 6.170930e-01 3.829070e-01 0.000000e+00 0.000000e+00
 0.000000e+00 0.000000e+00 4.049307e-01 5.950693e-01 0.000000e+00
 0.000000e+00 0.000000e+00 0.000000e+00 2.929330e-01 7.070670e-01
 0.000000e+00 0.000000e+00 0.000000e+00 0.000000e+00 0.000000e+00
<ENDHMM>
