~o
<STREAMINFO> 1 24
<VECSIZE> 24<NULLD><FBANK_Z><DIAGC>
~h "ay"
<BEGINHMM>
<NUMSTATES> 5
<STATE> 2
<MEAN> 24
 7.849404e-01 7.633268e-01 6.789399e-01 6.793242e-01 7.566373e-01 1.067443e+00 1.273243e+00 1.279654e+00 1.274366e+00 1.328759e+00 1.253996e+00 9.878778e-01 7.853351e-01 7.387461e-01 6.994584e-01 6.545618e-01 6.037772e-01 4.746148e-01 2.514071e-01 1.793613e-01 1.799633e-01 1.257820e-01 2.810506e-02 -3.419414e-02
<VARIANCE> 24
 9.579144e-02 3.905413e-02 4.979628e-02 4.695961e-02 6.216580e-02 8.581834e-02 8.090719e-02 1.009847e-01 1.413016e-01 1.637955e-01 1.653963e-01 1.888698e-01 1.668243e-01 1.649528e-01 1.704664e-01 1.711733e-01 1.673815e-01 1.771048e-01 2.211781e-01 2.415005e-01 2.652918e-01 2.685345e-01 2.441282e-01 2.421440e-01
<GCONST> -3.855784e+00
<STATE> 3
<MEAN> 24
 9.828073e-01 9.056157e-01 8.858582e-01 8.707129e-01 9.833287e-01 1.238445e+00 1.393107e+00 1.366910e+00 1.315398e+00 1.345619e+00 1.443182e+00 1.432799e+00 1.341685e+00 1.296718e+00 1.252441e+00 1.191007e+00 1.107638e+00 1.010630e+00 8.284370e-01 6.726186e-01 5.650741e-01 4.668692e-01 3.811181e-01 3.217827e-01
<VARIANCE> 24
 1.284312e-01 5.978308e-02 6.837335e-02 6.551491e-02 7.406754e-02 1.014682e-01 1.561294e-01 2.124693e-01 2.523644e-01 3.042955e-01 2.800994e-01 2.038052e-01 1.728991e-01 1.649871e-01 1.640172e-01 1.761814e-01 1.765894e-01 1.934415e-01 2.455768e-01 2.720466e-01 3.119370e-01 3.241056e-01 3.241136e-01 3.034762e-01
<GCONST> 2.310403e+00
<STATE> 4
<MEAN> 24
 3.406094e-01 4.024946e-01 3.492916e-01 3.433389e-01 3.047714e-01 2.496870e-01 1.730741e-01 7.587272e-02 -6.765118e-05 -2.234727e-02 6.880891e-02 1.899552e-01 2.436471e-01 2.506809e-01 2.125999e-01 1.178786e-01 3.233234e-02 -1.674759e-03 -1.214225e-02 -2.562007e-02 -6.270345e-02 -1.106707e-01 -1.516003e-01 -1.664329e-01
<VARIANCE> 24
 2.736723e-01 2.407238e-01 2.494448e-01 2.936396e-01 3.444108e-01 4.148142e-01 4.531900e-01 4.648129e-01 4.652117e-01 4.958912e-01 5.167273e-01 4.943544e-01 4.842414e-01 4.793315e-01 4.868845e-01 5.019647e-01 5.073512e-01 5.003064e-01 5.446315e-01 5.938463e-01 6.086493e-01 6.094300e-01 6.112294e-01 5.934659e-01
<GCONST> 2.506522e+01
<TRANSP> 5
 0.000000e+00 1.000000e+00 0.000000e+00 0.000000e+00 0.000000e+00
 0.000000e+00 8.390479e-01 1.609521e-01 0.000000e+00 0.000000e+00
 0.000000e+00 0.000000e+00 8.543785e-01 1.456216e-01 0.000000e+00
 0.000000e+00 0.000000e+00 0.000000e+00 7.039645e-01 2.960355e-01
 0.000000e+00 0.000000e+00 0.000000e+00 0.000000e+00 0.000000e+00
<ENDHMM>
