~o
<STREAMINFO> 1 24
<VECSIZE> 24<NULLD><FBANK_Z><DIAGC>
~h "b"
<BEGINHMM>
<NUMSTATES> 5
<STATE> 2
<MEAN> 24
 -5.042316e-01 -3.434098e-01 -4.695109e-01 -7.972974e-01 -1.045473e+00 -1.163783e+00 -1.201767e+00 -1.195580e+00 -1.143350e+00 -1.162947e+00 -1.312022e+00 -1.422826e+00 -1.439520e+00 -1.436462e+00 -1.479551e+00 -1.496617e+00 -1.444577e+00 -1.457627e+00 -1.432582e+00 -1.341042e+00 -1.214285e+00 -1.124723e+00 -1.124069e+00 -1.129775e+00
<VARIANCE> 24
 5.351698e-01 6.785864e-01 6.190028e-01 4.998406e-01 4.090026e-01 3.680257e-01 3.912124e-01 4.263332e-01 4.226564e-01 3.944692e-01 3.467789e-01 3.210813e-01 3.256702e-01 3.433906e-01 3.216290e-01 2.914093e-01 2.858744e-01 2.832717e-01 2.835650e-01 2.892003e-01 2.774524e-01 2.636192e-01 2.460094e-01 2.329033e-01
<GCONST> 1.920429e+01
<STATE> 3
<MEAN> 24
 2.495337e-01 1.600294e-01 1.393570e-01 1.157739e-01 6.310223e-02 6.399339e-03 -1.297306e-02 1.479224e-02 5.861453e-02 5.954394e-02 1.364898e-02 -3.001371e-02 -5.139017e-02 -4.434584e-02 -6.542477e-02 -6.075149e-02 -3.047281e-02 -6.445920e-02 -6.577948e-02 -2.286675e-02 3.427760e-02 4.203821e-02 -1.200713e-03 -4.415419e-02
<VARIANCE> 24
 2.424365e-01 2.404429e-01 2.789620e-01 2.846437e-01 2.917081e-01 2.677332e-01 2.551046e-01 2.672388e-01 2.791370e-01 2.752847e-01 2.741739e-01 2.914599e-01 3.185007e-01 3.281392e-01 3.164379e-01 2.962659e-01 2.878038e-01 3.005701e-01 3.150408e-01 3.414729e-01 3.737209e-01 3.993286e-01 3.938803e-01 3.806181e-01
<GCONST> 1.530271e+01
<STATE> 4
<MEAN> 24
 8.087041e-01 7.808273e-01 8.147034e-01 9.115579e-01 9.386196e-01 8.691229e-01 7.993398e-01 8.034368e-01 8.240634e-01 7.691776e-01 6.464985e-01 5.484554e-01 4.897210e-01 5.224655e-01 5.061909e-01 4.527392e-01 4.684877e-01 3.968171e-01 2.542164e-01 1.189678e-01 3.636348e-02 -1.792450e-02 -4.386619e-02 -2.033607e-02
<VARIANCE> 24
 1.562013e-01 1.051473e-01 1.197751e-01 1.250900e-01 1.604818e-01 2.386875e-01 2.541285e-01 2.756204e-01 3.315297e-01 3.878197e-01 4.206400e-01 4.479648e-01 4.647236e-01 5.119104e-01 5.071242e-01 4.316437e-01 3.816022e-01 3.803406e-01 3.969637e-01 3.942475e-01 3.835089e-01 3.687041e-01 3.469752e-01 3.524131e-01
<GCONST> 1.536067e+01
<TRANSP> 5
 0.000000e+00 1.000000e+00 0.000000e+00 0.000000e+00 0.000000e+00
 0.000000e+00 7.661253e-01 2.338747e-01 0.000000e+00 0.000000e+00
 0.000000e+00 0.000000e+00 3.842395e-01 6.157606e-01 0.000000e+00
 0.000000e+00 0.000000e+00 0.000000e+00 5.090112e-01 4.909888e-01
 0.000000e+00 0.000000e+00 0.000000e+00 0.000000e+00 0.000000e+00
<ENDHMM>
