~o
<STREAMINFO> 1 24
<VECSIZE> 24<NULLD><FBANK_Z><DIAGC>
~h "ch"
<BEGINHMM>
<NUMSTATES> 5
<STATE> 2
<MEAN> 24
 -1.200321e+00 -1.189323e+00 -1.178330e+00 -1.263049e+00 -1.295535e+00 -1.275515e+00 -1.261960e+00 -1.245630e+00 -1.183931e+00 -1.110931e+00 -1.076478e+00 -1.030616e+00 -9.606227e-01 -8.991628e-01 -7.945983e-01 -6.457624e-01 -5.452169e-01 -5.474744e-01 -5.369012e-01 -4.992905e-01 -4.351257e-01 -3.885213e-01 -4.012218e-01 -4.156399e-01
<VARIANCE> 24
 4.109295e-01 4.255710e-01 3.985732e-01 3.385574e-01 2.830204e-01 2.687647e-01 3.079528e-01 3.409292e-01 3.548379e-01 3.567104e-01 3.755426e-01 4.143183e-01 4.885535e-01 5.898250e-01 6.738141e-01 8.718373e-01 9.814807e-01 9.717947e-01 9.609250e-01 9.605229e-01 9.349750e-01 8.902872e-01 8.770341e-01 8.488755e-01
<GCONST> 2.922287e+01
<STATE> 3
<MEAN> 24
 -2.327068e-01 -5.160195e-01 -5.522346e-01 -4.823261e-01 -4.233584e-01 -3.465760e-01 -2.717509e-01 -1.964500e-01 -1.252082e-01 -6.463682e-02 3.627342e-02 2.401118e-01 4.874041e-01 7.126982e-01 9.834805e-01 1.218043e+00 1.352414e+00 1.381530e+00 1.451805e+00 1.529591e+00 1.621367e+00 1.701231e+00 1.723854e+00 1.677830e+00
<VARIANCE> 24
 3.032296e-01 1.590783e-01 1.413610e-01 1.346534e-01 1.345463e-01 1.332995e-01 1.342793e-01 1.413009e-01 1.382302e-01 1.354635e-01 1.363504e-01 1.685350e-01 1.931564e-01 2.357908e-01 2.830886e-01 2.477774e-01 2.288202e-01 2.295896e-01 2.573338e-01 2.764277e-01 2.973607e-01 3.325767e-01 3.750043e-01 3.799711e-01
<GCONST> 5.781282e+00
<STATE> 4
<MEAN> 24
 1.310409e-01 1.632631e-01 1.793014e-01 1.456910e-01 1.251790e-01 4.854161e-02 1.450482e-03 -2.330670e-02 -4.243834e-02 -5.310426e-04 1.342048e-01 2.988869e-01 3.819827e-01 3.888599e-01 3.809847e-01 3.641641e-01 3.505553e-01 2.672649e-01 1.996258e-01 1.452216e-01 1.108364e-01 9.072993e-02 9.559684e-02 5.801776e-02
<VARIANCE> 24
 7.053035e-01 8.532401e-01 9.066240e-01 8.214315e-01 7.690171e-01 6.631470e-01 6.069978e-01 5.902311e-01 5.506875e-01 5.567671e-01 6.091975e-01 6.432348e-01 6.385630e-01 6.286765e-01 5.744307e-01 5.147501e-01 4.783395e-01 4.528730e-01 4.272018e-01 4.419121e-01 4.546992e-01 4.826745e-01 4.684460e-01 4.580005e-01
<GCONST> 3.110395e+01
<TRANSP> 5
 0.000000e+00 1.000000e+00 0.000000e+00 0.000000e+00 0.000000e+00
 0.000000e+00 7.069335e-01 2.930665e-01 0.000000e+00 0.000000e+00
 0.000000e+00 0.000000e+00 8.648649e-01 1.351351e-01 0.000000e+00
 0.000000e+00 0.000000e+00 0.000000e+00 6.148427e-01 3.851573e-01
 0.000000e+00 0.000000e+00 0.000000e+00 0.000000e+00 0.000000e+00
<ENDHMM>
