~o
<STREAMINFO> 1 24
<VECSIZE> 24<NULLD><FBANK_Z><DIAGC>
~h "cl"
<BEGINHMM>
<NUMSTATES> 5
<STATE> 2
<MEAN> 24
 -8.677067e-01 -6.799048e-01 -6.441854e-01 -7.560710e-01 -8.661986e-01 -9.527676e-01 -1.021210e+00 -1.062376e+00 -1.038410e+00 -9.986130e-01 -9.820789e-01 -9.860957e-01 -9.884101e-01 -9.771643e-01 -9.999753e-01 -1.052345e+00 -1.084584e+00 -1.058812e+00 -9.854332e-01 -9.068967e-01 -8.338129e-01 -7.748623e-01 -7.756742e-01 -7.805923e-01
<VARIANCE> 24
 4.159405e-01 4.772364e-01 4.502134e-01 3.996978e-01 3.415613e-01 3.036471e-01 3.115649e-01 3.283857e-01 3.433408e-01 3.566158e-01 3.736925e-01 3.910106e-01 4.089803e-01 4.130498e-01 4.015687e-01 3.956014e-01 3.893335e-01 4.027321e-01 4.383084e-01 4.392950e-01 4.302277e-01 4.035529e-01 3.817069e-01 3.779601e-01
<GCONST> 2.140253e+01
<STATE> 3
<MEAN> 24
 -1.608914e+00 -1.573455e+00 -1.553496e+00 -1.618546e+00 -1.628116e+00 -1.617204e+00 -1.649769e+00 -1.654174e+00 -1.608305e+00 -1.561261e+00 -1.582314e+00 -1.607015e+00 -1.600463e+00 -1.595156e+00 -1.579498e+00 -1.555058e+00 -1.528067e+00 -1.499280e+00 -1.424352e+00 -1.294089e+00 -1.151878e+00 -1.055995e+00 -1.050902e+00 -1.045736e+00
<VARIANCE> 24
 4.070374e-01 4.762305e-01 4.426948e-01 3.509603e-01 2.609161e-01 2.240447e-01 2.402134e-01 2.430176e-01 2.378339e-01 2.286792e-01 2.204228e-01 2.207833e-01 2.272557e-01 2.435571e-01 2.414975e-01 2.358243e-01 2.404035e-01 2.621212e-01 2.981018e-01 3.189631e-01 3.159531e-01 2.953008e-01 2.797868e-01 2.752817e-01
<GCONST> 1.317904e+01
<STATE> 4
<MEAN> 24
 -4.304415e-01 -4.920385e-01 -4.804528e-01 -4.201184e-01 -3.915370e-01 -3.714570e-01 -3.326627e-01 -2.839363e-01 -2.314254e-01 -2.059266e-01 -1.867356e-01 -1.401005e-01 -8.305410e-02 -5.735986e-02 -4.246352e-02 1.455139e-02 3.196241e-02 7.027894e-02 1.832852e-01 2.894928e-01 3.503533e-01 3.627654e-01 3.488976e-01 3.267514e-01
<VARIANCE> 24
 6.333503e-01 5.746174e-01 5.379563e-01 4.937839e-01 4.493327e-01 4.050862e-01 3.949208e-01 4.191298e-01 4.282534e-01 4.308942e-01 4.477703e-01 4.910382e-01 5.247893e-01 5.175220e-01 5.156152e-01 5.727482e-01 6.215075e-01 6.504984e-01 7.269592e-01 8.103356e-01 8.671094e-01 8.867688e-01 8.803504e-01 9.032066e-01
<GCONST> 3.061572e+01
<TRANSP> 5
 0.000000e+00 1.000000e+00 0.000000e+00 0.000000e+00 0.000000e+00
 0.000000e+00 4.592061e-01 5.407940e-01 0.000000e+00 0.000000e+00
 0.000000e+00 0.000000e+00 7.583133e-01 2.416867e-01 0.000000e+00
 0.000000e+00 0.000000e+00 0.000000e+00 5.822805e-01 4.177196e-01
 0.000000e+00 0.000000e+00 0.000000e+00 0.000000e+00 0.000000e+00
<ENDHMM>
