~o
<STREAMINFO> 1 24
<VECSIZE> 24<NULLD><FBANK_Z><DIAGC>
~h "d"
<BEGINHMM>
<NUMSTATES> 5
<STATE> 2
<MEAN> 24
 -5.930814e-01 -3.946242e-01 -4.963810e-01 -7.866428e-01 -1.016768e+00 -1.144365e+00 -1.216096e+00 -1.273888e+00 -1.271078e+00 -1.227090e+00 -1.169940e+00 -1.151346e+00 -1.212375e+00 -1.225997e+00 -1.164392e+00 -1.187457e+00 -1.208683e+00 -1.194506e+00 -1.167292e+00 -1.083020e+00 -9.746463e-01 -9.016708e-01 -9.139829e-01 -9.352014e-01
<VARIANCE> 24
 4.647551e-01 5.804092e-01 5.388677e-01 4.704316e-01 4.052252e-01 3.693544e-01 4.015740e-01 4.348055e-01 4.406925e-01 4.359325e-01 4.499336e-01 4.765655e-01 4.999970e-01 5.210077e-01 5.195735e-01 5.432016e-01 5.487898e-01 5.585178e-01 5.868004e-01 5.736735e-01 5.348299e-01 5.027370e-01 4.768921e-01 4.405005e-01
<GCONST> 2.683714e+01
<STATE> 3
<MEAN> 24
 -1.495421e-01 -2.362316e-01 -2.533073e-01 -2.247068e-01 -2.236011e-01 -2.293587e-01 -2.001658e-01 -1.615121e-01 -1.246198e-01 -9.810631e-02 -3.613650e-02 6.885222e-02 1.430650e-01 1.323094e-01 1.780547e-01 2.754763e-01 2.785069e-01 2.798642e-01 3.404814e-01 4.001971e-01 4.219523e-01 4.010519e-01 3.431985e-01 2.761678e-01
<VARIANCE> 24
 3.730157e-01 3.643954e-01 3.381888e-01 2.979673e-01 2.475470e-01 2.060623e-01 1.945373e-01 2.066358e-01 2.187658e-01 2.409533e-01 2.471104e-01 2.539070e-01 2.878548e-01 3.205208e-01 3.208282e-01 3.491062e-01 3.814242e-01 4.236305e-01 5.024523e-01 5.646372e-01 6.171465e-01 6.747272e-01 6.986933e-01 6.960144e-01
<GCONST> 1.866529e+01
<STATE> 4
<MEAN> 24
 5.836610e-01 5.594276e-01 5.970873e-01 6.603305e-01 6.181597e-01 4.517829e-01 3.554211e-01 3.164940e-01 3.061152e-01 3.439996e-01 4.674306e-01 6.156795e-01 6.376660e-01 5.767214e-01 6.400957e-01 6.818730e-01 6.184598e-01 5.998948e-01 5.764155e-01 5.000413e-01 4.265865e-01 3.940437e-01 3.914465e-01 3.586265e-01
<VARIANCE> 24
 3.665806e-01 3.631707e-01 3.904645e-01 3.943883e-01 3.860072e-01 3.368514e-01 2.784456e-01 2.559926e-01 2.675301e-01 3.181993e-01 3.709334e-01 3.924808e-01 4.086090e-01 4.194216e-01 4.473107e-01 4.328124e-01 4.317967e-01 4.663118e-01 5.114419e-01 5.767636e-01 6.293377e-01 6.684631e-01 6.765669e-01 6.517954e-01
<GCONST> 2.323605e+01
<TRANSP> 5
 0.000000e+00 1.000000e+00 0.000000e+00 0.000000e+00 0.000000e+00
 0.000000e+00 6.700370e-01 3.299629e-01 0.000000e+00 0.000000e+00
 0.000000e+00 0.000000e+00 5.345520e-01 4.654480e-01 0.000000e+00
 0.000000e+00 0.000000e+00 0.000000e+00 5.450618e-01 4.549381e-01
 0.000000e+00 0.000000e+00 0.000000e+00 0.000000e+00 0.000000e+00
<ENDHMM>
