~o
<STREAMINFO> 1 24
<VECSIZE> 24<NULLD><FBANK_Z><DIAGC>
~h "dh"
<BEGINHMM>
<NUMSTATES> 5
<STATE> 2
<MEAN> 24
 -2.399536e-01 -1.979001e-01 -2.491536e-01 -3.018407e-01 -3.923334e-01 -4.736161e-01 -5.123267e-01 -5.279296e-01 -5.061975e-01 -4.448608e-01 -3.945833e-01 -4.414269e-01 -5.231277e-01 -5.345368e-01 -4.491020e-01 -4.511457e-01 -4.764893e-01 -4.128523e-01 -3.210059e-01 -1.729788e-01 -2.295459e-04 1.090131e-01 1.039560e-01 8.455230e-02
<VARIANCE> 24
 5.355976e-01 5.306500e-01 5.218115e-01 4.829376e-01 4.231499e-01 3.718781e-01 3.600931e-01 3.800310e-01 3.897521e-01 4.007720e-01 4.042991e-01 4.226865e-01 4.382155e-01 4.318572e-01 4.292530e-01 4.565782e-01 4.424810e-01 4.457108e-01 5.087315e-01 5.789742e-01 6.283810e-01 6.325389e-01 6.632038e-01 6.754789e-01
<GCONST> 2.614545e+01
<STATE> 3
<MEAN> 24
 5.401645e-01 5.328603e-01 5.376736e-01 5.464875e-01 4.713005e-01 3.105688e-01 1.955386e-01 1.393909e-01 1.368848e-01 2.079086e-01 3.147953e-01 2.879809e-01 1.610690e-01 1.286950e-01 2.469728e-01 2.164467e-01 1.137737e-01 1.667454e-01 2.032209e-01 2.382748e-01 3.259933e-01 3.820176e-01 3.685040e-01 3.411566e-01
<VARIANCE> 24
 1.546231e-01 1.283554e-01 1.492007e-01 1.528638e-01 1.639884e-01 1.569281e-01 1.345036e-01 1.326753e-01 1.421012e-01 1.824816e-01 2.090586e-01 2.248347e-01 2.410001e-01 2.192623e-01 1.995191e-01 2.169826e-01 2.251175e-01 2.141264e-01 2.253460e-01 2.836317e-01 3.290836e-01 3.612056e-01 3.681155e-01 3.813778e-01
<GCONST> 6.057054e+00
<STATE> 4
<MEAN> 24
 7.876914e-01 8.187118e-01 8.517382e-01 9.364660e-01 9.400963e-01 7.600322e-01 6.006250e-01 5.194032e-01 4.945569e-01 5.761975e-01 7.329108e-01 7.466422e-01 6.240212e-01 5.837065e-01 7.168266e-01 6.712189e-01 5.264285e-01 5.432834e-01 5.125458e-01 4.036347e-01 3.701365e-01 3.597403e-01 3.315633e-01 3.254440e-01
<VARIANCE> 24
 1.784206e-01 1.083168e-01 1.264493e-01 1.297614e-01 1.544612e-01 1.868173e-01 1.724841e-01 1.665435e-01 1.775783e-01 2.242988e-01 2.727949e-01 2.965339e-01 3.258649e-01 2.995169e-01 2.772214e-01 2.892199e-01 2.835939e-01 2.695638e-01 2.806413e-01 3.101421e-01 3.235877e-01 3.578711e-01 3.595213e-01 3.573559e-01
<GCONST> 9.148841e+00
<TRANSP> 5
 0.000000e+00 1.000000e+00 0.000000e+00 0.000000e+00 0.000000e+00
 0.000000e+00 5.039854e-01 4.960146e-01 0.000000e+00 0.000000e+00
 0.000000e+00 0.000000e+00 2.533425e-01 7.466576e-01 0.000000e+00
 0.000000e+00 0.000000e+00 0.000000e+00 3.161695e-01 6.838304e-01
 0.000000e+00 0.000000e+00 0.000000e+00 0.000000e+00 0.000000e+00
<ENDHMM>
