~o
<STREAMINFO> 1 24
<VECSIZE> 24<NULLD><FBANK_Z><DIAGC>
~h "dx"
<BEGINHMM>
<NUMSTATES> 5
<STATE> 2
<MEAN> 24
 1.718787e-01 2.893744e-01 2.787597e-01 1.859092e-01 2.843751e-02 -1.156688e-01 -1.942361e-01 -2.328610e-01 -2.261599e-01 -1.373086e-01 5.401053e-03 4.949440e-02 -1.448939e-02 -3.783615e-02 1.070511e-02 -7.497220e-02 -2.251140e-01 -3.267134e-01 -4.319664e-01 -4.926625e-01 -4.701569e-01 -4.348342e-01 -4.550351e-01 -5.017427e-01
<VARIANCE> 24
 2.219186e-01 1.506703e-01 1.820026e-01 2.592678e-01 3.146632e-01 3.148763e-01 3.156412e-01 3.366705e-01 3.730715e-01 4.444280e-01 4.615792e-01 4.403895e-01 4.481387e-01 4.629633e-01 4.680909e-01 4.924037e-01 5.198517e-01 5.145244e-01 4.858849e-01 4.360794e-01 4.119613e-01 4.006314e-01 3.869639e-01 3.660790e-01
<GCONST> 2.004692e+01
<STATE> 3
<MEAN> 24
 5.635968e-01 5.999303e-01 6.448939e-01 6.938283e-01 6.063519e-01 4.268393e-01 3.157829e-01 2.642429e-01 2.646328e-01 3.341831e-01 4.812293e-01 5.886134e-01 5.849254e-01 5.537666e-01 6.049632e-01 5.646179e-01 4.016863e-01 2.722963e-01 1.472065e-01 -1.970796e-02 -8.730753e-02 -8.062849e-02 -7.064420e-02 -1.025639e-01
<VARIANCE> 24
 1.179479e-01 7.994691e-02 9.552539e-02 1.036468e-01 1.299346e-01 1.507942e-01 1.375816e-01 1.429384e-01 1.732577e-01 2.457334e-01 2.766615e-01 2.578561e-01 2.359622e-01 2.316639e-01 2.348984e-01 2.461706e-01 2.977510e-01 3.278259e-01 3.316102e-01 3.485335e-01 3.289343e-01 3.233159e-01 3.058903e-01 2.835516e-01
<GCONST> 6.244392e+00
<STATE> 4
<MEAN> 24
 7.517263e-01 7.921424e-01 8.478113e-01 9.371982e-01 9.398872e-01 7.706653e-01 6.206304e-01 5.420234e-01 5.230325e-01 5.897995e-01 7.419299e-01 8.537154e-01 8.658597e-01 8.286507e-01 8.541524e-01 8.143100e-01 6.461633e-01 4.991264e-01 3.189784e-01 1.716008e-02 -1.480484e-01 -1.229687e-01 -4.515261e-02 -1.973951e-02
<VARIANCE> 24
 1.376520e-01 7.774121e-02 9.524061e-02 9.568467e-02 1.179057e-01 1.646209e-01 1.592499e-01 1.636093e-01 1.930512e-01 2.698558e-01 3.308838e-01 3.074708e-01 2.876684e-01 2.839634e-01 2.932180e-01 2.956539e-01 3.472855e-01 3.951527e-01 4.168409e-01 4.025432e-01 3.426514e-01 3.306457e-01 3.321393e-01 3.170863e-01
<GCONST> 8.894153e+00
<TRANSP> 5
 0.000000e+00 1.000000e+00 0.000000e+00 0.000000e+00 0.000000e+00
 0.000000e+00 2.968446e-01 7.031555e-01 0.000000e+00 0.000000e+00
 0.000000e+00 0.000000e+00 1.533771e-01 8.466229e-01 0.000000e+00
 0.000000e+00 0.000000e+00 0.000000e+00 2.507264e-01 7.492735e-01
 0.000000e+00 0.000000e+00 0.000000e+00 0.000000e+00 0.000000e+00
<ENDHMM>
