~o
<STREAMINFO> 1 24
<VECSIZE> 24<NULLD><FBANK_Z><DIAGC>
~h "eh"
<BEGINHMM>
<NUMSTATES> 5
<STATE> 2
<MEAN> 24
 1.005984e+00 9.544369e-01 9.819770e-01 9.904195e-01 1.178189e+00 1.299530e+00 1.233216e+00 1.126013e+00 1.055932e+00 1.080506e+00 1.239320e+00 1.372590e+00 1.343228e+00 1.274438e+00 1.233580e+00 1.175416e+00 1.096945e+00 1.011157e+00 8.600540e-01 6.604792e-01 4.763703e-01 3.923099e-01 3.931368e-01 3.934073e-01
<VARIANCE> 24
 1.208500e-01 6.048847e-02 6.935545e-02 7.649320e-02 8.241767e-02 1.013992e-01 1.252621e-01 1.334425e-01 1.438226e-01 1.818717e-01 2.167476e-01 2.156766e-01 2.271479e-01 2.171824e-01 2.075576e-01 2.080741e-01 2.132048e-01 2.230838e-01 2.770459e-01 3.248375e-01 3.481221e-01 3.531027e-01 3.376681e-01 3.396984e-01
<GCONST> 2.502094e+00
<STATE> 3
<MEAN> 24
 7.284514e-01 7.632613e-01 7.166705e-01 7.636775e-01 8.593698e-01 9.535639e-01 8.883072e-01 7.844735e-01 7.147608e-01 7.168242e-01 8.362154e-01 9.322510e-01 8.691311e-01 7.419177e-01 6.669068e-01 6.266710e-01 5.451163e-01 4.582167e-01 3.460387e-01 1.953280e-01 6.758510e-02 7.317503e-04 -1.192627e-02 -1.137211e-02
<VARIANCE> 24
 1.011781e-01 4.768513e-02 6.136567e-02 5.802214e-02 7.262649e-02 8.211458e-02 9.818616e-02 1.133339e-01 1.403385e-01 1.792290e-01 1.964728e-01 1.837826e-01 2.046974e-01 1.920567e-01 1.836678e-01 1.807559e-01 1.855776e-01 1.943733e-01 2.173071e-01 2.428439e-01 2.693997e-01 2.731725e-01 2.686081e-01 2.566092e-01
<GCONST> -1.676565e+00
<STATE> 4
<MEAN> 24
 2.264073e-01 2.946624e-01 2.408071e-01 1.843992e-01 1.506777e-01 1.030089e-01 4.694786e-02 7.669698e-03 -1.713950e-02 -2.642774e-02 2.579852e-02 5.514101e-02 -1.662076e-03 -5.975407e-02 -9.107476e-02 -1.473943e-01 -2.123426e-01 -2.169176e-01 -1.854510e-01 -1.770508e-01 -1.729744e-01 -1.728951e-01 -1.914501e-01 -2.023352e-01
<VARIANCE> 24
 3.616251e-01 3.234053e-01 3.465783e-01 3.786444e-01 4.282407e-01 4.927226e-01 5.230611e-01 5.667837e-01 6.048443e-01 5.819497e-01 5.411832e-01 5.059835e-01 5.029454e-01 4.793801e-01 4.787610e-01 5.168800e-01 5.487329e-01 5.725657e-01 6.163272e-01 6.880699e-01 7.523618e-01 7.873541e-01 7.809331e-01 7.521256e-01
<GCONST> 2.893076e+01
<TRANSP> 5
 0.000000e+00 1.000000e+00 0.000000e+00 0.000000e+00 0.000000e+00
 0.000000e+00 7.936918e-01 2.063082e-01 0.000000e+00 0.000000e+00
 0.000000e+00 0.000000e+00 7.242279e-01 2.757721e-01 0.000000e+00
 0.000000e+00 0.000000e+00 0.000000e+00 4.625226e-01 5.374774e-01
 0.000000e+00 0.000000e+00 0.000000e+00 0.000000e+00 0.000000e+00
<ENDHMM>
