~o
<STREAMINFO> 1 24
<VECSIZE> 24<NULLD><FBANK_Z><DIAGC>
~h "el"
<BEGINHMM>
<NUMSTATES> 5
<STATE> 2
<MEAN> 24
 7.417360e-01 7.538888e-01 8.405440e-01 9.268875e-01 1.040849e+00 1.013891e+00 1.034756e+00 1.149809e+00 1.025189e+00 6.036140e-01 1.478837e-01 -1.443706e-01 -2.427482e-01 -1.288620e-01 8.061785e-02 2.338350e-01 3.502545e-01 3.370072e-01 1.973394e-01 4.083176e-02 -4.755760e-02 -1.655108e-01 -1.929190e-01 -2.672273e-01
<VARIANCE> 24
 1.224161e-01 7.830465e-02 9.714975e-02 9.505031e-02 8.926893e-02 8.927716e-02 9.214645e-02 1.122030e-01 1.831783e-01 2.892937e-01 2.478522e-01 1.845442e-01 1.737311e-01 2.416018e-01 2.647646e-01 2.604021e-01 2.564759e-01 2.701401e-01 2.926512e-01 3.101240e-01 2.951240e-01 2.978102e-01 2.911451e-01 2.734331e-01
<GCONST> 3.473854e+00
<STATE> 3
<MEAN> 24
 4.876112e-01 5.517933e-01 5.582922e-01 6.870524e-01 7.132615e-01 6.703039e-01 7.172379e-01 7.679366e-01 5.362691e-01 6.467983e-02 -3.522239e-01 -6.086438e-01 -6.959370e-01 -6.164070e-01 -4.397924e-01 -2.658926e-01 -1.641978e-01 -1.510291e-01 -2.305403e-01 -3.428777e-01 -3.843507e-01 -4.428624e-01 -4.750554e-01 -5.509584e-01
<VARIANCE> 24
 9.206073e-02 5.685487e-02 6.820270e-02 6.468023e-02 6.721524e-02 7.646635e-02 8.331445e-02 9.987076e-02 1.899072e-01 2.570197e-01 1.877075e-01 1.462946e-01 1.440088e-01 1.808774e-01 2.182108e-01 2.502480e-01 2.246129e-01 2.276017e-01 2.540056e-01 2.669522e-01 2.744858e-01 2.524911e-01 2.345341e-01 2.150605e-01
<GCONST> -1.117939e+00
<STATE> 4
<MEAN> 24
 -2.414191e-02 4.230831e-02 -2.179652e-02 -4.532021e-02 -7.425652e-02 -8.527229e-02 -2.973524e-02 -2.998083e-02 -1.479342e-01 -4.157526e-01 -6.514687e-01 -8.032854e-01 -8.538141e-01 -8.311948e-01 -7.650023e-01 -6.561925e-01 -5.418931e-01 -4.881697e-01 -4.378047e-01 -3.837367e-01 -3.297745e-01 -3.333662e-01 -3.548539e-01 -4.031161e-01
<VARIANCE> 24
 3.055926e-01 2.828702e-01 3.144200e-01 3.458090e-01 3.792449e-01 3.906899e-01 3.874654e-01 4.036087e-01 4.320374e-01 4.936267e-01 4.685502e-01 4.187320e-01 3.971525e-01 4.063115e-01 4.584787e-01 4.969732e-01 5.117429e-01 5.834187e-01 6.989515e-01 7.634801e-01 7.629731e-01 7.461660e-01 6.916921e-01 6.831970e-01
<GCONST> 2.605030e+01
<TRANSP> 5
 0.000000e+00 1.000000e+00 0.000000e+00 0.000000e+00 0.000000e+00
 0.000000e+00 7.442173e-01 2.557827e-01 0.000000e+00 0.000000e+00
 0.000000e+00 0.000000e+00 7.363460e-01 2.636540e-01 0.000000e+00
 0.000000e+00 0.000000e+00 0.000000e+00 5.689030e-01 4.310970e-01
 0.000000e+00 0.000000e+00 0.000000e+00 0.000000e+00 0.000000e+00
<ENDHMM>
