~o
<STREAMINFO> 1 24
<VECSIZE> 24<NULLD><FBANK_Z><DIAGC>
~h "en"
<BEGINHMM>
<NUMSTATES> 5
<STATE> 2
<MEAN> 24
 2.773109e-01 5.701720e-01 5.891128e-01 4.026113e-01 2.596227e-01 1.124340e-01 5.378450e-02 2.471922e-02 -2.811113e-02 -1.082612e-01 -1.050989e-01 -1.418097e-01 -1.679786e-01 -4.938507e-02 1.905413e-02 -1.456914e-01 -4.670154e-01 -5.281981e-01 -3.656915e-01 -3.309626e-01 -4.030541e-01 -4.319291e-01 -4.328808e-01 -4.731577e-01
<VARIANCE> 24
 1.632612e-01 1.041232e-01 1.195540e-01 1.039225e-01 1.093777e-01 1.039497e-01 1.171047e-01 1.342536e-01 1.627703e-01 1.830694e-01 2.143730e-01 2.053272e-01 1.928518e-01 1.975987e-01 2.019959e-01 2.374941e-01 2.901866e-01 2.895480e-01 2.904519e-01 2.547734e-01 2.410025e-01 2.337954e-01 2.387012e-01 2.262307e-01
<GCONST> 3.200535e+00
<STATE> 3
<MEAN> 24
 1.585354e-02 2.741178e-01 2.278507e-01 6.822323e-03 -1.906154e-01 -3.587404e-01 -4.081679e-01 -4.479603e-01 -5.134518e-01 -6.475069e-01 -6.676891e-01 -6.990011e-01 -7.147204e-01 -5.859018e-01 -5.197566e-01 -7.258824e-01 -1.048564e+00 -1.066610e+00 -8.422862e-01 -7.148092e-01 -6.917638e-01 -7.073223e-01 -6.996613e-01 -7.177404e-01
<VARIANCE> 24
 1.459603e-01 1.264240e-01 1.456797e-01 1.328662e-01 1.437523e-01 1.299309e-01 1.417564e-01 1.636169e-01 1.859490e-01 1.928120e-01 2.145850e-01 2.075374e-01 1.810884e-01 2.040446e-01 2.224612e-01 2.456595e-01 2.332976e-01 2.227623e-01 2.402883e-01 2.268590e-01 2.446308e-01 2.057535e-01 1.991336e-01 2.182022e-01
<GCONST> 3.791026e+00
<STATE> 4
<MEAN> 24
 -5.414407e-02 6.232410e-02 3.609489e-02 -1.033902e-01 -2.114569e-01 -2.626309e-01 -2.500312e-01 -2.592587e-01 -2.903284e-01 -3.182889e-01 -2.954675e-01 -2.772179e-01 -2.932174e-01 -2.706656e-01 -2.445293e-01 -2.121971e-01 -2.512203e-01 -2.350160e-01 -7.723977e-02 2.086842e-02 2.590294e-02 5.017165e-03 1.314827e-02 -2.005881e-02
<VARIANCE> 24
 4.383417e-01 4.339105e-01 4.538997e-01 4.522502e-01 5.245254e-01 5.539436e-01 5.091068e-01 5.154527e-01 5.071280e-01 5.348033e-01 6.099361e-01 6.381767e-01 6.260424e-01 5.505743e-01 5.442003e-01 6.546910e-01 8.190232e-01 8.213156e-01 8.134129e-01 8.678006e-01 9.373845e-01 9.150637e-01 8.909593e-01 8.878672e-01
<GCONST> 3.281407e+01
<TRANSP> 5
 0.000000e+00 1.000000e+00 0.000000e+00 0.000000e+00 0.000000e+00
 0.000000e+00 7.236379e-01 2.763620e-01 0.000000e+00 0.000000e+00
 0.000000e+00 0.000000e+00 7.041392e-01 2.958608e-01 0.000000e+00
 0.000000e+00 0.000000e+00 0.000000e+00 4.363799e-01 5.636201e-01
 0.000000e+00 0.000000e+00 0.000000e+00 0.000000e+00 0.000000e+00
<ENDHMM>
