~o
<STREAMINFO> 1 24
<VECSIZE> 24<NULLD><FBANK_Z><DIAGC>
~h "epi"
<BEGINHMM>
<NUMSTATES> 5
<STATE> 2
<MEAN> 24
 -9.531822e-01 -9.515321e-01 -9.907407e-01 -1.012266e+00 -1.023830e+00 -1.021657e+00 -9.943972e-01 -9.796968e-01 -9.601162e-01 -9.415216e-01 -9.698441e-01 -1.012630e+00 -1.005601e+00 -9.478803e-01 -9.351180e-01 -9.642962e-01 -9.783219e-01 -9.294069e-01 -7.970896e-01 -6.645716e-01 -5.933949e-01 -5.842105e-01 -5.908998e-01 -5.969249e-01
<VARIANCE> 24
 5.283970e-01 5.638328e-01 4.991741e-01 3.996333e-01 3.287892e-01 2.965108e-01 3.263246e-01 3.545754e-01 3.877067e-01 3.938476e-01 3.926397e-01 3.806402e-01 3.638850e-01 3.802129e-01 3.816775e-01 4.018919e-01 4.170310e-01 4.116757e-01 4.376169e-01 4.658067e-01 4.680756e-01 4.524755e-01 4.262001e-01 4.188383e-01
<GCONST> 2.254090e+01
<STATE> 3
<MEAN> 24
 -2.700871e-01 -1.655212e-01 -2.163413e-01 -2.728068e-01 -3.517357e-01 -4.262789e-01 -4.083058e-01 -3.848076e-01 -3.763570e-01 -3.988097e-01 -4.899069e-01 -5.705205e-01 -5.725420e-01 -5.215695e-01 -5.251610e-01 -5.807866e-01 -6.124974e-01 -5.933867e-01 -4.880064e-01 -3.752854e-01 -3.170101e-01 -3.205900e-01 -3.524506e-01 -3.734725e-01
<VARIANCE> 24
 4.061101e-01 4.761874e-01 4.601073e-01 3.337249e-01 2.452473e-01 2.026490e-01 1.935682e-01 1.994142e-01 2.057044e-01 2.196635e-01 2.243791e-01 2.192936e-01 2.244882e-01 2.202695e-01 2.353135e-01 2.778593e-01 3.232997e-01 3.397136e-01 3.498582e-01 4.134870e-01 4.457766e-01 4.538268e-01 4.472609e-01 4.649890e-01
<GCONST> 1.518242e+01
<STATE> 4
<MEAN> 24
 2.143719e-01 3.608029e-01 3.833804e-01 3.496720e-01 2.562886e-01 1.340019e-01 1.302025e-01 1.701010e-01 1.498069e-01 6.723382e-02 -8.662912e-02 -2.142780e-01 -2.166604e-01 -1.355616e-01 -1.404603e-01 -1.955146e-01 -2.309328e-01 -2.333928e-01 -2.149767e-01 -2.104888e-01 -2.119604e-01 -2.065154e-01 -2.019329e-01 -2.106689e-01
<VARIANCE> 24
 3.928856e-01 4.280901e-01 4.414934e-01 3.910074e-01 3.424043e-01 3.050355e-01 3.005756e-01 3.251915e-01 3.231586e-01 3.380461e-01 3.178928e-01 2.877587e-01 2.931432e-01 3.110774e-01 3.292890e-01 3.656379e-01 4.336258e-01 4.631174e-01 5.278700e-01 6.615152e-01 7.651638e-01 7.958015e-01 7.535726e-01 7.342760e-01
<GCONST> 2.312234e+01
<TRANSP> 5
 0.000000e+00 1.000000e+00 0.000000e+00 0.000000e+00 0.000000e+00
 0.000000e+00 5.744376e-01 4.255625e-01 0.000000e+00 0.000000e+00
 0.000000e+00 0.000000e+00 3.571945e-01 6.428055e-01 0.000000e+00
 0.000000e+00 0.000000e+00 0.000000e+00 3.135135e-01 6.864865e-01
 0.000000e+00 0.000000e+00 0.000000e+00 0.000000e+00 0.000000e+00
<ENDHMM>
