~o
<STREAMINFO> 1 24
<VECSIZE> 24<NULLD><FBANK_Z><DIAGC>
~h "er"
<BEGINHMM>
<NUMSTATES> 5
<STATE> 2
<MEAN> 24
 8.284540e-01 8.355516e-01 8.990448e-01 9.933717e-01 1.086464e+00 9.997113e-01 8.930227e-01 8.780942e-01 9.682763e-01 1.179615e+00 1.315587e+00 1.257504e+00 9.863307e-01 4.990086e-01 1.256807e-01 1.309976e-01 2.312098e-01 1.692448e-01 -1.236633e-02 -1.930828e-01 -3.393895e-01 -3.703814e-01 -2.733665e-01 -1.974069e-01
<VARIANCE> 24
 1.204536e-01 6.520002e-02 7.856817e-02 8.963328e-02 8.529528e-02 1.026562e-01 1.045329e-01 1.142442e-01 1.632057e-01 2.182426e-01 1.948291e-01 1.912925e-01 2.924250e-01 4.016266e-01 3.662216e-01 3.509935e-01 3.366799e-01 3.181612e-01 3.297042e-01 3.096461e-01 2.901656e-01 2.776408e-01 3.030417e-01 2.920850e-01
<GCONST> 4.863981e+00
<STATE> 3
<MEAN> 24
 5.302460e-01 6.084625e-01 6.088901e-01 7.254021e-01 7.236232e-01 6.016795e-01 4.987378e-01 4.750780e-01 5.463846e-01 7.272602e-01 8.703792e-01 8.095977e-01 4.955864e-01 -1.463111e-02 -3.626457e-01 -3.687544e-01 -3.326598e-01 -4.003848e-01 -4.875603e-01 -5.788872e-01 -6.532909e-01 -6.595322e-01 -5.971791e-01 -5.344641e-01
<VARIANCE> 24
 9.878808e-02 5.422321e-02 6.778846e-02 6.981597e-02 7.283865e-02 8.816594e-02 8.373921e-02 1.036445e-01 1.531530e-01 2.018971e-01 1.825871e-01 1.826071e-01 2.990619e-01 3.810127e-01 3.296316e-01 3.151070e-01 2.833952e-01 2.695841e-01 2.545054e-01 2.362790e-01 2.153918e-01 1.919088e-01 2.106539e-01 2.216958e-01
<GCONST> 7.845985e-01
<STATE> 4
<MEAN> 24
 5.407824e-02 1.329795e-01 6.684648e-02 2.363094e-02 -6.750506e-02 -1.899551e-01 -2.366287e-01 -2.599285e-01 -2.565576e-01 -1.719031e-01 -1.414536e-02 3.813270e-02 -9.242927e-02 -3.116844e-01 -4.414477e-01 -4.428526e-01 -4.500028e-01 -4.742306e-01 -4.586785e-01 -4.242647e-01 -3.934419e-01 -3.692429e-01 -3.655421e-01 -3.741834e-01
<VARIANCE> 24
 3.299920e-01 2.997130e-01 3.266439e-01 3.727961e-01 3.960976e-01 3.900824e-01 3.885023e-01 4.132793e-01 4.380848e-01 4.548899e-01 4.614981e-01 4.724705e-01 5.639554e-01 6.927415e-01 7.330171e-01 7.605520e-01 7.966429e-01 8.351163e-01 8.627653e-01 8.676000e-01 8.687587e-01 8.460745e-01 8.266202e-01 7.958702e-01
<GCONST> 2.990923e+01
<TRANSP> 5
 0.000000e+00 1.000000e+00 0.000000e+00 0.000000e+00 0.000000e+00
 0.000000e+00 7.838939e-01 2.161061e-01 0.000000e+00 0.000000e+00
 0.000000e+00 0.000000e+00 7.341130e-01 2.658871e-01 0.000000e+00
 0.000000e+00 0.000000e+00 0.000000e+00 5.163063e-01 4.836937e-01
 0.000000e+00 0.000000e+00 0.000000e+00 0.000000e+00 0.000000e+00
<ENDHMM>
