~o
<STREAMINFO> 1 24
<VECSIZE> 24<NULLD><FBANK_Z><DIAGC>
~h "ey"
<BEGINHMM>
<NUMSTATES> 5
<STATE> 2
<MEAN> 24
 9.640329e-01 9.423499e-01 9.764094e-01 1.057307e+00 1.172221e+00 1.132028e+00 9.875178e-01 8.675095e-01 7.799264e-01 7.601303e-01 8.814594e-01 1.131673e+00 1.357278e+00 1.415582e+00 1.395233e+00 1.286047e+00 1.179413e+00 1.087771e+00 9.184965e-01 6.766872e-01 4.690394e-01 3.947530e-01 3.736947e-01 3.995095e-01
<VARIANCE> 24
 1.027633e-01 5.726856e-02 7.139785e-02 8.382050e-02 7.429136e-02 8.202644e-02 9.217303e-02 8.601774e-02 8.872589e-02 1.158588e-01 1.721783e-01 2.124268e-01 2.246141e-01 2.036681e-01 1.948049e-01 2.082438e-01 2.090766e-01 2.170953e-01 2.646798e-01 3.154016e-01 3.350810e-01 3.318065e-01 3.289722e-01 3.244654e-01
<GCONST> -2.675762e-01
<STATE> 3
<MEAN> 24
 6.836919e-01 7.442155e-01 7.575258e-01 8.507210e-01 8.137840e-01 6.566845e-01 4.932062e-01 3.734797e-01 2.656133e-01 2.059344e-01 2.741880e-01 5.360857e-01 8.561954e-01 9.915770e-01 9.914912e-01 8.672637e-01 7.566965e-01 6.794054e-01 5.441778e-01 3.165981e-01 9.837076e-02 1.074888e-02 1.810843e-02 4.944690e-02
<VARIANCE> 24
 8.743366e-02 4.919475e-02 6.578230e-02 7.104068e-02 6.481959e-02 8.372676e-02 7.687901e-02 7.336494e-02 7.292733e-02 9.193259e-02 1.417693e-01 2.201172e-01 2.409718e-01 1.700731e-01 1.544563e-01 1.867628e-01 1.820689e-01 1.958827e-01 2.229395e-01 2.645299e-01 2.798589e-01 2.739747e-01 2.792621e-01 2.899826e-01
<GCONST> -3.558367e+00
<STATE> 4
<MEAN> 24
 1.354603e-01 2.276699e-01 1.867651e-01 1.491837e-01 -2.395226e-02 -2.090571e-01 -3.045799e-01 -3.827685e-01 -4.399027e-01 -4.680423e-01 -4.297756e-01 -2.709931e-01 -5.980762e-02 6.157487e-02 8.269334e-02 -1.714854e-02 -8.241659e-02 -8.223167e-02 -8.573716e-02 -1.317191e-01 -1.616831e-01 -1.782808e-01 -2.003209e-01 -1.954240e-01
<VARIANCE> 24
 3.116557e-01 2.793914e-01 2.938313e-01 3.487560e-01 3.703933e-01 3.774816e-01 3.678840e-01 3.819377e-01 3.953771e-01 4.112773e-01 4.315222e-01 4.894743e-01 5.445267e-01 5.350505e-01 5.675945e-01 6.281225e-01 6.290929e-01 6.523026e-01 7.180695e-01 8.049154e-01 8.389880e-01 8.489760e-01 8.660029e-01 8.399558e-01
<GCONST> 2.772766e+01
<TRANSP> 5
 0.000000e+00 1.000000e+00 0.000000e+00 0.000000e+00 0.000000e+00
 0.000000e+00 8.473893e-01 1.526107e-01 0.000000e+00 0.000000e+00
 0.000000e+00 0.000000e+00 7.930752e-01 2.069248e-01 0.000000e+00
 0.000000e+00 0.000000e+00 0.000000e+00 5.627647e-01 4.372353e-01
 0.000000e+00 0.000000e+00 0.000000e+00 0.000000e+00 0.000000e+00
<ENDHMM>
