~o
<STREAMINFO> 1 24
<VECSIZE> 24<NULLD><FBANK_Z><DIAGC>
~h "f"
<BEGINHMM>
<NUMSTATES> 5
<STATE> 2
<MEAN> 24
 -9.471753e-01 -1.016647e+00 -1.000747e+00 -9.195045e-01 -8.659109e-01 -7.752765e-01 -6.902844e-01 -6.243569e-01 -5.496615e-01 -4.646435e-01 -3.884312e-01 -3.388184e-01 -2.955785e-01 -2.541455e-01 -2.091014e-01 -1.337873e-01 -8.920128e-02 -3.754497e-02 8.021190e-02 2.653806e-01 4.367220e-01 5.352918e-01 5.776870e-01 6.303601e-01
<VARIANCE> 24
 4.586180e-01 3.280812e-01 2.468483e-01 1.893012e-01 1.566774e-01 1.495667e-01 1.595742e-01 1.695879e-01 1.658537e-01 1.785804e-01 1.928117e-01 1.941310e-01 2.004873e-01 2.041940e-01 1.991313e-01 2.066799e-01 2.097646e-01 2.159965e-01 2.387767e-01 2.582188e-01 2.610343e-01 2.700485e-01 2.756502e-01 3.081874e-01
<GCONST> 7.599352e+00
<STATE> 3
<MEAN> 24
 -6.470605e-01 -7.389529e-01 -7.049157e-01 -6.018250e-01 -5.105090e-01 -3.943665e-01 -2.818784e-01 -1.774622e-01 -7.854013e-02 4.641043e-02 1.348429e-01 1.903388e-01 2.466188e-01 2.883409e-01 3.207059e-01 3.976844e-01 4.196466e-01 4.544628e-01 5.875187e-01 7.677020e-01 9.181430e-01 9.987159e-01 1.026769e+00 1.079295e+00
<VARIANCE> 24
 3.137772e-01 1.896679e-01 1.521239e-01 1.149648e-01 9.587038e-02 9.040823e-02 9.190122e-02 9.771971e-02 1.044352e-01 1.196384e-01 1.159050e-01 1.115265e-01 1.213384e-01 1.272328e-01 1.244958e-01 1.299651e-01 1.330464e-01 1.367885e-01 1.630887e-01 1.860109e-01 1.894392e-01 2.004377e-01 2.203382e-01 2.470568e-01
<GCONST> -2.928841e+00
<STATE> 4
<MEAN> 24
 3.552633e-01 3.780477e-01 3.895581e-01 4.028746e-01 4.248231e-01 4.119445e-01 3.882294e-01 4.010004e-01 4.081347e-01 3.747194e-01 2.931363e-01 2.042401e-01 1.241157e-01 6.670085e-02 1.695151e-02 -9.776131e-03 -1.485054e-02 -6.545435e-02 -1.313254e-01 -1.585997e-01 -1.620622e-01 -1.860703e-01 -1.987715e-01 -1.943643e-01
<VARIANCE> 24
 5.835997e-01 6.090728e-01 6.437336e-01 6.401098e-01 6.549607e-01 6.394460e-01 6.183060e-01 6.277216e-01 6.468483e-01 6.580186e-01 6.511860e-01 6.426123e-01 6.094794e-01 6.201275e-01 6.132925e-01 5.628672e-01 5.353893e-01 5.152434e-01 4.881429e-01 4.674927e-01 4.459341e-01 4.406533e-01 4.316331e-01 4.298860e-01
<GCONST> 3.053251e+01
<TRANSP> 5
 0.000000e+00 1.000000e+00 0.000000e+00 0.000000e+00 0.000000e+00
 0.000000e+00 7.317664e-01 2.682336e-01 0.000000e+00 0.000000e+00
 0.000000e+00 0.000000e+00 7.915843e-01 2.084157e-01 0.000000e+00
 0.000000e+00 0.000000e+00 0.000000e+00 6.404677e-01 3.595324e-01
 0.000000e+00 0.000000e+00 0.000000e+00 0.000000e+00 0.000000e+00
<ENDHMM>
