~o
<STREAMINFO> 1 24
<VECSIZE> 24<NULLD><FBANK_Z><DIAGC>
~h "g"
<BEGINHMM>
<NUMSTATES> 5
<STATE> 2
<MEAN> 24
 -7.654623e-01 -5.534718e-01 -6.207988e-01 -8.323404e-01 -1.081586e+00 -1.208074e+00 -1.283529e+00 -1.334380e+00 -1.310820e+00 -1.258852e+00 -1.242834e+00 -1.237833e+00 -1.183471e+00 -1.167330e+00 -1.261750e+00 -1.351737e+00 -1.341054e+00 -1.299493e+00 -1.252057e+00 -1.163331e+00 -1.079102e+00 -1.008127e+00 -1.001079e+00 -9.916803e-01
<VARIANCE> 24
 4.340734e-01 5.820412e-01 5.587708e-01 4.778662e-01 3.809113e-01 3.353834e-01 3.679712e-01 4.078808e-01 4.350743e-01 4.541637e-01 4.614407e-01 4.522777e-01 4.687713e-01 4.815105e-01 4.141256e-01 3.717660e-01 3.414211e-01 3.619835e-01 4.119084e-01 4.119321e-01 3.592853e-01 3.070944e-01 2.996506e-01 3.132846e-01
<GCONST> 2.247605e+01
<STATE> 3
<MEAN> 24
 -1.935235e-01 -2.205063e-01 -1.764214e-01 -1.280813e-01 -1.583220e-01 -1.691915e-01 -1.237335e-01 -3.978048e-02 9.028414e-02 2.230185e-01 2.570723e-01 2.032921e-01 1.624300e-01 1.021598e-01 1.762263e-03 -1.881573e-02 -2.954610e-02 2.376422e-03 1.229160e-01 1.922253e-01 1.300937e-01 6.181259e-02 4.132231e-02 1.075585e-01
<VARIANCE> 24
 2.888877e-01 2.807652e-01 2.682832e-01 2.086709e-01 1.652485e-01 1.459304e-01 1.642923e-01 2.057980e-01 2.641494e-01 3.249526e-01 3.331831e-01 3.246287e-01 3.260078e-01 3.558425e-01 3.881205e-01 4.224949e-01 3.937766e-01 3.867971e-01 4.610875e-01 5.359660e-01 5.478469e-01 5.636943e-01 5.473111e-01 5.200763e-01
<GCONST> 1.724972e+01
<STATE> 4
<MEAN> 24
 6.255130e-01 6.583706e-01 7.210224e-01 7.966481e-01 7.068187e-01 5.079697e-01 4.107774e-01 3.917442e-01 4.254809e-01 4.942144e-01 5.449141e-01 5.955263e-01 6.882271e-01 6.861153e-01 5.519224e-01 4.825510e-01 4.874414e-01 4.898614e-01 4.738171e-01 3.638651e-01 2.230414e-01 1.487581e-01 1.669936e-01 2.556823e-01
<VARIANCE> 24
 2.010530e-01 1.753571e-01 2.004937e-01 2.023116e-01 2.259319e-01 2.040463e-01 1.727512e-01 1.803976e-01 2.277614e-01 2.925134e-01 3.140133e-01 3.174422e-01 3.621435e-01 4.525564e-01 5.225542e-01 5.177877e-01 4.561307e-01 4.227565e-01 4.598904e-01 5.542746e-01 6.070045e-01 5.972478e-01 5.653055e-01 5.347602e-01
<GCONST> 1.765957e+01
<TRANSP> 5
 0.000000e+00 1.000000e+00 0.000000e+00 0.000000e+00 0.000000e+00
 0.000000e+00 7.101662e-01 2.898338e-01 0.000000e+00 0.000000e+00
 0.000000e+00 0.000000e+00 5.713769e-01 4.286231e-01 0.000000e+00
 0.000000e+00 0.000000e+00 0.000000e+00 5.736880e-01 4.263120e-01
 0.000000e+00 0.000000e+00 0.000000e+00 0.000000e+00 0.000000e+00
<ENDHMM>
