~o
<STREAMINFO> 1 24
<VECSIZE> 24<NULLD><FBANK_Z><DIAGC>
~h "hh"
<BEGINHMM>
<NUMSTATES> 5
<STATE> 2
<MEAN> 24
 -1.072291e-01 -2.065466e-01 -3.338732e-01 -3.780648e-01 -3.688369e-01 -3.079204e-01 -1.805296e-01 -1.290861e-01 -2.032838e-01 -2.769837e-01 -2.389255e-01 -1.780671e-01 -1.137880e-01 -5.219723e-02 1.042039e-04 3.103302e-02 -2.741760e-02 -7.528057e-02 -5.818101e-02 2.583698e-02 3.737522e-02 -3.155564e-02 -8.416317e-02 -1.072011e-01
<VARIANCE> 24
 5.698467e-01 4.527737e-01 3.274599e-01 2.374139e-01 1.889264e-01 1.691327e-01 1.915975e-01 2.294861e-01 2.628181e-01 3.048050e-01 3.305198e-01 3.621491e-01 3.382732e-01 2.841626e-01 3.066804e-01 3.236294e-01 3.204693e-01 3.146514e-01 3.310410e-01 3.485255e-01 3.718121e-01 3.579324e-01 3.463497e-01 3.321991e-01
<GCONST> 1.569992e+01
<STATE> 3
<MEAN> 24
 4.247535e-01 3.714366e-01 2.078043e-01 6.253437e-02 3.693787e-02 1.128462e-01 2.433891e-01 3.223974e-01 2.626883e-01 1.717155e-01 2.171886e-01 3.040953e-01 3.756522e-01 4.328341e-01 4.724732e-01 4.715123e-01 3.799233e-01 3.221223e-01 3.290650e-01 3.599998e-01 3.570191e-01 3.010322e-01 2.509519e-01 2.091007e-01
<VARIANCE> 24
 3.010673e-01 2.633564e-01 2.548316e-01 1.952455e-01 1.560757e-01 1.108050e-01 1.097002e-01 1.445144e-01 1.859141e-01 2.390396e-01 2.616576e-01 2.511024e-01 2.329643e-01 2.047185e-01 2.106898e-01 2.307230e-01 2.339575e-01 2.195368e-01 2.238321e-01 2.446603e-01 2.827809e-01 3.076582e-01 2.998127e-01 2.697363e-01
<GCONST> 7.638500e+00
<STATE> 4
<MEAN> 24
 8.631788e-01 8.737617e-01 8.386569e-01 7.204826e-01 7.220242e-01 7.797459e-01 8.527830e-01 8.644679e-01 7.832405e-01 6.907395e-01 6.884447e-01 7.268391e-01 7.563866e-01 7.585794e-01 7.400542e-01 6.868600e-01 5.902871e-01 5.129758e-01 4.534063e-01 4.207053e-01 3.622321e-01 3.000925e-01 2.606879e-01 2.318237e-01
<VARIANCE> 24
 2.095107e-01 1.081757e-01 1.208433e-01 1.209573e-01 1.314165e-01 1.664316e-01 2.086473e-01 2.651051e-01 3.180673e-01 3.636475e-01 3.699108e-01 3.512973e-01 3.252521e-01 3.195019e-01 3.533357e-01 3.438963e-01 3.064484e-01 2.986560e-01 3.020062e-01 3.179128e-01 3.440979e-01 3.675938e-01 3.448408e-01 3.115036e-01
<GCONST> 1.177654e+01
<TRANSP> 5
 0.000000e+00 1.000000e+00 0.000000e+00 0.000000e+00 0.000000e+00
 0.000000e+00 6.689986e-01 3.310014e-01 0.000000e+00 0.000000e+00
 0.000000e+00 0.000000e+00 6.248301e-01 3.751699e-01 0.000000e+00
 0.000000e+00 0.000000e+00 0.000000e+00 5.116485e-01 4.883515e-01
 0.000000e+00 0.000000e+00 0.000000e+00 0.000000e+00 0.000000e+00
<ENDHMM>
