~o
<STREAMINFO> 1 24
<VECSIZE> 24<NULLD><FBANK_Z><DIAGC>
~h "ih"
<BEGINHMM>
<NUMSTATES> 5
<STATE> 2
<MEAN> 24
 9.068208e-01 9.321544e-01 1.028800e+00 1.091396e+00 1.121606e+00 9.871334e-01 8.427342e-01 7.582546e-01 7.055554e-01 7.206456e-01 8.733466e-01 1.089372e+00 1.186347e+00 1.179865e+00 1.182030e+00 1.128492e+00 1.060695e+00 9.947243e-01 8.540617e-01 6.055311e-01 4.019594e-01 3.297403e-01 3.482856e-01 3.812382e-01
<VARIANCE> 24
 1.372515e-01 8.824519e-02 8.532059e-02 1.012372e-01 1.077305e-01 1.089675e-01 1.023239e-01 1.001539e-01 1.151005e-01 1.581347e-01 2.214127e-01 2.426540e-01 2.477977e-01 2.334279e-01 2.074122e-01 1.994247e-01 2.065409e-01 2.132497e-01 2.613502e-01 3.357181e-01 3.425128e-01 3.418594e-01 3.330845e-01 3.272645e-01
<GCONST> 3.035799e+00
<STATE> 3
<MEAN> 24
 6.495303e-01 7.434545e-01 7.527283e-01 8.074579e-01 7.633104e-01 6.015522e-01 4.706445e-01 3.865372e-01 3.179943e-01 2.993667e-01 4.283077e-01 6.340966e-01 7.112875e-01 6.763136e-01 6.512886e-01 5.972721e-01 5.236451e-01 4.903645e-01 4.038988e-01 2.333392e-01 6.483049e-02 -2.755312e-03 7.227753e-03 2.342978e-02
<VARIANCE> 24
 1.109403e-01 5.204123e-02 6.503148e-02 7.253515e-02 7.792895e-02 8.882183e-02 8.141853e-02 8.600216e-02 1.002631e-01 1.389679e-01 1.993637e-01 2.155353e-01 2.133592e-01 2.081395e-01 1.853560e-01 1.842594e-01 1.831787e-01 1.909112e-01 2.333075e-01 2.875650e-01 3.222550e-01 3.421458e-01 3.361679e-01 3.225867e-01
<GCONST> -7.299526e-01
<STATE> 4
<MEAN> 24
 1.289346e-01 2.461310e-01 2.153490e-01 1.297969e-01 4.059676e-03 -1.457583e-01 -2.196411e-01 -2.534646e-01 -2.775108e-01 -2.814864e-01 -2.222119e-01 -1.413516e-01 -1.108231e-01 -8.847855e-02 -7.318857e-02 -1.307548e-01 -1.710777e-01 -1.309622e-01 -5.587414e-02 -9.468435e-03 4.382198e-03 1.139243e-02 5.279516e-03 4.493980e-03
<VARIANCE> 24
 3.453008e-01 2.999245e-01 3.204049e-01 3.569412e-01 3.839113e-01 3.790994e-01 3.976591e-01 4.449781e-01 4.665292e-01 4.633361e-01 4.683798e-01 4.803735e-01 4.901312e-01 4.944028e-01 5.119089e-01 5.651795e-01 6.173734e-01 6.965221e-01 8.201143e-01 9.849844e-01 1.085435e+00 1.124803e+00 1.145414e+00 1.128589e+00
<GCONST> 2.973178e+01
<TRANSP> 5
 0.000000e+00 1.000000e+00 0.000000e+00 0.000000e+00 0.000000e+00
 0.000000e+00 7.571339e-01 2.428661e-01 0.000000e+00 0.000000e+00
 0.000000e+00 0.000000e+00 6.682290e-01 3.317710e-01 0.000000e+00
 0.000000e+00 0.000000e+00 0.000000e+00 4.159791e-01 5.840209e-01
 0.000000e+00 0.000000e+00 0.000000e+00 0.000000e+00 0.000000e+00
<ENDHMM>
