~o
<STREAMINFO> 1 24
<VECSIZE> 24<NULLD><FBANK_Z><DIAGC>
~h "ix"
<BEGINHMM>
<NUMSTATES> 5
<STATE> 2
<MEAN> 24
 7.013605e-01 7.971666e-01 8.289503e-01 8.775861e-01 8.563788e-01 7.169535e-01 5.909920e-01 5.031186e-01 4.356670e-01 4.469615e-01 6.268812e-01 7.960602e-01 7.860069e-01 7.227185e-01 7.130859e-01 6.577585e-01 5.703480e-01 5.263645e-01 4.428972e-01 2.376258e-01 6.779227e-02 -1.114503e-02 3.157450e-03 1.274547e-02
<VARIANCE> 24
 1.335896e-01 7.203770e-02 8.106346e-02 9.152006e-02 9.540845e-02 1.118946e-01 1.093174e-01 1.108347e-01 1.236645e-01 1.733266e-01 2.335468e-01 2.182201e-01 2.326803e-01 2.375000e-01 2.248172e-01 2.238836e-01 2.289469e-01 2.417578e-01 2.730740e-01 3.232075e-01 3.333180e-01 3.267618e-01 3.255776e-01 3.174556e-01
<GCONST> 3.096313e+00
<STATE> 3
<MEAN> 24
 4.316597e-01 5.548433e-01 5.321423e-01 5.463517e-01 4.263869e-01 2.468134e-01 1.418043e-01 5.800600e-02 -1.713750e-02 -3.095010e-02 1.147376e-01 2.538002e-01 2.399931e-01 2.021794e-01 2.052297e-01 1.283569e-01 4.699245e-02 5.756854e-02 5.591093e-02 -4.053204e-02 -1.314619e-01 -1.718608e-01 -1.756328e-01 -1.843469e-01
<VARIANCE> 24
 1.158518e-01 7.186059e-02 7.684390e-02 8.384038e-02 8.376074e-02 9.249994e-02 8.846171e-02 9.312837e-02 1.088952e-01 1.447639e-01 2.004443e-01 1.906539e-01 2.075767e-01 2.174705e-01 2.113340e-01 2.213447e-01 2.326723e-01 2.639965e-01 3.179792e-01 3.971876e-01 4.446412e-01 4.541549e-01 4.465532e-01 4.222730e-01
<GCONST> 2.914464e+00
<STATE> 4
<MEAN> 24
 -8.203563e-02 5.099676e-02 -5.845221e-03 -1.140177e-01 -2.834667e-01 -4.407011e-01 -5.128109e-01 -5.605066e-01 -5.889378e-01 -5.926474e-01 -5.224578e-01 -4.634899e-01 -4.547232e-01 -4.181261e-01 -3.957263e-01 -4.785296e-01 -5.239438e-01 -4.573822e-01 -3.612662e-01 -2.924156e-01 -2.596952e-01 -2.336219e-01 -2.375808e-01 -2.495369e-01
<VARIANCE> 24
 3.383302e-01 3.376476e-01 3.404122e-01 3.500977e-01 3.511827e-01 3.394135e-01 3.663773e-01 4.004758e-01 4.070325e-01 3.954275e-01 4.059910e-01 4.159873e-01 4.471080e-01 4.966307e-01 5.293919e-01 5.649094e-01 6.232969e-01 7.265192e-01 8.718455e-01 1.020472e+00 1.083130e+00 1.090761e+00 1.083697e+00 1.067912e+00
<GCONST> 2.885281e+01
<TRANSP> 5
 0.000000e+00 1.000000e+00 0.000000e+00 0.000000e+00 0.000000e+00
 0.000000e+00 6.366558e-01 3.633442e-01 0.000000e+00 0.000000e+00
 0.000000e+00 0.000000e+00 4.629887e-01 5.370113e-01 0.000000e+00
 0.000000e+00 0.000000e+00 0.000000e+00 3.369124e-01 6.630876e-01
 0.000000e+00 0.000000e+00 0.000000e+00 0.000000e+00 0.000000e+00
<ENDHMM>
