~o
<STREAMINFO> 1 24
<VECSIZE> 24<NULLD><FBANK_Z><DIAGC>
~h "iy"
<BEGINHMM>
<NUMSTATES> 5
<STATE> 2
<MEAN> 24
 7.981297e-01 8.860399e-01 1.056320e+00 1.016091e+00 8.282204e-01 5.877630e-01 4.485810e-01 3.663731e-01 2.900383e-01 2.471741e-01 3.105676e-01 5.547095e-01 9.619720e-01 1.200868e+00 1.224788e+00 1.179644e+00 1.091335e+00 1.019010e+00 8.309739e-01 5.267552e-01 3.295779e-01 2.652117e-01 3.033633e-01 3.644145e-01
<VARIANCE> 24
 1.294771e-01 1.007840e-01 9.159373e-02 9.616237e-02 1.059677e-01 9.983367e-02 8.683234e-02 9.104382e-02 9.681831e-02 1.252393e-01 1.846672e-01 2.686175e-01 3.106584e-01 2.402554e-01 1.979709e-01 2.296010e-01 2.278408e-01 2.288472e-01 2.693803e-01 3.468444e-01 3.413750e-01 3.454799e-01 3.452728e-01 3.474920e-01
<GCONST> 2.964231e+00
<STATE> 3
<MEAN> 24
 5.440114e-01 7.136791e-01 7.757560e-01 7.519113e-01 5.093899e-01 2.287879e-01 1.024480e-01 -1.123610e-02 -1.124140e-01 -1.961390e-01 -1.814246e-01 1.115397e-02 4.145944e-01 7.424862e-01 8.339399e-01 7.879061e-01 6.839184e-01 6.185663e-01 4.944580e-01 2.464879e-01 5.108699e-02 -3.970898e-02 -2.657626e-02 3.689136e-02
<VARIANCE> 24
 1.070657e-01 5.779389e-02 7.345998e-02 7.574318e-02 9.789952e-02 9.270822e-02 8.446448e-02 8.993427e-02 9.518068e-02 1.144400e-01 1.576160e-01 2.441078e-01 3.311287e-01 2.306887e-01 1.394469e-01 1.812505e-01 1.895107e-01 1.903818e-01 2.214094e-01 2.836867e-01 2.897206e-01 2.999049e-01 3.008105e-01 3.116910e-01
<GCONST> -6.768780e-01
<STATE> 4
<MEAN> 24
 1.223086e-01 2.488877e-01 2.268554e-01 1.432403e-01 -6.703381e-02 -2.705959e-01 -3.526585e-01 -4.373064e-01 -5.002213e-01 -5.564145e-01 -5.451460e-01 -4.220515e-01 -1.891772e-01 -2.660666e-03 3.939235e-02 -4.999047e-02 -1.224773e-01 -1.210355e-01 -1.284910e-01 -1.692888e-01 -2.075327e-01 -2.304652e-01 -2.351137e-01 -2.228622e-01
<VARIANCE> 24
 3.126575e-01 2.728631e-01 3.045549e-01 3.617554e-01 3.949840e-01 3.992414e-01 3.897898e-01 4.047485e-01 4.218149e-01 4.565154e-01 4.997231e-01 5.635808e-01 6.082867e-01 5.462225e-01 5.101746e-01 5.557991e-01 5.523256e-01 5.571026e-01 6.201862e-01 7.095258e-01 7.423342e-01 7.475322e-01 7.434201e-01 7.255739e-01
<GCONST> 2.726579e+01
<TRANSP> 5
 0.000000e+00 1.000000e+00 0.000000e+00 0.000000e+00 0.000000e+00
 0.000000e+00 7.713410e-01 2.286590e-01 0.000000e+00 0.000000e+00
 0.000000e+00 0.000000e+00 7.537528e-01 2.462472e-01 0.000000e+00
 0.000000e+00 0.000000e+00 0.000000e+00 5.240741e-01 4.759259e-01
 0.000000e+00 0.000000e+00 0.000000e+00 0.000000e+00 0.000000e+00
<ENDHMM>
