~o
<STREAMINFO> 1 24
<VECSIZE> 24<NULLD><FBANK_Z><DIAGC>
~h "jh"
<BEGINHMM>
<NUMSTATES> 5
<STATE> 2
<MEAN> 24
 -6.142009e-01 -4.257594e-01 -5.225565e-01 -7.951258e-01 -9.981887e-01 -1.092084e+00 -1.129524e+00 -1.163707e+00 -1.152719e+00 -1.107460e+00 -1.051952e+00 -9.574159e-01 -9.177688e-01 -9.326528e-01 -7.961314e-01 -6.732309e-01 -6.472065e-01 -6.584764e-01 -6.828060e-01 -6.811910e-01 -6.388272e-01 -6.069625e-01 -6.047606e-01 -6.129397e-01
<VARIANCE> 24
 3.421208e-01 4.522234e-01 4.119440e-01 3.375991e-01 2.771326e-01 2.536991e-01 2.900266e-01 3.242868e-01 3.290536e-01 3.332484e-01 3.535733e-01 3.984066e-01 4.453906e-01 5.189285e-01 5.841571e-01 7.449787e-01 8.485011e-01 8.274563e-01 8.277994e-01 8.092546e-01 7.637674e-01 7.245475e-01 7.041612e-01 6.800627e-01
<GCONST> 2.670189e+01
<STATE> 3
<MEAN> 24
 -2.493072e-01 -4.491499e-01 -4.877747e-01 -4.842743e-01 -5.025544e-01 -4.849544e-01 -4.340040e-01 -3.895795e-01 -3.232813e-01 -2.648101e-01 -1.585329e-01 5.624399e-02 2.886188e-01 4.969271e-01 7.870891e-01 1.062966e+00 1.234458e+00 1.257373e+00 1.296059e+00 1.358453e+00 1.426989e+00 1.499206e+00 1.520131e+00 1.448542e+00
<VARIANCE> 24
 3.088294e-01 2.606871e-01 2.574673e-01 2.145966e-01 1.780459e-01 1.514744e-01 1.539771e-01 1.669027e-01 1.665827e-01 1.588598e-01 1.462360e-01 1.645248e-01 1.805887e-01 2.200549e-01 2.556036e-01 2.273463e-01 2.208270e-01 2.398379e-01 2.684802e-01 2.840406e-01 3.122580e-01 3.614676e-01 4.096186e-01 4.234125e-01
<GCONST> 8.544173e+00
<STATE> 4
<MEAN> 24
 2.061621e-01 2.490466e-01 2.794962e-01 2.834198e-01 1.754439e-01 -1.383106e-02 -9.358557e-02 -1.421996e-01 -1.708959e-01 -1.342143e-01 3.364387e-02 2.734555e-01 3.993330e-01 4.065908e-01 4.648493e-01 5.118487e-01 5.215345e-01 4.288177e-01 3.685759e-01 3.116986e-01 2.820128e-01 2.678675e-01 2.653508e-01 1.976537e-01
<VARIANCE> 24
 7.059242e-01 7.655235e-01 8.202623e-01 7.957721e-01 7.178538e-01 5.451353e-01 4.759830e-01 4.501436e-01 4.159870e-01 4.197073e-01 5.287574e-01 6.237718e-01 6.412438e-01 6.382917e-01 5.966590e-01 5.646830e-01 5.463565e-01 5.103961e-01 4.857222e-01 4.667771e-01 4.714547e-01 4.870047e-01 4.787091e-01 4.754798e-01
<GCONST> 3.003997e+01
<TRANSP> 5
 0.000000e+00 1.000000e+00 0.000000e+00 0.000000e+00 0.000000e+00
 0.000000e+00 6.792274e-01 3.207727e-01 0.000000e+00 0.000000e+00
 0.000000e+00 0.000000e+00 8.150448e-01 1.849553e-01 0.000000e+00
 0.000000e+00 0.000000e+00 0.000000e+00 5.479696e-01 4.520303e-01
 0.000000e+00 0.000000e+00 0.000000e+00 0.000000e+00 0.000000e+00
<ENDHMM>
