~o
<STREAMINFO> 1 24
<VECSIZE> 24<NULLD><FBANK_Z><DIAGC>
~h "k"
<BEGINHMM>
<NUMSTATES> 5
<STATE> 2
<MEAN> 24
 -1.473846e+00 -1.527885e+00 -1.514504e+00 -1.551352e+00 -1.536863e+00 -1.509062e+00 -1.510017e+00 -1.486353e+00 -1.405052e+00 -1.312124e+00 -1.289384e+00 -1.306307e+00 -1.303572e+00 -1.329217e+00 -1.363354e+00 -1.364757e+00 -1.337124e+00 -1.292727e+00 -1.197213e+00 -1.090097e+00 -1.007977e+00 -9.455608e-01 -9.257940e-01 -8.855909e-01
<VARIANCE> 24
 4.819456e-01 4.736980e-01 4.587976e-01 4.255449e-01 3.693932e-01 3.487662e-01 3.971476e-01 4.374189e-01 4.599327e-01 4.726140e-01 4.828682e-01 4.756946e-01 4.679266e-01 4.641868e-01 4.122232e-01 3.796968e-01 3.616734e-01 3.849068e-01 4.460314e-01 4.422799e-01 3.850766e-01 3.289485e-01 3.183599e-01 3.438746e-01
<GCONST> 2.294706e+01
<STATE> 3
<MEAN> 24
 -3.716151e-01 -4.631194e-01 -4.705004e-01 -3.750354e-01 -2.581093e-01 -1.754400e-01 -9.983005e-02 1.033033e-02 1.173564e-01 1.827124e-01 1.914232e-01 1.546096e-01 1.412332e-01 1.430065e-01 1.246101e-01 1.432258e-01 1.232360e-01 1.534740e-01 3.148566e-01 4.214841e-01 3.804820e-01 3.013311e-01 2.879069e-01 3.459781e-01
<VARIANCE> 24
 3.430791e-01 2.281421e-01 1.848761e-01 1.508303e-01 1.446336e-01 1.467916e-01 1.600956e-01 2.024811e-01 2.587005e-01 3.070556e-01 3.310568e-01 3.384655e-01 3.392525e-01 3.500674e-01 3.674175e-01 4.130444e-01 3.893946e-01 3.672249e-01 4.302124e-01 4.869793e-01 5.281494e-01 5.437073e-01 5.187300e-01 5.178150e-01
<GCONST> 1.589252e+01
<STATE> 4
<MEAN> 24
 5.695437e-01 5.335018e-01 5.359189e-01 5.207699e-01 5.653507e-01 5.676666e-01 5.755901e-01 6.178349e-01 6.298090e-01 6.052512e-01 5.993087e-01 5.954434e-01 6.112040e-01 6.166833e-01 5.426018e-01 4.926515e-01 4.697352e-01 4.629196e-01 4.835323e-01 4.785966e-01 4.252183e-01 3.601051e-01 3.493005e-01 3.633107e-01
<VARIANCE> 24
 3.172639e-01 3.087563e-01 3.364467e-01 2.985398e-01 2.811981e-01 2.711843e-01 2.750308e-01 2.995099e-01 3.344335e-01 3.761749e-01 4.015915e-01 4.202669e-01 4.344287e-01 4.226334e-01 4.100183e-01 4.064025e-01 3.786784e-01 3.728688e-01 4.323060e-01 5.312520e-01 6.028471e-01 6.203822e-01 6.050736e-01 6.179114e-01
<GCONST> 2.168232e+01
<TRANSP> 5
 0.000000e+00 1.000000e+00 0.000000e+00 0.000000e+00 0.000000e+00
 0.000000e+00 7.425487e-01 2.574513e-01 0.000000e+00 0.000000e+00
 0.000000e+00 0.000000e+00 7.622272e-01 2.377727e-01 0.000000e+00
 0.000000e+00 0.000000e+00 0.000000e+00 6.757311e-01 3.242688e-01
 0.000000e+00 0.000000e+00 0.000000e+00 0.000000e+00 0.000000e+00
<ENDHMM>
