~o
<STREAMINFO> 1 24
<VECSIZE> 24<NULLD><FBANK_Z><DIAGC>
~h "l"
<BEGINHMM>
<NUMSTATES> 5
<STATE> 2
<MEAN> 24
 7.830650e-01 7.896914e-01 8.303521e-01 8.909335e-01 9.734387e-01 9.749079e-01 9.871884e-01 1.086184e+00 1.081757e+00 7.720563e-01 3.280212e-01 1.241973e-02 -1.121897e-01 -4.080217e-02 1.679644e-01 3.249196e-01 3.744334e-01 3.679950e-01 2.493888e-01 9.310548e-02 5.146373e-02 4.928596e-03 -3.980702e-02 -1.480503e-01
<VARIANCE> 24
 1.249806e-01 6.606355e-02 7.945966e-02 8.047096e-02 1.066261e-01 1.561858e-01 1.803254e-01 2.084539e-01 2.375904e-01 3.121271e-01 2.910861e-01 2.231534e-01 1.998201e-01 2.471712e-01 2.904915e-01 2.937776e-01 2.714968e-01 2.693861e-01 2.810729e-01 2.864588e-01 2.889417e-01 3.088119e-01 2.976083e-01 2.831032e-01
<GCONST> 6.053891e+00
<STATE> 3
<MEAN> 24
 5.066261e-01 5.800944e-01 5.885144e-01 6.547636e-01 6.434295e-01 5.926004e-01 5.993267e-01 6.516116e-01 5.707052e-01 2.799040e-01 -9.004863e-02 -3.662180e-01 -4.847045e-01 -4.452788e-01 -2.892821e-01 -1.451589e-01 -8.289940e-02 -5.023419e-02 -1.030003e-01 -1.894459e-01 -2.237481e-01 -2.505592e-01 -2.863227e-01 -3.717348e-01
<VARIANCE> 24
 1.671602e-01 1.136533e-01 1.405019e-01 1.470761e-01 1.752915e-01 2.060505e-01 2.110860e-01 2.416977e-01 3.174985e-01 4.344751e-01 4.244484e-01 3.444968e-01 2.932786e-01 3.199108e-01 3.838448e-01 3.932717e-01 3.674424e-01 3.615474e-01 3.599009e-01 3.496055e-01 3.287027e-01 3.234529e-01 3.132739e-01 3.003274e-01
<GCONST> 1.311287e+01
<STATE> 4
<MEAN> 24
 7.202271e-01 7.086328e-01 7.398732e-01 7.492710e-01 8.280243e-01 8.645500e-01 8.462690e-01 8.542323e-01 8.987068e-01 8.743602e-01 7.052661e-01 4.791568e-01 3.277038e-01 3.244726e-01 4.737944e-01 5.787370e-01 5.953838e-01 5.907980e-01 5.125191e-01 4.019533e-01 3.472638e-01 3.193142e-01 3.003234e-01 2.228253e-01
<VARIANCE> 24
 3.560689e-01 2.690378e-01 3.100561e-01 3.482710e-01 4.419399e-01 5.205020e-01 5.284430e-01 5.362431e-01 5.928629e-01 6.513839e-01 6.656685e-01 6.052411e-01 5.162047e-01 5.112799e-01 5.736606e-01 5.637271e-01 5.353978e-01 5.269930e-01 5.102594e-01 4.827375e-01 4.730213e-01 4.970977e-01 4.961851e-01 4.717449e-01
<GCONST> 2.691953e+01
<TRANSP> 5
 0.000000e+00 1.000000e+00 0.000000e+00 0.000000e+00 0.000000e+00
 0.000000e+00 6.184461e-01 3.815539e-01 0.000000e+00 0.000000e+00
 0.000000e+00 0.000000e+00 6.183470e-01 3.816530e-01 0.000000e+00
 0.000000e+00 0.000000e+00 0.000000e+00 4.712864e-01 5.287136e-01
 0.000000e+00 0.000000e+00 0.000000e+00 0.000000e+00 0.000000e+00
<ENDHMM>
