~o
<STREAMINFO> 1 24
<VECSIZE> 24<NULLD><FBANK_Z><DIAGC>
~h "m"
<BEGINHMM>
<NUMSTATES> 5
<STATE> 2
<MEAN> 24
 2.937756e-01 6.131105e-01 6.037047e-01 3.871994e-01 1.385380e-01 -8.387664e-02 -1.247498e-01 -3.979938e-02 7.408298e-02 7.318221e-02 -9.156272e-02 -2.171818e-01 -1.505519e-01 2.906538e-02 -1.004737e-01 -4.412957e-01 -5.572369e-01 -5.119848e-01 -4.474411e-01 -4.735871e-01 -4.996232e-01 -4.555181e-01 -4.574115e-01 -5.252375e-01
<VARIANCE> 24
 1.350086e-01 7.009354e-02 9.402903e-02 7.593992e-02 8.307277e-02 9.425011e-02 1.196521e-01 1.491282e-01 1.686727e-01 1.560111e-01 1.505278e-01 1.409200e-01 1.600871e-01 2.148691e-01 2.489100e-01 2.543638e-01 2.288774e-01 2.254315e-01 2.300594e-01 2.125853e-01 2.094388e-01 1.989024e-01 2.055950e-01 1.866008e-01
<GCONST> -4.104490e-01
<STATE> 3
<MEAN> 24
 9.934596e-02 3.936315e-01 3.442697e-01 1.277825e-01 -1.485475e-01 -3.753626e-01 -4.219744e-01 -3.757111e-01 -3.051818e-01 -3.149040e-01 -4.504573e-01 -5.571147e-01 -5.349618e-01 -3.960434e-01 -4.748747e-01 -7.346518e-01 -8.506109e-01 -8.027775e-01 -7.252509e-01 -6.801971e-01 -6.640391e-01 -6.329629e-01 -6.371886e-01 -6.794081e-01
<VARIANCE> 24
 1.916068e-01 1.568402e-01 1.866620e-01 1.798055e-01 2.061060e-01 2.218132e-01 2.374242e-01 2.735047e-01 2.882240e-01 2.884325e-01 2.774457e-01 2.520372e-01 2.742750e-01 3.159694e-01 3.044960e-01 2.939285e-01 2.996288e-01 2.800047e-01 2.611617e-01 2.399409e-01 2.260834e-01 2.175351e-01 2.104135e-01 1.931666e-01
<GCONST> 9.920113e+00
<STATE> 4
<MEAN> 24
 4.664737e-01 5.933135e-01 6.114008e-01 4.901233e-01 4.353424e-01 4.182426e-01 4.192440e-01 4.326648e-01 4.470753e-01 4.182057e-01 3.587151e-01 2.859603e-01 2.766980e-01 3.368738e-01 2.553774e-01 1.881231e-01 2.364869e-01 1.596220e-01 4.249730e-02 -4.983639e-03 -2.239593e-02 -4.559617e-02 -4.892619e-02 -5.768178e-02
<VARIANCE> 24
 3.111320e-01 2.830322e-01 3.217671e-01 3.297116e-01 4.207426e-01 5.016748e-01 5.141128e-01 5.146877e-01 5.372029e-01 5.378287e-01 5.507944e-01 5.456369e-01 5.270015e-01 5.049592e-01 4.762787e-01 4.975649e-01 5.371866e-01 5.010842e-01 4.412972e-01 4.001466e-01 3.986044e-01 3.854128e-01 3.771050e-01 3.767805e-01
<GCONST> 2.447250e+01
<TRANSP> 5
 0.000000e+00 1.000000e+00 0.000000e+00 0.000000e+00 0.000000e+00
 0.000000e+00 6.665727e-01 3.334273e-01 0.000000e+00 0.000000e+00
 0.000000e+00 0.000000e+00 5.821950e-01 4.178050e-01 0.000000e+00
 0.000000e+00 0.000000e+00 0.000000e+00 5.359665e-01 4.640335e-01
 0.000000e+00 0.000000e+00 0.000000e+00 0.000000e+00 0.000000e+00
<ENDHMM>
