~o
<STREAMINFO> 1 24
<VECSIZE> 24<NULLD><FBANK_Z><DIAGC>
~h "n"
<BEGINHMM>
<NUMSTATES> 5
<STATE> 2
<MEAN> 24
 2.925476e-01 5.821348e-01 5.762576e-01 3.976227e-01 1.913897e-01 2.170015e-02 -2.789857e-02 -3.239070e-02 -5.980083e-02 -1.533498e-01 -1.898241e-01 -2.196572e-01 -1.934531e-01 -6.122471e-03 6.828932e-02 -1.769121e-01 -5.481119e-01 -6.112441e-01 -4.427752e-01 -3.605733e-01 -3.964847e-01 -4.325060e-01 -4.343604e-01 -4.406724e-01
<VARIANCE> 24
 1.360669e-01 7.726792e-02 9.427994e-02 7.807434e-02 8.496128e-02 9.333140e-02 1.132830e-01 1.291031e-01 1.496686e-01 1.816647e-01 2.091673e-01 1.950947e-01 1.841519e-01 2.099599e-01 2.187083e-01 2.460746e-01 2.700319e-01 2.796006e-01 2.816553e-01 2.455645e-01 2.392238e-01 2.215673e-01 2.330802e-01 2.254440e-01
<GCONST> 1.463109e+00
<STATE> 3
<MEAN> 24
 4.723688e-02 3.443754e-01 3.042687e-01 1.146767e-01 -1.347929e-01 -3.341437e-01 -3.841006e-01 -4.022166e-01 -4.580324e-01 -5.584605e-01 -5.915037e-01 -6.139418e-01 -6.082346e-01 -4.741681e-01 -3.914959e-01 -5.805403e-01 -8.575349e-01 -8.942790e-01 -7.383673e-01 -6.269233e-01 -6.225924e-01 -6.298468e-01 -6.379411e-01 -6.455048e-01
<VARIANCE> 24
 1.986786e-01 1.512272e-01 1.596708e-01 1.640444e-01 1.882596e-01 2.038206e-01 2.156049e-01 2.320474e-01 2.592351e-01 2.986347e-01 3.359999e-01 3.313518e-01 3.226070e-01 3.364871e-01 3.316295e-01 3.516074e-01 3.689803e-01 3.542432e-01 3.417110e-01 2.928960e-01 2.665864e-01 2.442263e-01 2.479509e-01 2.400991e-01
<GCONST> 1.169346e+01
<STATE> 4
<MEAN> 24
 2.420832e-01 3.632986e-01 3.588107e-01 2.424899e-01 1.697707e-01 1.389241e-01 1.255555e-01 9.831730e-02 6.152189e-02 4.758641e-02 1.059169e-01 1.458412e-01 1.587617e-01 1.814237e-01 2.179665e-01 2.413495e-01 1.853282e-01 1.623162e-01 1.818818e-01 1.260377e-01 7.228746e-02 8.165537e-02 1.029871e-01 9.617800e-02
<VARIANCE> 24
 4.389861e-01 4.268931e-01 4.298497e-01 4.432343e-01 5.176736e-01 5.748405e-01 5.510332e-01 5.346197e-01 5.356461e-01 5.943495e-01 6.913972e-01 7.177977e-01 6.935322e-01 6.161692e-01 6.130171e-01 7.020697e-01 7.337772e-01 7.046942e-01 6.498672e-01 6.078525e-01 6.130285e-01 6.340063e-01 6.369817e-01 6.446375e-01
<GCONST> 3.138041e+01
<TRANSP> 5
 0.000000e+00 1.000000e+00 0.000000e+00 0.000000e+00 0.000000e+00
 0.000000e+00 5.733850e-01 4.266150e-01 0.000000e+00 0.000000e+00
 0.000000e+00 0.000000e+00 5.492269e-01 4.507731e-01 0.000000e+00
 0.000000e+00 0.000000e+00 0.000000e+00 4.192065e-01 5.807934e-01
 0.000000e+00 0.000000e+00 0.000000e+00 0.000000e+00 0.000000e+00
<ENDHMM>
