~o
<STREAMINFO> 1 24
<VECSIZE> 24<NULLD><FBANK_Z><DIAGC>
~h "ng"
<BEGINHMM>
<NUMSTATES> 5
<STATE> 2
<MEAN> 24
 3.132045e-01 5.734178e-01 6.326228e-01 4.573633e-01 3.129216e-01 1.875425e-01 1.496240e-01 1.379942e-01 1.082703e-01 -3.276067e-02 -2.194090e-01 -2.608840e-01 -5.609243e-02 2.601157e-01 2.117485e-01 -1.885607e-01 -4.383107e-01 -3.981777e-01 -3.007377e-01 -3.290987e-01 -3.634105e-01 -3.184937e-01 -2.717482e-01 -2.605661e-01
<VARIANCE> 24
 1.479484e-01 8.578778e-02 1.041705e-01 9.262174e-02 8.682892e-02 8.554249e-02 1.076187e-01 1.316620e-01 1.473243e-01 1.728275e-01 1.705676e-01 1.743290e-01 2.220877e-01 2.453281e-01 2.164237e-01 2.666281e-01 2.654959e-01 3.049190e-01 3.097164e-01 2.602959e-01 2.405510e-01 2.527872e-01 2.682794e-01 2.611690e-01
<GCONST> 2.503568e+00
<STATE> 3
<MEAN> 24
 7.556730e-02 3.477909e-01 3.307245e-01 1.490544e-01 -4.436690e-02 -1.934756e-01 -2.347753e-01 -2.550924e-01 -3.162249e-01 -4.772561e-01 -6.289358e-01 -6.812941e-01 -5.706502e-01 -3.145982e-01 -3.397712e-01 -6.838129e-01 -9.051770e-01 -8.579702e-01 -7.258592e-01 -6.567991e-01 -6.649143e-01 -6.250555e-01 -5.836129e-01 -5.860624e-01
<VARIANCE> 24
 1.419783e-01 8.906536e-02 1.332023e-01 1.161597e-01 1.171692e-01 1.223656e-01 1.361197e-01 1.428228e-01 1.654860e-01 1.847402e-01 1.846218e-01 1.981443e-01 2.380831e-01 2.715018e-01 2.568581e-01 2.852937e-01 2.761314e-01 2.948568e-01 2.981308e-01 2.562847e-01 2.148788e-01 1.879972e-01 2.053341e-01 2.211546e-01
<GCONST> 3.855537e+00
<STATE> 4
<MEAN> 24
 -1.034873e-01 1.393760e-02 -1.670312e-02 -1.641454e-01 -3.096032e-01 -3.709265e-01 -3.664814e-01 -3.753169e-01 -4.054392e-01 -4.765803e-01 -5.085492e-01 -5.021861e-01 -4.324592e-01 -3.030813e-01 -3.543157e-01 -4.835113e-01 -5.163705e-01 -4.421743e-01 -3.228247e-01 -2.530542e-01 -2.587184e-01 -2.557800e-01 -2.451883e-01 -2.483523e-01
<VARIANCE> 24
 3.906799e-01 3.630822e-01 4.175739e-01 4.302972e-01 4.766339e-01 4.801605e-01 4.632503e-01 4.732960e-01 4.901374e-01 5.265537e-01 5.738664e-01 6.574506e-01 7.051504e-01 6.871886e-01 6.858329e-01 7.799039e-01 8.425252e-01 8.585413e-01 8.141750e-01 7.732470e-01 7.296817e-01 6.842719e-01 6.703497e-01 6.934974e-01
<GCONST> 3.152079e+01
<TRANSP> 5
 0.000000e+00 1.000000e+00 0.000000e+00 0.000000e+00 0.000000e+00
 0.000000e+00 6.430670e-01 3.569330e-01 0.000000e+00 0.000000e+00
 0.000000e+00 0.000000e+00 6.332629e-01 3.667371e-01 0.000000e+00
 0.000000e+00 0.000000e+00 0.000000e+00 3.698133e-01 6.301867e-01
 0.000000e+00 0.000000e+00 0.000000e+00 0.000000e+00 0.000000e+00
<ENDHMM>
