~o
<STREAMINFO> 1 24
<VECSIZE> 24<NULLD><FBANK_Z><DIAGC>
~h "ow"
<BEGINHMM>
<NUMSTATES> 5
<STATE> 2
<MEAN> 24
 9.492130e-01 9.030185e-01 9.346411e-01 9.994796e-01 1.172871e+00 1.254905e+00 1.192088e+00 1.221725e+00 1.300166e+00 1.244797e+00 9.989581e-01 7.221530e-01 6.161206e-01 7.089474e-01 7.634946e-01 7.847369e-01 8.413349e-01 7.476916e-01 5.295486e-01 3.173373e-01 2.155446e-01 1.437318e-01 1.609180e-01 2.082979e-01
<VARIANCE> 24
 1.160812e-01 6.611872e-02 7.636691e-02 8.892677e-02 9.070364e-02 8.727989e-02 1.008844e-01 1.348867e-01 1.741623e-01 2.063753e-01 2.788286e-01 2.751150e-01 2.308012e-01 2.307986e-01 2.146525e-01 2.143292e-01 2.142037e-01 2.142746e-01 2.859072e-01 3.029717e-01 2.990719e-01 3.059201e-01 2.980373e-01 2.803173e-01
<GCONST> 2.804907e+00
<STATE> 3
<MEAN> 24
 6.682280e-01 7.030532e-01 6.949909e-01 7.996048e-01 8.799989e-01 8.768640e-01 8.508798e-01 9.209744e-01 9.201680e-01 6.825801e-01 3.163913e-01 4.152583e-02 -3.638488e-02 7.402245e-02 1.372563e-01 1.842651e-01 2.344387e-01 1.385505e-01 -3.948898e-02 -1.775303e-01 -2.620485e-01 -3.309265e-01 -2.810644e-01 -2.504295e-01
<VARIANCE> 24
 8.682378e-02 4.696069e-02 6.004724e-02 6.670377e-02 6.996089e-02 8.033056e-02 9.338598e-02 1.274271e-01 1.574349e-01 2.207044e-01 2.356079e-01 1.993635e-01 1.789322e-01 1.980357e-01 1.880311e-01 1.930420e-01 1.925953e-01 2.090255e-01 2.318357e-01 2.402403e-01 2.395728e-01 2.333653e-01 2.302207e-01 2.162174e-01
<GCONST> -1.584510e+00
<STATE> 4
<MEAN> 24
 1.773931e-01 2.664464e-01 2.233618e-01 2.281279e-01 1.564685e-01 6.053241e-02 7.509624e-02 9.300155e-02 3.858698e-02 -8.238543e-02 -2.549920e-01 -4.148138e-01 -4.667474e-01 -4.193480e-01 -3.721371e-01 -3.314635e-01 -2.893689e-01 -2.854829e-01 -2.884586e-01 -2.628250e-01 -2.349488e-01 -2.210263e-01 -2.214169e-01 -2.356863e-01
<VARIANCE> 24
 2.672649e-01 2.286235e-01 2.522246e-01 3.017183e-01 3.500839e-01 3.814173e-01 4.063790e-01 4.276624e-01 3.994413e-01 4.048418e-01 4.337042e-01 4.369650e-01 4.297903e-01 4.327670e-01 4.443338e-01 5.165803e-01 5.899761e-01 6.672785e-01 7.609836e-01 8.347794e-01 8.799446e-01 8.807127e-01 8.551542e-01 8.259256e-01
<GCONST> 2.634727e+01
<TRANSP> 5
 0.000000e+00 1.000000e+00 0.000000e+00 0.000000e+00 0.000000e+00
 0.000000e+00 8.359631e-01 1.640369e-01 0.000000e+00 0.000000e+00
 0.000000e+00 0.000000e+00 8.106312e-01 1.893688e-01 0.000000e+00
 0.000000e+00 0.000000e+00 0.000000e+00 5.852985e-01 4.147015e-01
 0.000000e+00 0.000000e+00 0.000000e+00 0.000000e+00 0.000000e+00
<ENDHMM>
