~o
<STREAMINFO> 1 24
<VECSIZE> 24<NULLD><FBANK_Z><DIAGC>
~h "oy"
<BEGINHMM>
<NUMSTATES> 5
<STATE> 2
<MEAN> 24
 7.636718e-01 7.553602e-01 7.682060e-01 8.785039e-01 1.028034e+00 1.067181e+00 1.074586e+00 1.143949e+00 9.933411e-01 6.540437e-01 2.823770e-01 2.774063e-02 2.684708e-02 1.875189e-01 1.840401e-01 1.918395e-01 2.126555e-01 5.406843e-02 -1.643277e-01 -2.857147e-01 -3.628376e-01 -4.112640e-01 -3.535131e-01 -3.107857e-01
<VARIANCE> 24
 8.603140e-02 4.400823e-02 5.868034e-02 6.109294e-02 7.403155e-02 6.552140e-02 7.591444e-02 1.224726e-01 2.088069e-01 3.093573e-01 3.006679e-01 2.415309e-01 2.535578e-01 2.384517e-01 2.021749e-01 2.171275e-01 2.231583e-01 2.349931e-01 2.636121e-01 2.429536e-01 2.444440e-01 2.534778e-01 2.270707e-01 2.382094e-01
<GCONST> 2.066214e-01
<STATE> 3
<MEAN> 24
 9.243972e-01 8.934658e-01 9.496342e-01 9.757845e-01 1.143882e+00 1.149363e+00 1.058798e+00 1.000923e+00 1.033052e+00 1.081278e+00 1.074481e+00 1.001503e+00 9.911386e-01 1.089900e+00 9.903527e-01 8.811393e-01 8.810688e-01 7.828095e-01 5.963654e-01 3.767912e-01 1.754804e-01 7.869227e-02 1.203410e-01 1.823948e-01
<VARIANCE> 24
 1.129875e-01 5.415588e-02 6.709033e-02 8.201605e-02 7.577492e-02 1.096990e-01 1.289903e-01 1.689115e-01 2.407606e-01 2.678547e-01 2.465645e-01 2.457238e-01 2.288815e-01 1.863094e-01 1.955025e-01 1.985615e-01 1.847189e-01 1.946965e-01 2.635137e-01 2.840546e-01 3.066241e-01 2.798070e-01 2.697747e-01 2.476875e-01
<GCONST> 2.166035e+00
<STATE> 4
<MEAN> 24
 3.786334e-01 4.780265e-01 4.115449e-01 3.886508e-01 2.988646e-01 1.515734e-01 6.628145e-02 -2.603449e-02 -6.911300e-02 -1.019877e-01 -5.253252e-03 1.752320e-01 3.336661e-01 3.803899e-01 3.794017e-01 2.876903e-01 2.104001e-01 2.292186e-01 2.495559e-01 2.370929e-01 1.735997e-01 1.186902e-01 9.652847e-02 8.880070e-02
<VARIANCE> 24
 2.046029e-01 1.688112e-01 2.102333e-01 2.538485e-01 2.914653e-01 2.901731e-01 2.661131e-01 2.552777e-01 2.673341e-01 2.849552e-01 3.240174e-01 3.625580e-01 4.044406e-01 4.231047e-01 4.405492e-01 5.212376e-01 5.049023e-01 5.465415e-01 6.463484e-01 8.089648e-01 8.640280e-01 8.762707e-01 9.226016e-01 9.440272e-01
<GCONST> 2.234828e+01
<TRANSP> 5
 0.000000e+00 1.000000e+00 0.000000e+00 0.000000e+00 0.000000e+00
 0.000000e+00 8.610603e-01 1.389397e-01 0.000000e+00 0.000000e+00
 0.000000e+00 0.000000e+00 8.703071e-01 1.296929e-01 0.000000e+00
 0.000000e+00 0.000000e+00 0.000000e+00 6.637168e-01 3.362832e-01
 0.000000e+00 0.000000e+00 0.000000e+00 0.000000e+00 0.000000e+00
<ENDHMM>
