~o
<STREAMINFO> 1 24
<VECSIZE> 24<NULLD><FBANK_Z><DIAGC>
~h "p"
<BEGINHMM>
<NUMSTATES> 5
<STATE> 2
<MEAN> 24
 -1.462710e+00 -1.518842e+00 -1.510999e+00 -1.604047e+00 -1.628768e+00 -1.603479e+00 -1.619114e+00 -1.614888e+00 -1.566855e+00 -1.518228e+00 -1.562259e+00 -1.599059e+00 -1.585573e+00 -1.577088e+00 -1.558861e+00 -1.535783e+00 -1.503524e+00 -1.487188e+00 -1.419055e+00 -1.287584e+00 -1.147617e+00 -1.050097e+00 -1.035080e+00 -1.031960e+00
<VARIANCE> 24
 5.474179e-01 5.480169e-01 4.841640e-01 3.910379e-01 2.995031e-01 2.729293e-01 2.988249e-01 3.108506e-01 3.120030e-01 3.100619e-01 2.874997e-01 2.735614e-01 2.741658e-01 2.966630e-01 2.881733e-01 2.677659e-01 2.667341e-01 2.788660e-01 3.000972e-01 3.124046e-01 3.026448e-01 2.753246e-01 2.656108e-01 2.557879e-01
<GCONST> 1.627100e+01
<STATE> 3
<MEAN> 24
 -8.511639e-02 -3.368901e-01 -4.288172e-01 -3.655920e-01 -2.802273e-01 -1.922702e-01 -9.753540e-02 -1.944683e-02 3.821607e-02 1.144959e-01 1.205396e-01 8.745940e-02 6.628741e-02 6.236229e-02 6.192252e-02 7.476427e-02 7.442208e-02 6.856291e-02 1.097520e-01 2.105070e-01 3.041909e-01 3.049865e-01 2.605964e-01 2.131260e-01
<VARIANCE> 24
 4.072734e-01 2.490390e-01 1.891406e-01 1.532920e-01 1.421173e-01 1.397908e-01 1.587529e-01 1.863363e-01 2.011468e-01 2.388775e-01 2.567452e-01 2.681782e-01 2.879203e-01 3.035206e-01 3.060050e-01 3.161379e-01 3.169138e-01 3.250812e-01 3.550313e-01 3.806636e-01 3.995084e-01 4.131830e-01 4.075989e-01 3.987800e-01
<GCONST> 1.246384e+01
<STATE> 4
<MEAN> 24
 7.311608e-01 7.270954e-01 7.290755e-01 7.080983e-01 7.501285e-01 7.507752e-01 7.678938e-01 8.132139e-01 8.129137e-01 7.675764e-01 6.800203e-01 5.898660e-01 4.763530e-01 3.777162e-01 3.080502e-01 2.672508e-01 2.537785e-01 1.966575e-01 1.308798e-01 7.625787e-02 4.449897e-02 1.569067e-02 9.254824e-03 1.261373e-02
<VARIANCE> 24
 2.626026e-01 2.031952e-01 2.240915e-01 2.170250e-01 2.275537e-01 2.274847e-01 2.423712e-01 2.682393e-01 3.172250e-01 3.615142e-01 3.907233e-01 4.419599e-01 4.759397e-01 5.083938e-01 5.357381e-01 4.984114e-01 4.574116e-01 4.488353e-01 4.660895e-01 4.899284e-01 5.112742e-01 5.136389e-01 4.818691e-01 4.601123e-01
<GCONST> 1.989581e+01
<TRANSP> 5
 0.000000e+00 1.000000e+00 0.000000e+00 0.000000e+00 0.000000e+00
 0.000000e+00 7.938293e-01 2.061708e-01 0.000000e+00 0.000000e+00
 0.000000e+00 0.000000e+00 7.444159e-01 2.555841e-01 0.000000e+00
 0.000000e+00 0.000000e+00 0.000000e+00 6.231968e-01 3.768032e-01
 0.000000e+00 0.000000e+00 0.000000e+00 0.000000e+00 0.000000e+00
<ENDHMM>
