~o
<STREAMINFO> 1 24
<VECSIZE> 24<NULLD><FBANK_Z><DIAGC>
~h "r"
<BEGINHMM>
<NUMSTATES> 5
<STATE> 2
<MEAN> 24
 6.171424e-01 6.876240e-01 7.100254e-01 8.030280e-01 8.009163e-01 6.983042e-01 6.412354e-01 6.977543e-01 8.485335e-01 9.453874e-01 8.710198e-01 7.115887e-01 3.990845e-01 -9.546978e-02 -4.240964e-01 -4.137430e-01 -3.655804e-01 -4.414021e-01 -5.420992e-01 -6.004187e-01 -6.421795e-01 -6.305457e-01 -5.661914e-01 -4.810208e-01
<VARIANCE> 24
 1.324777e-01 6.645904e-02 8.738901e-02 9.246796e-02 1.318039e-01 1.942992e-01 1.864102e-01 1.946397e-01 2.307841e-01 2.666092e-01 3.033034e-01 3.723415e-01 4.996761e-01 5.041413e-01 3.711636e-01 3.428563e-01 3.464290e-01 3.373641e-01 2.991753e-01 2.586873e-01 2.258462e-01 2.203732e-01 2.442858e-01 2.598944e-01
<GCONST> 8.704837e+00
<STATE> 3
<MEAN> 24
 8.524044e-01 8.429604e-01 8.858784e-01 9.554045e-01 1.066622e+00 1.075513e+00 1.006200e+00 9.903912e-01 1.074111e+00 1.240963e+00 1.312901e+00 1.265342e+00 1.105807e+00 6.645003e-01 2.552019e-01 2.236416e-01 2.752296e-01 1.674996e-01 -3.091139e-02 -1.989594e-01 -3.254196e-01 -3.349785e-01 -2.415199e-01 -1.433423e-01
<VARIANCE> 24
 1.146426e-01 6.079534e-02 8.004402e-02 8.658919e-02 9.598610e-02 1.422673e-01 1.663666e-01 1.794797e-01 2.255345e-01 2.502295e-01 2.191205e-01 2.014683e-01 2.526580e-01 3.988805e-01 3.598322e-01 3.249680e-01 3.226288e-01 3.273499e-01 3.371795e-01 3.137368e-01 2.951465e-01 2.918113e-01 3.003670e-01 2.907054e-01
<GCONST> 6.545941e+00
<STATE> 4
<MEAN> 24
 4.718232e-01 5.267870e-01 5.364990e-01 5.356629e-01 5.117692e-01 4.528388e-01 4.022665e-01 3.682397e-01 3.901774e-01 4.806262e-01 5.827097e-01 6.161153e-01 5.557495e-01 3.313602e-01 7.245326e-02 -1.425347e-03 -2.150720e-02 -9.508696e-02 -2.034673e-01 -3.042182e-01 -3.773931e-01 -3.917478e-01 -3.636877e-01 -3.306807e-01
<VARIANCE> 24
 3.366939e-01 2.569311e-01 3.072045e-01 3.676690e-01 4.706406e-01 5.840774e-01 6.039055e-01 6.165506e-01 6.492628e-01 6.836176e-01 6.595929e-01 6.559288e-01 7.811336e-01 9.179494e-01 8.115137e-01 7.475814e-01 7.813729e-01 7.473076e-01 6.689096e-01 5.992429e-01 5.385956e-01 4.942238e-01 4.731963e-01 4.758667e-01
<GCONST> 3.045227e+01
<TRANSP> 5
 0.000000e+00 1.000000e+00 0.000000e+00 0.000000e+00 0.000000e+00
 0.000000e+00 5.984286e-01 4.015714e-01 0.000000e+00 0.000000e+00
 0.000000e+00 0.000000e+00 6.250403e-01 3.749597e-01 0.000000e+00
 0.000000e+00 0.000000e+00 0.000000e+00 3.263326e-01 6.736674e-01
 0.000000e+00 0.000000e+00 0.000000e+00 0.000000e+00 0.000000e+00
<ENDHMM>
