~o
<STREAMINFO> 1 24
<VECSIZE> 24<NULLD><FBANK_Z><DIAGC>
~h "s"
<BEGINHMM>
<NUMSTATES> 5
<STATE> 2
<MEAN> 24
 -4.330160e-01 -7.218367e-01 -7.814383e-01 -7.389452e-01 -6.854280e-01 -6.046479e-01 -5.185468e-01 -4.383092e-01 -3.789920e-01 -3.378046e-01 -2.664670e-01 -1.683632e-01 -1.097636e-01 -6.610724e-02 4.432158e-02 2.245960e-01 4.500409e-01 7.198707e-01 1.068156e+00 1.445776e+00 1.703611e+00 1.857628e+00 1.914476e+00 1.943759e+00
<VARIANCE> 24
 2.857419e-01 1.773079e-01 1.358253e-01 1.103495e-01 9.475831e-02 8.929468e-02 9.413444e-02 1.006573e-01 9.816115e-02 9.865425e-02 1.074302e-01 1.221967e-01 1.280154e-01 1.240324e-01 1.300112e-01 1.520862e-01 1.839620e-01 2.476619e-01 3.680731e-01 4.140787e-01 3.346006e-01 2.884972e-01 3.320287e-01 3.606918e-01
<GCONST> 1.028109e+00
<STATE> 3
<MEAN> 24
 -1.646836e-01 -4.318059e-01 -4.878120e-01 -4.452612e-01 -3.757051e-01 -2.756757e-01 -1.848631e-01 -8.939294e-02 -3.058898e-02 1.458650e-02 1.040726e-01 2.314208e-01 2.821105e-01 3.063932e-01 4.363112e-01 6.297208e-01 8.455564e-01 1.125550e+00 1.467895e+00 1.796029e+00 1.981125e+00 2.071657e+00 2.093896e+00 2.124017e+00
<VARIANCE> 24
 2.627482e-01 1.405892e-01 1.154859e-01 9.524200e-02 8.457242e-02 8.329655e-02 8.492088e-02 9.267312e-02 9.408873e-02 9.771960e-02 1.075904e-01 1.202763e-01 1.242395e-01 1.213600e-01 1.286629e-01 1.567045e-01 2.043860e-01 2.552741e-01 3.281948e-01 3.591730e-01 3.330053e-01 3.301848e-01 3.678212e-01 3.994761e-01
<GCONST> 1.486585e-01
<STATE> 4
<MEAN> 24
 -4.348358e-01 -5.065569e-01 -5.053691e-01 -4.830118e-01 -4.560225e-01 -4.538352e-01 -4.654053e-01 -4.554543e-01 -4.265587e-01 -3.476278e-01 -2.834472e-01 -3.023607e-01 -3.618621e-01 -3.674228e-01 -2.782058e-01 -1.869339e-01 -1.100151e-01 -1.190226e-02 1.039470e-01 2.025904e-01 2.411408e-01 2.517518e-01 2.321273e-01 2.089410e-01
<VARIANCE> 24
 9.249156e-01 1.052528e+00 1.106113e+00 1.054692e+00 1.007301e+00 9.014991e-01 8.022327e-01 7.602407e-01 7.211877e-01 7.364943e-01 7.853652e-01 7.515966e-01 6.602066e-01 6.276021e-01 6.749067e-01 6.504123e-01 5.936276e-01 5.922005e-01 6.217223e-01 6.249775e-01 6.166375e-01 6.403818e-01 6.695520e-01 6.884664e-01
<GCONST> 3.708683e+01
<TRANSP> 5
 0.000000e+00 1.000000e+00 0.000000e+00 0.000000e+00 0.000000e+00
 0.000000e+00 7.873278e-01 2.126722e-01 0.000000e+00 0.000000e+00
 0.000000e+00 0.000000e+00 8.061458e-01 1.938542e-01 0.000000e+00
 0.000000e+00 0.000000e+00 0.000000e+00 5.963135e-01 4.036865e-01
 0.000000e+00 0.000000e+00 0.000000e+00 0.000000e+00 0.000000e+00
<ENDHMM>
