~o
<STREAMINFO> 1 24
<VECSIZE> 24<NULLD><FBANK_Z><DIAGC>
~h "sh"
<BEGINHMM>
<NUMSTATES> 5
<STATE> 2
<MEAN> 24
 -3.368484e-01 -6.176477e-01 -6.887581e-01 -6.579670e-01 -6.306415e-01 -5.710329e-01 -5.011026e-01 -4.385035e-01 -3.795148e-01 -3.046626e-01 -1.734864e-01 9.605838e-02 3.987411e-01 6.512047e-01 9.494125e-01 1.166175e+00 1.316574e+00 1.356566e+00 1.419151e+00 1.510665e+00 1.619615e+00 1.710724e+00 1.719761e+00 1.637321e+00
<VARIANCE> 24
 2.826031e-01 1.519881e-01 1.111735e-01 9.438747e-02 8.346462e-02 7.642645e-02 8.080956e-02 8.564723e-02 8.256694e-02 8.596601e-02 9.464040e-02 1.333540e-01 1.616313e-01 1.915888e-01 2.090482e-01 1.927366e-01 1.935353e-01 2.030975e-01 1.997460e-01 1.869270e-01 2.141250e-01 2.562319e-01 2.810446e-01 2.756189e-01
<GCONST> -1.615350e+00
<STATE> 3
<MEAN> 24
 -7.982747e-02 -3.486646e-01 -3.870125e-01 -3.414186e-01 -3.072855e-01 -2.308332e-01 -1.600845e-01 -8.531705e-02 -2.334393e-02 4.489210e-02 1.723161e-01 4.343248e-01 7.233512e-01 9.705081e-01 1.246545e+00 1.409168e+00 1.539723e+00 1.564236e+00 1.631463e+00 1.707146e+00 1.805210e+00 1.895143e+00 1.926020e+00 1.856506e+00
<VARIANCE> 24
 2.604514e-01 1.233345e-01 1.053780e-01 9.319389e-02 7.921276e-02 7.770193e-02 7.840392e-02 8.237505e-02 8.389458e-02 8.721519e-02 9.811719e-02 1.375862e-01 1.645208e-01 2.104175e-01 2.225189e-01 1.903987e-01 1.974947e-01 2.206749e-01 2.249956e-01 2.065369e-01 2.199297e-01 2.488960e-01 2.802052e-01 2.824631e-01
<GCONST> -1.476360e+00
<STATE> 4
<MEAN> 24
 -3.528863e-03 5.007841e-02 5.202744e-02 2.763014e-02 -9.979368e-03 -8.332535e-02 -1.396737e-01 -1.782714e-01 -2.042969e-01 -1.806883e-01 -6.001108e-02 1.283995e-01 2.298946e-01 2.606610e-01 3.443623e-01 3.749858e-01 3.846591e-01 3.035837e-01 2.569220e-01 1.888146e-01 1.391838e-01 1.361959e-01 1.323140e-01 7.752176e-02
<VARIANCE> 24
 6.336148e-01 7.423595e-01 8.054875e-01 7.415116e-01 6.536361e-01 5.291576e-01 4.461252e-01 4.169126e-01 3.893611e-01 3.995593e-01 4.528766e-01 4.923593e-01 4.919320e-01 4.778516e-01 4.563999e-01 4.308091e-01 4.462248e-01 4.391730e-01 4.103445e-01 4.190426e-01 4.697983e-01 5.036612e-01 4.927731e-01 4.849444e-01
<GCONST> 2.739700e+01
<TRANSP> 5
 0.000000e+00 1.000000e+00 0.000000e+00 0.000000e+00 0.000000e+00
 0.000000e+00 7.829598e-01 2.170402e-01 0.000000e+00 0.000000e+00
 0.000000e+00 0.000000e+00 8.163436e-01 1.836564e-01 0.000000e+00
 0.000000e+00 0.000000e+00 0.000000e+00 6.372900e-01 3.627100e-01
 0.000000e+00 0.000000e+00 0.000000e+00 0.000000e+00 0.000000e+00
<ENDHMM>
