~o
<STREAMINFO> 1 24
<VECSIZE> 24<NULLD><FBANK_Z><DIAGC>
~h "sil"
<BEGINHMM>
<NUMSTATES> 5
<STATE> 2
<MEAN> 24
 -1.211891e+00 -1.205768e+00 -1.173710e+00 -1.142754e+00 -1.109495e+00 -1.034126e+00 -9.456213e-01 -9.169581e-01 -9.472696e-01 -9.449629e-01 -9.077033e-01 -9.029965e-01 -9.431008e-01 -9.983811e-01 -1.048876e+00 -1.033970e+00 -1.022847e+00 -1.005561e+00 -9.344980e-01 -8.007320e-01 -7.292441e-01 -7.350302e-01 -7.602842e-01 -7.835385e-01
<VARIANCE> 24
 4.857036e-01 3.564616e-01 2.630188e-01 2.157911e-01 1.835751e-01 1.836363e-01 2.129444e-01 2.321017e-01 2.221229e-01 2.308683e-01 2.642204e-01 2.851888e-01 2.697515e-01 2.527246e-01 2.551494e-01 2.599277e-01 2.584404e-01 2.721871e-01 3.047372e-01 3.411717e-01 3.136605e-01 2.665809e-01 2.626255e-01 2.714301e-01
<GCONST> 1.209356e+01
<STATE> 3
<MEAN> 24
 -1.853173e+00 -1.880100e+00 -1.852784e+00 -1.844907e+00 -1.786100e+00 -1.726003e+00 -1.710747e+00 -1.706424e+00 -1.703607e+00 -1.679554e+00 -1.682397e+00 -1.695983e+00 -1.709857e+00 -1.731053e+00 -1.718335e+00 -1.688588e+00 -1.654751e+00 -1.631206e+00 -1.567158e+00 -1.432227e+00 -1.289384e+00 -1.186880e+00 -1.170548e+00 -1.164805e+00
<VARIANCE> 24
 2.711370e-01 1.815691e-01 1.541036e-01 1.411956e-01 1.170552e-01 1.160541e-01 1.453240e-01 1.538716e-01 1.383559e-01 1.345306e-01 1.310399e-01 1.259588e-01 1.166239e-01 1.169251e-01 1.139083e-01 1.115948e-01 1.145238e-01 1.229203e-01 1.416335e-01 1.645607e-01 1.613988e-01 1.534084e-01 1.497749e-01 1.532121e-01
<GCONST> -3.072642e+00
<STATE> 4
<MEAN> 24
 -8.137585e-01 -8.100048e-01 -7.844008e-01 -7.541615e-01 -7.279708e-01 -6.825491e-01 -6.449011e-01 -6.315278e-01 -6.312754e-01 -6.316956e-01 -6.204094e-01 -6.021107e-01 -5.926120e-01 -6.031854e-01 -6.105974e-01 -6.003569e-01 -6.004584e-01 -5.816056e-01 -5.340194e-01 -4.431388e-01 -3.834561e-01 -3.719224e-01 -3.912775e-01 -4.082202e-01
<VARIANCE> 24
 8.309557e-01 7.545661e-01 6.790633e-01 6.132237e-01 5.580341e-01 5.273644e-01 5.323412e-01 5.547463e-01 5.743380e-01 5.733524e-01 5.820439e-01 6.227683e-01 6.615592e-01 6.666670e-01 6.585784e-01 6.852542e-01 6.956509e-01 6.983562e-01 7.127129e-01 7.123557e-01 6.905172e-01 6.582375e-01 6.491748e-01 6.442434e-01
<GCONST> 3.352342e+01
<TRANSP> 5
 0.000000e+00 1.000000e+00 0.000000e+00 0.000000e+00 0.000000e+00
 0.000000e+00 8.564929e-01 1.435071e-01 0.000000e+00 0.000000e+00
 0.000000e+00 0.000000e+00 8.831646e-01 1.168354e-01 0.000000e+00
 0.000000e+00 0.000000e+00 0.000000e+00 7.144732e-01 2.855267e-01
 0.000000e+00 0.000000e+00 0.000000e+00 0.000000e+00 0.000000e+00
<ENDHMM>
