~o
<STREAMINFO> 1 24
<VECSIZE> 24<NULLD><FBANK_Z><DIAGC>
~h "t"
<BEGINHMM>
<NUMSTATES> 5
<STATE> 2
<MEAN> 24
 -1.384250e+00 -1.407150e+00 -1.395241e+00 -1.455094e+00 -1.466775e+00 -1.443916e+00 -1.448537e+00 -1.437483e+00 -1.392839e+00 -1.335500e+00 -1.336500e+00 -1.328521e+00 -1.293671e+00 -1.269825e+00 -1.222095e+00 -1.168819e+00 -1.127449e+00 -1.096021e+00 -1.010314e+00 -8.863724e-01 -7.707778e-01 -7.087540e-01 -7.101276e-01 -7.162746e-01
<VARIANCE> 24
 5.778887e-01 5.565998e-01 5.252268e-01 4.817139e-01 4.120744e-01 3.876055e-01 4.286277e-01 4.539790e-01 4.564883e-01 4.416697e-01 4.560617e-01 5.092795e-01 5.673018e-01 6.112164e-01 6.307762e-01 6.834182e-01 7.059108e-01 7.371399e-01 7.963787e-01 8.107066e-01 7.736213e-01 7.260608e-01 7.004343e-01 6.749254e-01
<GCONST> 3.075059e+01
<STATE> 3
<MEAN> 24
 -1.077796e-01 -3.507857e-01 -3.638885e-01 -2.564051e-01 -1.726082e-01 -9.834561e-02 -2.760638e-02 5.109758e-02 9.211170e-02 1.198544e-01 1.865090e-01 3.384058e-01 4.763036e-01 5.100396e-01 5.962018e-01 7.217992e-01 7.621287e-01 8.406417e-01 1.009100e+00 1.159785e+00 1.240446e+00 1.252661e+00 1.220093e+00 1.169175e+00
<VARIANCE> 24
 3.628059e-01 2.260340e-01 1.902784e-01 1.614077e-01 1.495242e-01 1.413122e-01 1.441225e-01 1.585831e-01 1.655423e-01 1.671394e-01 1.727578e-01 1.876884e-01 2.054954e-01 2.365833e-01 2.238214e-01 2.269372e-01 2.508557e-01 2.692792e-01 3.163505e-01 3.577298e-01 3.979388e-01 4.531117e-01 4.960459e-01 5.253683e-01
<GCONST> 9.537709e+00
<STATE> 4
<MEAN> 24
 4.165878e-01 4.516390e-01 4.554601e-01 4.419765e-01 4.298479e-01 3.627447e-01 3.224400e-01 3.002396e-01 2.657161e-01 2.948303e-01 4.092112e-01 4.908482e-01 4.559321e-01 3.693487e-01 3.625775e-01 3.229982e-01 2.552171e-01 2.285158e-01 2.027250e-01 1.576190e-01 9.150052e-02 4.579336e-02 3.262395e-02 9.310884e-03
<VARIANCE> 24
 5.194137e-01 5.377747e-01 5.614145e-01 5.205007e-01 4.916695e-01 4.549929e-01 4.323777e-01 4.364791e-01 4.490833e-01 4.842989e-01 4.960045e-01 4.742929e-01 4.757849e-01 4.767029e-01 4.854073e-01 4.702611e-01 4.475321e-01 4.272363e-01 4.391029e-01 4.559641e-01 4.736167e-01 4.912311e-01 4.911045e-01 4.862658e-01
<GCONST> 2.635185e+01
<TRANSP> 5
 0.000000e+00 1.000000e+00 0.000000e+00 0.000000e+00 0.000000e+00
 0.000000e+00 6.973593e-01 3.026407e-01 0.000000e+00 0.000000e+00
 0.000000e+00 0.000000e+00 7.436416e-01 2.563584e-01 0.000000e+00
 0.000000e+00 0.000000e+00 0.000000e+00 6.279224e-01 3.720776e-01
 0.000000e+00 0.000000e+00 0.000000e+00 0.000000e+00 0.000000e+00
<ENDHMM>
