~o
<STREAMINFO> 1 24
<VECSIZE> 24<NULLD><FBANK_Z><DIAGC>
~h "th"
<BEGINHMM>
<NUMSTATES> 5
<STATE> 2
<MEAN> 24
 -9.978202e-01 -1.136830e+00 -1.158740e+00 -1.138956e+00 -1.128001e+00 -1.075426e+00 -1.026947e+00 -1.015403e+00 -9.836519e-01 -9.567502e-01 -9.375941e-01 -9.068086e-01 -8.772537e-01 -8.708467e-01 -8.324758e-01 -7.476583e-01 -6.948823e-01 -6.364053e-01 -4.978766e-01 -2.736159e-01 -4.915405e-02 9.963903e-02 1.163018e-01 1.431800e-01
<VARIANCE> 24
 6.971109e-01 5.583490e-01 4.532990e-01 4.040293e-01 3.580323e-01 3.371843e-01 3.790098e-01 3.982455e-01 3.878129e-01 3.732317e-01 3.889303e-01 4.292614e-01 4.528686e-01 4.603724e-01 4.668782e-01 4.957244e-01 4.853643e-01 5.008837e-01 5.783054e-01 6.795586e-01 7.325678e-01 7.260154e-01 7.501752e-01 8.151119e-01
<GCONST> 2.723727e+01
<STATE> 3
<MEAN> 24
 -4.046650e-01 -5.872619e-01 -5.989386e-01 -5.252982e-01 -4.556721e-01 -3.672728e-01 -2.865216e-01 -2.245498e-01 -1.772070e-01 -1.505229e-01 -7.734258e-02 3.061999e-03 4.980683e-02 5.398738e-02 1.080904e-01 2.075161e-01 2.127413e-01 2.704906e-01 4.254346e-01 6.720004e-01 9.087849e-01 1.042833e+00 1.034895e+00 1.037674e+00
<VARIANCE> 24
 4.300477e-01 2.752417e-01 2.171963e-01 1.698640e-01 1.380488e-01 1.280398e-01 1.256866e-01 1.303629e-01 1.321171e-01 1.381155e-01 1.383866e-01 1.426107e-01 1.463884e-01 1.658987e-01 1.716002e-01 1.732567e-01 1.808520e-01 1.845897e-01 2.245392e-01 2.705026e-01 3.157339e-01 3.117245e-01 3.212123e-01 3.521879e-01
<GCONST> 4.667295e+00
<STATE> 4
<MEAN> 24
 2.854356e-01 2.656296e-01 2.853269e-01 3.126442e-01 3.032767e-01 2.491873e-01 1.844600e-01 1.611044e-01 1.531667e-01 1.993573e-01 2.772329e-01 2.845993e-01 2.036385e-01 1.672653e-01 1.688668e-01 1.259645e-01 6.554673e-02 6.109645e-02 4.568503e-02 3.234388e-02 6.046938e-02 1.051885e-01 8.996008e-02 7.862929e-02
<VARIANCE> 24
 7.395192e-01 8.327349e-01 8.676863e-01 8.488663e-01 8.314375e-01 7.642791e-01 6.736958e-01 6.514075e-01 6.510604e-01 6.704626e-01 7.023091e-01 7.283578e-01 7.301827e-01 7.610660e-01 7.852961e-01 7.481139e-01 6.904465e-01 6.604514e-01 6.377558e-01 5.783964e-01 5.988598e-01 6.154627e-01 6.379464e-01 6.785243e-01
<GCONST> 3.580479e+01
<TRANSP> 5
 0.000000e+00 1.000000e+00 0.000000e+00 0.000000e+00 0.000000e+00
 0.000000e+00 6.988245e-01 3.011755e-01 0.000000e+00 0.000000e+00
 0.000000e+00 0.000000e+00 7.693979e-01 2.306021e-01 0.000000e+00
 0.000000e+00 0.000000e+00 0.000000e+00 6.024612e-01 3.975388e-01
 0.000000e+00 0.000000e+00 0.000000e+00 0.000000e+00 0.000000e+00
<ENDHMM>
