~o
<STREAMINFO> 1 24
<VECSIZE> 24<NULLD><FBANK_Z><DIAGC>
~h "uh"
<BEGINHMM>
<NUMSTATES> 5
<STATE> 2
<MEAN> 24
 9.394749e-01 9.197789e-01 1.045585e+00 1.120720e+00 1.203962e+00 1.058209e+00 9.021531e-01 9.100870e-01 9.469346e-01 9.833469e-01 9.772629e-01 8.679827e-01 7.730314e-01 8.433612e-01 8.771763e-01 8.177924e-01 8.381560e-01 7.723538e-01 6.351497e-01 4.122001e-01 2.448423e-01 1.575348e-01 1.692536e-01 2.032164e-01
<VARIANCE> 24
 1.175379e-01 8.793858e-02 7.599400e-02 9.054128e-02 1.003587e-01 1.153421e-01 1.065580e-01 1.391235e-01 1.739179e-01 2.124790e-01 2.771611e-01 3.432480e-01 3.446653e-01 3.038434e-01 2.653607e-01 2.578841e-01 2.494209e-01 2.490364e-01 3.001871e-01 3.564134e-01 3.346864e-01 3.310585e-01 3.857073e-01 3.678109e-01
<GCONST> 6.132027e+00
<STATE> 3
<MEAN> 24
 6.460437e-01 7.107863e-01 7.207327e-01 8.407504e-01 8.320785e-01 6.890446e-01 5.745146e-01 5.721264e-01 5.705565e-01 5.489674e-01 4.776033e-01 3.670529e-01 2.508192e-01 2.666453e-01 2.877123e-01 2.369345e-01 2.620135e-01 2.461722e-01 1.384287e-01 -1.745268e-02 -1.706682e-01 -2.604666e-01 -2.306956e-01 -2.124100e-01
<VARIANCE> 24
 9.529159e-02 5.087955e-02 6.018852e-02 6.997158e-02 8.515479e-02 1.199752e-01 1.191893e-01 1.728630e-01 2.028698e-01 1.968574e-01 2.276955e-01 2.710156e-01 2.753091e-01 2.486528e-01 2.312217e-01 2.158985e-01 1.801661e-01 1.933136e-01 2.351568e-01 3.027048e-01 3.427172e-01 3.003075e-01 2.945167e-01 2.874172e-01
<GCONST> 2.416425e+00
<STATE> 4
<MEAN> 24
 -7.344180e-02 7.109645e-02 2.187700e-02 -7.019690e-02 -1.933994e-01 -3.432078e-01 -4.182795e-01 -4.518679e-01 -4.329158e-01 -3.869987e-01 -3.605528e-01 -4.365905e-01 -5.386850e-01 -5.641105e-01 -5.548712e-01 -5.704873e-01 -5.872409e-01 -5.640178e-01 -5.844914e-01 -5.932696e-01 -5.693468e-01 -5.666001e-01 -5.587376e-01 -5.443074e-01
<VARIANCE> 24
 3.996010e-01 3.355237e-01 3.308641e-01 4.123102e-01 4.833761e-01 5.227244e-01 5.850882e-01 6.673018e-01 6.350829e-01 5.353956e-01 4.764082e-01 4.970405e-01 5.426356e-01 5.806867e-01 5.906568e-01 6.125979e-01 6.372252e-01 6.861957e-01 7.858149e-01 8.218756e-01 8.195431e-01 8.001058e-01 8.047590e-01 7.885854e-01
<GCONST> 3.095959e+01
<TRANSP> 5
 0.000000e+00 1.000000e+00 0.000000e+00 0.000000e+00 0.000000e+00
 0.000000e+00 7.443763e-01 2.556237e-01 0.000000e+00 0.000000e+00
 0.000000e+00 0.000000e+00 6.639785e-01 3.360215e-01 0.000000e+00
 0.000000e+00 0.000000e+00 0.000000e+00 4.199536e-01 5.800464e-01
 0.000000e+00 0.000000e+00 0.000000e+00 0.000000e+00 0.000000e+00
<ENDHMM>
