~o
<STREAMINFO> 1 24
<VECSIZE> 24<NULLD><FBANK_Z><DIAGC>
~h "uw"
<BEGINHMM>
<NUMSTATES> 5
<STATE> 2
<MEAN> 24
 7.787009e-01 9.072500e-01 1.048564e+00 1.026715e+00 8.492325e-01 5.663660e-01 4.581767e-01 4.195219e-01 4.209923e-01 4.841114e-01 6.033949e-01 7.475211e-01 8.798503e-01 9.783465e-01 8.660728e-01 7.359270e-01 7.807237e-01 7.173299e-01 5.134575e-01 1.594354e-01 -1.059366e-02 -5.491836e-02 6.033202e-02 1.581263e-01
<VARIANCE> 24
 1.345201e-01 7.564729e-02 8.507250e-02 1.053656e-01 1.158004e-01 1.069366e-01 9.779413e-02 1.214120e-01 1.673896e-01 2.227837e-01 2.362396e-01 2.337021e-01 2.275316e-01 2.098971e-01 2.160400e-01 2.147045e-01 2.099974e-01 2.040878e-01 2.751925e-01 3.640836e-01 3.243275e-01 2.905210e-01 2.986651e-01 3.053875e-01
<GCONST> 3.476698e+00
<STATE> 3
<MEAN> 24
 5.802178e-01 7.344504e-01 7.949806e-01 8.229409e-01 6.328095e-01 3.716439e-01 2.831758e-01 2.687042e-01 3.125288e-01 3.309965e-01 2.893811e-01 2.287057e-01 2.240033e-01 3.083850e-01 2.038235e-01 8.753821e-02 1.261778e-01 7.370566e-02 -6.080737e-02 -2.805736e-01 -4.054460e-01 -4.359816e-01 -3.452929e-01 -2.635038e-01
<VARIANCE> 24
 1.096786e-01 5.314517e-02 7.301775e-02 7.693105e-02 1.041424e-01 1.058781e-01 1.032084e-01 1.433184e-01 2.133728e-01 2.276693e-01 2.080262e-01 2.237424e-01 2.355644e-01 2.161862e-01 2.071358e-01 1.983262e-01 1.935091e-01 1.873515e-01 2.350567e-01 2.967794e-01 2.648023e-01 2.601656e-01 2.646998e-01 2.712122e-01
<GCONST> 1.510418e+00
<STATE> 4
<MEAN> 24
 1.506705e-01 3.112310e-01 2.795000e-01 2.232753e-01 1.075942e-02 -1.880347e-01 -2.397919e-01 -2.671294e-01 -2.640180e-01 -2.780372e-01 -2.750930e-01 -2.565043e-01 -2.530074e-01 -1.950684e-01 -2.230823e-01 -3.001316e-01 -2.922724e-01 -2.822622e-01 -2.591904e-01 -2.856398e-01 -2.969742e-01 -2.925859e-01 -2.971593e-01 -2.643279e-01
<VARIANCE> 24
 2.704890e-01 2.300225e-01 2.590511e-01 3.257606e-01 3.609843e-01 3.610446e-01 3.596459e-01 4.089656e-01 4.607791e-01 4.585838e-01 4.380933e-01 4.490340e-01 4.838732e-01 5.243074e-01 5.447766e-01 5.520558e-01 6.204158e-01 6.923249e-01 8.003215e-01 8.893673e-01 9.237726e-01 9.231085e-01 8.994733e-01 8.615839e-01
<GCONST> 2.755238e+01
<TRANSP> 5
 0.000000e+00 1.000000e+00 0.000000e+00 0.000000e+00 0.000000e+00
 0.000000e+00 7.900796e-01 2.099204e-01 0.000000e+00 0.000000e+00
 0.000000e+00 0.000000e+00 7.603783e-01 2.396217e-01 0.000000e+00
 0.000000e+00 0.000000e+00 0.000000e+00 5.211095e-01 4.788905e-01
 0.000000e+00 0.000000e+00 0.000000e+00 0.000000e+00 0.000000e+00
<ENDHMM>
