~o
<STREAMINFO> 1 24
<VECSIZE> 24<NULLD><FBANK_Z><DIAGC>
~h "v"
<BEGINHMM>
<NUMSTATES> 5
<STATE> 2
<MEAN> 24
 -1.091465e-01 6.139545e-02 -2.592599e-02 -1.260605e-01 -2.800396e-01 -3.909873e-01 -4.327275e-01 -4.023110e-01 -3.312140e-01 -3.165549e-01 -4.043949e-01 -5.228993e-01 -5.837162e-01 -5.787783e-01 -6.238760e-01 -6.559039e-01 -6.083228e-01 -6.215858e-01 -6.091915e-01 -5.268261e-01 -4.296738e-01 -3.930310e-01 -4.011669e-01 -3.741811e-01
<VARIANCE> 24
 3.127913e-01 2.993525e-01 3.224653e-01 3.614107e-01 3.642534e-01 3.299441e-01 3.282902e-01 3.659951e-01 3.903536e-01 3.823768e-01 3.429734e-01 3.159068e-01 2.961564e-01 2.894097e-01 2.665580e-01 2.579593e-01 2.581089e-01 2.494986e-01 2.562225e-01 2.740401e-01 2.909358e-01 3.025125e-01 3.073980e-01 3.251060e-01
<GCONST> 1.596274e+01
<STATE> 3
<MEAN> 24
 -1.843943e-01 -1.328279e-01 -1.827638e-01 -2.367169e-01 -3.150586e-01 -3.516652e-01 -3.333620e-01 -2.875503e-01 -2.180315e-01 -1.642163e-01 -1.496697e-01 -1.570281e-01 -1.575017e-01 -1.385613e-01 -1.410084e-01 -1.181952e-01 -7.274371e-02 -5.688741e-02 9.058039e-03 1.310936e-01 2.585943e-01 3.136996e-01 3.102672e-01 3.288009e-01
<VARIANCE> 24
 3.691570e-01 4.050080e-01 3.922600e-01 3.420989e-01 2.816385e-01 2.293755e-01 2.070266e-01 2.219421e-01 2.382555e-01 2.245068e-01 1.945330e-01 1.858328e-01 1.884627e-01 1.942232e-01 1.880309e-01 2.011017e-01 2.109820e-01 2.167838e-01 2.539957e-01 2.927503e-01 3.324622e-01 3.562104e-01 3.709225e-01 3.974921e-01
<GCONST> 1.181788e+01
<STATE> 4
<MEAN> 24
 4.397552e-01 4.735265e-01 4.874547e-01 5.067152e-01 4.976247e-01 4.208424e-01 3.614400e-01 3.794978e-01 4.365475e-01 4.542151e-01 4.158175e-01 3.387484e-01 2.419018e-01 1.817342e-01 9.348021e-02 3.874069e-02 6.808290e-02 3.402660e-02 -3.258482e-02 -7.063047e-02 -6.722292e-02 -9.020805e-02 -1.053214e-01 -7.973330e-02
<VARIANCE> 24
 4.508189e-01 4.394788e-01 4.595338e-01 4.882419e-01 5.238454e-01 5.177408e-01 4.785978e-01 4.839696e-01 5.252970e-01 5.484881e-01 5.796868e-01 5.868343e-01 5.600024e-01 5.891336e-01 5.674027e-01 4.953004e-01 4.895748e-01 4.770462e-01 4.647504e-01 4.530224e-01 4.449188e-01 4.491169e-01 4.414168e-01 4.518456e-01
<GCONST> 2.729244e+01
<TRANSP> 5
 0.000000e+00 1.000000e+00 0.000000e+00 0.000000e+00 0.000000e+00
 0.000000e+00 6.035067e-01 3.964933e-01 0.000000e+00 0.000000e+00
 0.000000e+00 0.000000e+00 5.951993e-01 4.048007e-01 0.000000e+00
 0.000000e+00 0.000000e+00 0.000000e+00 5.130903e-01 4.869097e-01
 0.000000e+00 0.000000e+00 0.000000e+00 0.000000e+00 0.000000e+00
<ENDHMM>
