~o
<STREAMINFO> 1 24
<VECSIZE> 24<NULLD><FBANK_Z><DIAGC>
~h "vcl"
<BEGINHMM>
<NUMSTATES> 5
<STATE> 2
<MEAN> 24
 -2.317571e-01 4.812463e-02 -2.828719e-02 -3.161083e-01 -5.897128e-01 -7.532601e-01 -8.148881e-01 -8.680816e-01 -8.619515e-01 -8.629678e-01 -8.716429e-01 -9.064317e-01 -9.622656e-01 -9.760152e-01 -1.003960e+00 -1.093260e+00 -1.135554e+00 -1.138854e+00 -1.119922e+00 -1.063637e+00 -9.846251e-01 -9.371542e-01 -9.436328e-01 -9.475370e-01
<VARIANCE> 24
 2.130965e-01 1.999121e-01 1.993039e-01 2.058530e-01 1.995890e-01 1.957576e-01 2.366370e-01 2.885457e-01 3.265613e-01 3.235530e-01 3.234305e-01 3.269244e-01 3.442307e-01 3.545538e-01 3.264262e-01 3.154301e-01 3.285291e-01 3.319895e-01 3.418150e-01 3.443598e-01 3.304294e-01 3.104477e-01 2.868186e-01 2.762668e-01
<GCONST> 1.379438e+01
<STATE> 3
<MEAN> 24
 -9.623160e-01 -7.944621e-01 -8.603550e-01 -1.111647e+00 -1.288409e+00 -1.362418e+00 -1.407044e+00 -1.435814e+00 -1.407959e+00 -1.376060e+00 -1.399383e+00 -1.431233e+00 -1.447763e+00 -1.446975e+00 -1.434806e+00 -1.439791e+00 -1.425710e+00 -1.412540e+00 -1.359781e+00 -1.235013e+00 -1.105871e+00 -1.036736e+00 -1.035135e+00 -1.036993e+00
<VARIANCE> 24
 5.692105e-01 7.129974e-01 6.356260e-01 5.035535e-01 3.778080e-01 3.115728e-01 3.253727e-01 3.523435e-01 3.518564e-01 3.401533e-01 3.301442e-01 3.302437e-01 3.324350e-01 3.525941e-01 3.313847e-01 3.130569e-01 3.206184e-01 3.351508e-01 3.471563e-01 3.423375e-01 3.151226e-01 2.874873e-01 2.836096e-01 2.821190e-01
<GCONST> 1.972643e+01
<STATE> 4
<MEAN> 24
 -7.946372e-02 -1.304918e-01 -1.291010e-01 -1.287409e-01 -1.814831e-01 -2.268481e-01 -2.057971e-01 -1.627053e-01 -1.061154e-01 -8.208814e-02 -8.348493e-02 -6.593797e-02 -3.203682e-02 -3.980831e-03 -2.545422e-03 2.002309e-02 3.553543e-02 4.636319e-02 1.172193e-01 1.963697e-01 2.508785e-01 2.622648e-01 2.543896e-01 2.337320e-01
<VARIANCE> 24
 5.569208e-01 5.321164e-01 5.321459e-01 4.974696e-01 4.517310e-01 3.789523e-01 3.450075e-01 3.676955e-01 3.909005e-01 4.077351e-01 4.145310e-01 4.470184e-01 4.721411e-01 4.497497e-01 4.435601e-01 4.997639e-01 5.620506e-01 5.838202e-01 6.320260e-01 7.123576e-01 7.664148e-01 7.949729e-01 8.071840e-01 8.168180e-01
<GCONST> 2.833144e+01
<TRANSP> 5
 0.000000e+00 1.000000e+00 0.000000e+00 0.000000e+00 0.000000e+00
 0.000000e+00 5.080024e-01 4.919976e-01 0.000000e+00 0.000000e+00
 0.000000e+00 0.000000e+00 6.950771e-01 3.049228e-01 0.000000e+00
 0.000000e+00 0.000000e+00 0.000000e+00 5.459518e-01 4.540481e-01
 0.000000e+00 0.000000e+00 0.000000e+00 0.000000e+00 0.000000e+00
<ENDHMM>
