~o
<STREAMINFO> 1 24
<VECSIZE> 24<NULLD><FBANK_Z><DIAGC>
~h "w"
<BEGINHMM>
<NUMSTATES> 5
<STATE> 2
<MEAN> 24
 3.698660e-01 5.172426e-01 5.595778e-01 6.460292e-01 5.054460e-01 3.936630e-01 4.297129e-01 3.439975e-01 7.601289e-02 -2.578026e-01 -5.538708e-01 -7.266991e-01 -7.236382e-01 -6.172943e-01 -6.393382e-01 -6.765884e-01 -6.197917e-01 -6.457373e-01 -7.092120e-01 -7.929593e-01 -8.442248e-01 -8.222846e-01 -7.711424e-01 -7.370182e-01
<VARIANCE> 24
 1.478665e-01 8.607547e-02 1.017129e-01 1.104620e-01 1.381540e-01 1.480555e-01 1.762959e-01 2.646179e-01 3.502702e-01 3.578220e-01 2.943983e-01 2.434851e-01 2.473550e-01 2.937942e-01 2.638142e-01 2.676055e-01 2.816804e-01 2.527968e-01 2.338115e-01 2.141869e-01 1.823921e-01 1.667603e-01 1.860268e-01 1.980764e-01
<GCONST> 5.886869e+00
<STATE> 3
<MEAN> 24
 6.768165e-01 7.147318e-01 7.611734e-01 8.667740e-01 8.637202e-01 7.606743e-01 7.874128e-01 8.549559e-01 7.326471e-01 4.014231e-01 3.455067e-02 -1.946574e-01 -1.891827e-01 -3.767299e-02 -8.213978e-02 -1.160349e-01 -2.933390e-02 -1.050900e-01 -2.548131e-01 -4.249678e-01 -5.351673e-01 -5.528696e-01 -4.645122e-01 -3.959322e-01
<VARIANCE> 24
 9.293617e-02 5.263020e-02 7.101052e-02 7.530497e-02 7.682865e-02 1.000569e-01 1.241911e-01 1.651233e-01 2.180315e-01 2.723500e-01 2.469776e-01 2.004900e-01 1.898268e-01 2.172117e-01 1.937955e-01 1.927031e-01 2.087123e-01 1.934545e-01 1.981594e-01 2.010981e-01 1.777915e-01 1.821384e-01 2.025176e-01 2.023272e-01
<GCONST> -5.599833e-01
<STATE> 4
<MEAN> 24
 8.234468e-01 8.183153e-01 8.662500e-01 9.480202e-01 1.013825e+00 9.643428e-01 9.284363e-01 9.755152e-01 1.012533e+00 9.356369e-01 6.990643e-01 4.558344e-01 3.867164e-01 4.887114e-01 4.355697e-01 3.817104e-01 4.357870e-01 3.738287e-01 2.167851e-01 -8.802012e-04 -1.510250e-01 -2.473035e-01 -1.678054e-01 -5.772236e-02
<VARIANCE> 24
 1.227555e-01 7.470614e-02 9.995738e-02 9.613622e-02 1.093000e-01 1.547897e-01 1.920449e-01 2.577035e-01 3.148310e-01 3.401651e-01 3.531727e-01 3.299363e-01 3.060659e-01 3.206628e-01 2.921498e-01 2.747084e-01 2.802911e-01 2.657755e-01 2.928064e-01 3.166011e-01 2.982500e-01 2.703353e-01 2.852421e-01 3.009242e-01
<GCONST> 8.510813e+00
<TRANSP> 5
 0.000000e+00 1.000000e+00 0.000000e+00 0.000000e+00 0.000000e+00
 0.000000e+00 6.833189e-01 3.166811e-01 0.000000e+00 0.000000e+00
 0.000000e+00 0.000000e+00 5.088704e-01 4.911296e-01 0.000000e+00
 0.000000e+00 0.000000e+00 0.000000e+00 4.730121e-01 5.269880e-01
 0.000000e+00 0.000000e+00 0.000000e+00 0.000000e+00 0.000000e+00
<ENDHMM>
