~o
<STREAMINFO> 1 24
<VECSIZE> 24<NULLD><FBANK_Z><DIAGC>
~h "y"
<BEGINHMM>
<NUMSTATES> 5
<STATE> 2
<MEAN> 24
 4.310525e-01 6.658293e-01 6.938174e-01 5.611112e-01 2.196919e-01 -6.370168e-02 -1.802988e-01 -3.048323e-01 -3.931739e-01 -4.430349e-01 -4.216088e-01 -2.194319e-01 1.933859e-01 4.613089e-01 5.495011e-01 6.252039e-01 6.405699e-01 5.622051e-01 4.108000e-01 1.149028e-01 -1.119309e-01 -2.228871e-01 -2.091800e-01 -1.408805e-01
<VARIANCE> 24
 1.616917e-01 7.597832e-02 1.020478e-01 1.300270e-01 1.716319e-01 1.578004e-01 1.550504e-01 1.711339e-01 1.726002e-01 1.774372e-01 2.228275e-01 3.367778e-01 4.681308e-01 3.591623e-01 2.526402e-01 2.484583e-01 2.383980e-01 2.215262e-01 2.341100e-01 3.006459e-01 2.709392e-01 2.567397e-01 2.513361e-01 2.690304e-01
<GCONST> 6.568086e+00
<STATE> 3
<MEAN> 24
 6.609716e-01 8.258090e-01 9.442796e-01 8.457720e-01 5.804179e-01 2.792237e-01 1.647365e-01 6.393618e-02 -6.404916e-03 -4.608963e-02 2.014399e-02 3.003758e-01 7.866356e-01 1.007037e+00 9.659060e-01 8.960275e-01 8.811088e-01 7.738426e-01 5.582582e-01 2.189028e-01 8.981760e-03 -9.600013e-02 -5.044150e-02 5.232304e-02
<VARIANCE> 24
 1.292462e-01 6.000769e-02 7.594817e-02 8.529428e-02 1.159357e-01 9.159553e-02 7.951106e-02 8.709428e-02 9.106394e-02 1.103929e-01 1.564185e-01 2.470436e-01 3.134117e-01 2.151653e-01 1.889154e-01 2.585900e-01 2.453487e-01 2.290542e-01 2.653993e-01 3.245354e-01 2.827277e-01 2.497268e-01 2.509998e-01 2.841494e-01
<GCONST> 5.018294e-01
<STATE> 4
<MEAN> 24
 8.448364e-01 8.922120e-01 1.008419e+00 1.024483e+00 8.994203e-01 6.656048e-01 5.330647e-01 4.549428e-01 4.081739e-01 4.347133e-01 5.852898e-01 8.420817e-01 1.107609e+00 1.129242e+00 9.470952e-01 8.400362e-01 8.490319e-01 7.492629e-01 5.205246e-01 2.349150e-01 6.755259e-02 1.055441e-02 6.581880e-02 1.561678e-01
<VARIANCE> 24
 1.578455e-01 7.534436e-02 1.093758e-01 1.107254e-01 1.624358e-01 2.074843e-01 1.912995e-01 2.113305e-01 2.195903e-01 2.737081e-01 3.483830e-01 3.851240e-01 3.625698e-01 3.243718e-01 3.811965e-01 4.179705e-01 3.664407e-01 3.493618e-01 3.856285e-01 4.246218e-01 4.106232e-01 4.173472e-01 4.114531e-01 4.072665e-01
<GCONST> 1.245236e+01
<TRANSP> 5
 0.000000e+00 1.000000e+00 0.000000e+00 0.000000e+00 0.000000e+00
 0.000000e+00 6.072423e-01 3.927577e-01 0.000000e+00 0.000000e+00
 0.000000e+00 0.000000e+00 5.135535e-01 4.864465e-01 0.000000e+00
 0.000000e+00 0.000000e+00 0.000000e+00 4.606557e-01 5.393443e-01
 0.000000e+00 0.000000e+00 0.000000e+00 0.000000e+00 0.000000e+00
<ENDHMM>
