~o
<STREAMINFO> 1 24
<VECSIZE> 24<NULLD><FBANK_Z><DIAGC>
~h "z"
<BEGINHMM>
<NUMSTATES> 5
<STATE> 2
<MEAN> 24
 -3.235197e-01 -5.121037e-01 -5.990578e-01 -6.071887e-01 -6.385978e-01 -6.416450e-01 -5.911367e-01 -5.516977e-01 -5.125118e-01 -4.641239e-01 -3.665849e-01 -2.807610e-01 -2.585044e-01 -2.240241e-01 -8.025976e-02 1.050316e-01 3.522912e-01 6.416559e-01 9.964436e-01 1.357712e+00 1.596422e+00 1.717562e+00 1.739109e+00 1.742703e+00
<VARIANCE> 24
 3.006265e-01 3.199855e-01 2.854895e-01 2.387308e-01 1.596981e-01 1.042307e-01 9.610671e-02 9.717081e-02 9.539150e-02 9.986831e-02 1.115800e-01 1.225869e-01 1.251928e-01 1.236117e-01 1.378338e-01 1.613118e-01 2.136028e-01 2.769541e-01 3.864763e-01 4.118132e-01 3.415943e-01 3.213466e-01 3.635700e-01 3.899239e-01
<GCONST> 4.563897e+00
<STATE> 3
<MEAN> 24
 -8.459409e-02 -2.739920e-01 -3.176693e-01 -2.917078e-01 -2.878700e-01 -2.686629e-01 -2.181661e-01 -1.699995e-01 -1.283749e-01 -6.251033e-02 6.477676e-02 1.552176e-01 1.542232e-01 1.745817e-01 3.255131e-01 4.939602e-01 7.019871e-01 9.603260e-01 1.255981e+00 1.516394e+00 1.652902e+00 1.703080e+00 1.696342e+00 1.702290e+00
<VARIANCE> 24
 3.342818e-01 2.983083e-01 2.853394e-01 2.418436e-01 1.662225e-01 1.134549e-01 9.917872e-02 1.013301e-01 1.050323e-01 1.157699e-01 1.291871e-01 1.415110e-01 1.496509e-01 1.451232e-01 1.583307e-01 1.849148e-01 2.470221e-01 2.924961e-01 3.573533e-01 3.806464e-01 3.658388e-01 3.755443e-01 4.197543e-01 4.502900e-01
<GCONST> 6.513684e+00
<STATE> 4
<MEAN> 24
 -3.906527e-01 -4.111758e-01 -3.966763e-01 -3.638347e-01 -3.686713e-01 -4.184136e-01 -4.358003e-01 -4.342119e-01 -4.149146e-01 -3.383453e-01 -2.599828e-01 -2.786324e-01 -3.575518e-01 -3.768760e-01 -2.993038e-01 -2.448846e-01 -1.983240e-01 -1.158996e-01 -1.410792e-02 8.936339e-02 1.324589e-01 1.362805e-01 1.000862e-01 6.942306e-02
<VARIANCE> 24
 8.933555e-01 9.715268e-01 9.788542e-01 9.557884e-01 8.775334e-01 7.217343e-01 6.379962e-01 6.065114e-01 5.766147e-01 5.893101e-01 6.563866e-01 6.630766e-01 5.880962e-01 5.584643e-01 5.987360e-01 5.754171e-01 5.224525e-01 5.327888e-01 5.696183e-01 5.648639e-01 5.433549e-01 5.499460e-01 5.777498e-01 5.964478e-01
<GCONST> 3.371821e+01
<TRANSP> 5
 0.000000e+00 1.000000e+00 0.000000e+00 0.000000e+00 0.000000e+00
 0.000000e+00 7.449432e-01 2.550568e-01 0.000000e+00 0.000000e+00
 0.000000e+00 0.000000e+00 7.111477e-01 2.888523e-01 0.000000e+00
 0.000000e+00 0.000000e+00 0.000000e+00 4.994562e-01 5.005438e-01
 0.000000e+00 0.000000e+00 0.000000e+00 0.000000e+00 0.000000e+00
<ENDHMM>
