~o
<STREAMINFO> 1 24
<VECSIZE> 24<NULLD><FBANK_Z><DIAGC>
~h "zh"
<BEGINHMM>
<NUMSTATES> 5
<STATE> 2
<MEAN> 24
 -1.192879e-01 -3.189363e-01 -4.240050e-01 -4.606508e-01 -5.678529e-01 -6.227685e-01 -5.893731e-01 -5.644283e-01 -5.288810e-01 -4.714172e-01 -3.379968e-01 -9.012076e-02 1.641483e-01 3.609870e-01 6.403132e-01 8.878020e-01 1.107758e+00 1.159794e+00 1.215287e+00 1.362062e+00 1.432113e+00 1.468172e+00 1.485529e+00 1.441121e+00
<VARIANCE> 24
 2.619551e-01 2.946306e-01 2.714509e-01 2.300640e-01 1.555519e-01 9.726883e-02 8.638205e-02 8.251277e-02 7.753632e-02 8.083793e-02 1.041288e-01 1.313570e-01 1.316880e-01 1.896950e-01 2.122014e-01 1.900516e-01 2.079144e-01 2.410455e-01 2.503645e-01 2.499312e-01 2.571526e-01 2.971948e-01 3.133711e-01 3.139237e-01
<GCONST> 2.719384e+00
<STATE> 3
<MEAN> 24
 1.053482e-01 -5.796798e-02 -1.094082e-01 -1.302785e-01 -2.150499e-01 -2.518023e-01 -2.202119e-01 -2.252839e-01 -1.860039e-01 -9.840169e-02 1.037721e-01 4.153961e-01 6.262571e-01 8.135220e-01 1.013964e+00 1.115841e+00 1.199971e+00 1.174297e+00 1.239648e+00 1.327240e+00 1.420806e+00 1.477927e+00 1.507610e+00 1.478208e+00
<VARIANCE> 24
 2.327562e-01 2.660539e-01 2.241580e-01 1.980421e-01 1.227972e-01 8.716427e-02 7.309256e-02 7.697143e-02 8.791293e-02 8.730544e-02 1.124626e-01 1.679750e-01 1.734257e-01 2.315360e-01 2.160935e-01 2.091603e-01 2.236557e-01 2.486642e-01 2.879876e-01 2.545869e-01 2.679207e-01 2.997442e-01 3.394517e-01 3.557014e-01
<GCONST> 3.206245e+00
<STATE> 4
<MEAN> 24
 7.350718e-02 1.203783e-01 1.085901e-01 1.176460e-01 -4.412757e-04 -1.390920e-01 -1.767418e-01 -2.143735e-01 -1.978538e-01 -1.306912e-01 1.654051e-02 1.715293e-01 2.028725e-01 2.237673e-01 1.994815e-01 2.027031e-01 2.521761e-01 1.504681e-01 1.360162e-01 2.245393e-01 2.254813e-01 1.724704e-01 1.482824e-01 1.311209e-01
<VARIANCE> 24
 5.887899e-01 6.726667e-01 7.215219e-01 7.190722e-01 5.960884e-01 4.221119e-01 3.702322e-01 3.602421e-01 3.357821e-01 4.044972e-01 4.854038e-01 5.315111e-01 5.381188e-01 4.914373e-01 4.820291e-01 3.890663e-01 3.700142e-01 3.854470e-01 3.876706e-01 4.245850e-01 4.673031e-01 4.794536e-01 4.881097e-01 4.970776e-01
<GCONST> 2.611325e+01
<TRANSP> 5
 0.000000e+00 1.000000e+00 0.000000e+00 0.000000e+00 0.000000e+00
 0.000000e+00 7.310469e-01 2.689531e-01 0.000000e+00 0.000000e+00
 0.000000e+00 0.000000e+00 6.959184e-01 3.040816e-01 0.000000e+00
 0.000000e+00 0.000000e+00 0.000000e+00 5.224359e-01 4.775641e-01
 0.000000e+00 0.000000e+00 0.000000e+00 0.000000e+00 0.000000e+00
<ENDHMM>
