~o
<STREAMINFO> 1 24
<VECSIZE> 24<NULLD><FBANK_Z><DIAGC>
~h "proto"
<BEGINHMM>
<NUMSTATES> 5
<STATE> 2
<MEAN> 24
 -1.411554e-09 -1.074112e-09 -1.023242e-09 -5.299024e-11 -3.760188e-10 -5.156480e-10 1.505400e-09 4.699705e-10 -5.646110e-10 1.507043e-10 -2.239739e-09 -1.168329e-09 -1.681592e-09 1.983319e-09 -1.608148e-09 2.870693e-09 3.019808e-09 2.700383e-10 4.983202e-10 -7.989869e-09 -5.402514e-09 1.577732e-09 -1.252795e-09 -3.021398e-09
<VARIANCE> 24
 9.995706e-01 9.996758e-01 9.997059e-01 9.996885e-01 9.996291e-01 9.995357e-01 9.994587e-01 9.993922e-01 9.994023e-01 9.994155e-01 9.993897e-01 9.993878e-01 9.994526e-01 9.994543e-01 9.994646e-01 9.994947e-01 9.995192e-01 9.995152e-01 9.995108e-01 9.994273e-01 9.994509e-01 9.994518e-01 9.994161e-01 9.994186e-01
<GCONST> 4.409687e+01
<STATE> 3
<MEAN> 24
 -1.411554e-09 -1.074112e-09 -1.023242e-09 -5.299024e-11 -3.760188e-10 -5.156480e-10 1.505400e-09 4.699705e-10 -5.646110e-10 1.507043e-10 -2.239739e-09 -1.168329e-09 -1.681592e-09 1.983319e-09 -1.608148e-09 2.870693e-09 3.019808e-09 2.700383e-10 4.983202e-10 -7.989869e-09 -5.402514e-09 1.577732e-09 -1.252795e-09 -3.021398e-09
<VARIANCE> 24
 9.995706e-01 9.996758e-01 9.997059e-01 9.996885e-01 9.996291e-01 9.995357e-01 9.994587e-01 9.993922e-01 9.994023e-01 9.994155e-01 9.993897e-01 9.993878e-01 9.994526e-01 9.994543e-01 9.994646e-01 9.994947e-01 9.995192e-01 9.995152e-01 9.995108e-01 9.994273e-01 9.994509e-01 9.994518e-01 9.994161e-01 9.994186e-01
<GCONST> 4.409687e+01
<STATE> 4
<MEAN> 24
 -1.411554e-09 -1.074112e-09 -1.023242e-09 -5.299024e-11 -3.760188e-10 -5.156480e-10 1.505400e-09 4.699705e-10 -5.646110e-10 1.507043e-10 -2.239739e-09 -1.168329e-09 -1.681592e-09 1.983319e-09 -1.608148e-09 2.870693e-09 3.019808e-09 2.700383e-10 4.983202e-10 -7.989869e-09 -5.402514e-09 1.577732e-09 -1.252795e-09 -3.021398e-09
<VARIANCE> 24
 9.995706e-01 9.996758e-01 9.997059e-01 9.996885e-01 9.996291e-01 9.995357e-01 9.994587e-01 9.993922e-01 9.994023e-01 9.994155e-01 9.993897e-01 9.993878e-01 9.994526e-01 9.994543e-01 9.994646e-01 9.994947e-01 9.995192e-01 9.995152e-01 9.995108e-01 9.994273e-01 9.994509e-01 9.994518e-01 9.994161e-01 9.994186e-01
<GCONST> 4.409687e+01
<TRANSP> 5
 0.000000e+00 1.000000e+00 0.000000e+00 0.000000e+00 0.000000e+00
 0.000000e+00 6.000000e-01 4.000000e-01 0.000000e+00 0.000000e+00
 0.000000e+00 0.000000e+00 6.000000e-01 4.000000e-01 0.000000e+00
 0.000000e+00 0.000000e+00 0.000000e+00 6.000000e-01 4.000000e-01
 0.000000e+00 0.000000e+00 0.000000e+00 0.000000e+00 0.000000e+00
<ENDHMM>
